encog,BasicNetwork,java,3.3.0,1,1432656837303
[BASIC]
[BASIC:PARAMS]
[BASIC:NETWORK]
beginTraining=0
connectionLimit=0
contextTargetOffset=0,134,0
contextTargetSize=0,120,0
endTraining=2
hasContext=t
inputCount=9
layerCounts=3,121,130
layerFeedCounts=3,120,9
layerContextCount=0,0,120
layerIndex=0,3,124
output=0.162885402,0.0854691845,0.1070719893,0.0236558655,0,0,0,0.0236558655,0.0031931726,0,0,0.0236558655,0,0,0,0,0.0236558655,0.0236558655,0.0236558655,0.0236558655,0.0236558655,0,0.0000000049,0.0236558655,0.0236558655,0,0,0,0,0.0236558655,0,0.0000492304,0,0,0.0126581299,0.0236558655,0,0,0.0236558655,0.0236558655,0.0236558655,0,0.0236558655,0,0,0.0236558655,0.0236558655,0,0,0,0.0236558655,0,0.0236558655,0.0000000007,0.0236558655,0,0,0,0,0,0,0,0,0,0.0236558655,0,0.0236558655,0,0,0,0,0,0,0.0236558655,0,0,0,0.0236558655,0.0236558655,0.0000000769,0,0,0,0.0236558655,0,0,0.0236558655,0.0000000074,0,0.0236558655,0,0.0236558655,0,0.0007753664,0,0,0.0134334877,0.0236558655,0.0236558655,0,0,0.0000000038,0.0236558655,0,0.0236558655,0.0236558655,0.0236558655,0.0000000333,0.0236558655,0,0,0.0236558655,0,0,0,0,0.0236558655,0,0.0236558655,0,0,0.0236558655,0,1,16,1.552,42.6,0,0,0,25,0.825,80.4,1,0.162885402,0.0854691845,0.1070719893,0.0236558655,0,0,0,0.0236558655,0.0031931726,0,0,0.0236558655,0,0,0,0,0.0236558655,0.0236558655,0.0236558655,0.0236558655,0.0236558655,0,0.0000000049,0.0236558655,0.0236558655,0,0,0,0,0.0236558655,0,0.0000492304,0,0,0.0126581299,0.0236558655,0,0,0.0236558655,0.0236558655,0.0236558655,0,0.0236558655,0,0,0.0236558655,0.0236558655,0,0,0,0.0236558655,0,0.0236558655,0.0000000007,0.0236558655,0,0,0,0,0,0,0,0,0,0.0236558655,0,0.0236558655,0,0,0,0,0,0,0.0236558655,0,0,0,0.0236558655,0.0236558655,0.0000000769,0,0,0,0.0236558655,0,0,0.0236558655,0.0000000074,0,0.0236558655,0,0.0236558655,0,0.0007753664,0,0,0.0134334877,0.0236558655,0.0236558655,0,0,0.0000000038,0.0236558655,0,0.0236558655,0.0236558655,0.0236558655,0.0000000333,0.0236558655,0,0,0.0236558655,0,0,0,0,0.0236558655,0,0.0236558655,0
outputCount=3
weightIndex=0,363,15963
weights=##0
##double#15963
   0.5121863647,-0.9446781,-0.6902019005,1.0160241594,1.8928485897,-0.9041682001,-0.2575777945,0.8405397669,-0.0403358181,1.7931643092,-0.5985683882,-0.3487080187,-1.9004529534,-0.5506813127,0.2964238875,0.0249950011,0.938007543,-0.0235188896,1.3932162152,0.2298136518,-3.2215969385,0.9836653082,-1.4694332153,-1.1403866137,-1.1496485246,-0.8808053796,1.4908201376,-2.0830541233,-0.3416514277,-1.3075294529,0.7642859353,-0.0509315733,-0.7193531862,0.8697824994,0.0373234153,0.5046127808,0.2221231912,-0.2591489455,1.1314120754,0.5785026921,1.5837329253,-0.4997952611,-0.3651120305,0.1115543436,-1.2138378219,0.0118358653,0.6855206241,0.0349475886,-1.6495723894,-0.632514901,-0.0816751242,0.5725799402,0.2598027631,-0.0782244213,-0.7574319048,-0.2288583681,-1.4272050533,0.141864991,-0.6097060284,-0.3110823014,0.4172435034,-0.130999239,-0.4350433054,-1.3582560493,0.6336714296,0.4337139278,-0.8512375476,-1.280659966,0.5179863232,1.3695640153,-0.5426197243,-0.6030648162,-1.3926250786,-0.4672769017,0.0565676814,1.5066752896,-1.8480299042,1.4149679498,0.8936907225,0.2609263005,-0.5899584072,0.5885001712,0.6967702779,-1.2663803612,0.2853064707,2.0979969365,1.2759901153,-1.2882186777,0.8401161049,-0.3569159207,-1.726866158,0.3837173425,0.2490487901,1.8160159092,0.4968583972,0.6344607841,2.1166390193,-0.5630872919,0.1649708716,-1.3398635929,2.5759556828,-0.3025046873,-0.1619954548,1.0452152881,0.1766539561,-0.3971997967,-1.5134176933,2.2340920947,-1.113595336,0.5406089231,-0.5618538874,0.029525009,-0.9111978549,-0.5042320477,-0.3993936353,1.4643066484,1.2695647068,0.6983699819,-0.3425677792,-1.1146629972,0.1050310381,0.9320227575,0.6064505955,0.4701858152,0.2531191081,0.1526829594,-1.3698743252,-1.0798621971,-1.1931494397,0.4742371845,1.5184569848,-1.753343034,0.5003337704,-0.0653696329,-0.9458452891,-0.8609552673,0.0775188027,-0.1103270248,-1.9363631269,-1.5008268092,0.2750477869,-0.7282631656,1.5229653417,-1.1149160374,-0.9472077172,0.9504950289,0.8907959684,0.1743865562,-1.2037359903,0.0886665421,-0.7059446924,0.7371135194,-0.2354281621,0.8627519887,0.9204359761,-0.5320998326,-0.9900884178,0.0675361414,0.871189469,-1.317588701,-1.1175901573,-0.7636813798,-0.1558380419,-1.2231705838,-1.3441793776,0.7960880221,1.7594041962,1.347974897,-0.2060938093,-0.8206959719,-1.099312899,0.5884614371,0.9411028586,0.9309085254,-0.2620366905,0.1077425658,0.0408731748,0.8034565296,1.1276186202,0.2396160449,-1.0798457508,-0.2322556061,-1.4081774185,1.1868254452,0.1172400247,0.56837955,-0.4690300962,0.1122619037,1.2568509247,1.596770021,0.0641380967,-0.223738277,0.7220869859,0.2749606231,-1.3083596829,0.674252346,0.2101814939,0.9971623253,-0.8730349579,1.6742056612,-0.522220944,-1.0712628185,0.275250599,0.4697157434,-0.5025432765,-0.183621925,1.4093689524,-0.1593285168,0.2493998009,0.1268778787,0.3225749466,0.2071338433,-0.2364768547,0.38210327,-0.1159109129,0.0979781728,0.1822961413,-0.2833393671,-0.6555414711,-1.0364426329,-0.1837515741,-0.1625270012,0.2747732832,-0.1569447816,-0.1120930595,-0.0753787624,0.9874187399,-0.0613455753,-1.0517118566,-0.9907978311,-0.8077897047,1.7168218247,-1.2352845847,-0.8404450009,-2.3757864471,-0.1974249825,-0.2512435134,-2.0964995193,-0.4466065376,0.211840456,-0.7018947286,0.3080315588,-0.2640859321,-1.5475683938,0.8838884379,0.9654289559,1.3684755636,1.5767426741,0.4216541943,-0.8186391143,-1.8004335081,0.208696443,-0.4875505827,-0.4916009632,1.4095728679,-0.4444572371,-0.9419053724,0.403190648,0.0278590982,1.104585056,-0.1946195397,0.8177016479,0.3784705918,0.8687964083,-0.8363699897,1.6609796166,-1.6656956326,-1.3572152174,0.6181761383,1.0452269816,1.0330913674,-0.4980590685,-0.1490317562,0.1328550806,-0.2260016515,-0.6437920032,-0.8846977612,-0.5643824061,0.309649829,-0.0846507738,0.4135721267,-0.0973970469,-1.0031191959,-1.1058961483,-0.2952263751,0.3319179127,-1.1564802647,-1.1467321168,-0.4975369661,0.0459669223,-0.5717489564,-0.2293253819,0.7331564414,0.8766841307,-0.7515767518,2.2309974939,-0.5954663226,0.4884532622,-0.8241791713,-0.5582631185,-0.6244637636,-1.4450325388,-1.4735009344,-1.3861503167,-1.9909315455,0.8178822665,0.6043776764,-0.6869455146,-0.6537289439,-0.8166293278,0.2891910403,0.6395058125,-0.4064085517,-0.4893825108,0.3703707565,1.1194045019,1.4008464354,-0.3407854317,-0.8355680815,1.043872165,-1.4587194163,-0.4433787896,0.0568082619,1.7937613823,-0.3534957658,1.3411475805,-0.3784486476,-1.2905258888,-0.7781309466,-0.4221672008,0.4175415545,-0.2135739642,-0.7852908417,0.0513905724,1.1150029958,-0.4252958947,0.5433410186,-0.603171097,-0.4802227146,0.6469475765,0.0063811099,0.492116848,-2.5406233416,-0.9952082625,0.1772825025,0.4427077362,0.8348930995,0.8089068193,-0.767168213,0.8232915558,0.9544053485,-1.3707843541,0.202987861,-1.003721389,1.460770471,1.455116262,1.2378221284,0.0797673843,0.4107421108,0.2334590242,-0.4236373808,1.2625667868,-0.0220678906,1.4616364184,-0.1365963411,1.164889549,-0.876023134,-1.0656671168,0.5659729175,-0.7582080992,-0.473396815,0.1112473562,-0.0004759791,-1.631348003,0.4127258558,0.2092397508,0.343804444,1.0201023512,-0.5956715124,-0.1615578269,1.3831179835,0.8340305035,-0.0204817631,1.1643792662,-0.5697011876,-0.6829109032,-1.594209407,-0.1586227588,-1.3115729246,1.2696362576,0.2114376402,0.0391727202,0.6395444071,0.166897729,-0.671291881,0.1923121338,-1.026183427,0.1221783401,-1.1854445402,-0.0307813213,1.22721405,0.2436131538,-2.6538112935,-0.1182731249,-0.3448715332,-0.082170426,-0.0347323996,0.233240047,-0.2843045076,-0.5879760434,-0.1231343324,-1.4937086792,0.4830832313,1.7828630773,-0.8351094576,0.9132040657,0.739128792,1.5568595712,-0.0861912274,-0.0986212363,-2.7983894846,-0.400265738,-0.7762941486,0.4167377215,0.7756766092,0.4285333665,0.0125930944,3.5685727188,0.6795808108,-1.3595134952,0.2251010493,1.2939678859,0.7132514731,-0.7559861335,-0.2426700218,0.9995631186,0.6255731156,0.4709296116,0.7662127255,-1.1849521069,-0.8883638958,2.1179183149,0.6238000487,-0.3415842748,0.4366278141,-0.3765027335,-0.4416084789,1.5119215819,-0.3641793722,0.24596829,0.4449549528,-0.845056704,-0.2252683402,-0.3936942478,-1.5368670484,0.2103682875,2.0549404937,0.2790053527,0.8900974888,0.7919612241,0.3261638199,0.1788348651,-1.202669017,-1.3321848886,1.7520780765,-0.5116897238,-0.6718674176,0.201424487,1.9763513407,-0.6166046812,0.7994399234,1.8674245139,-1.582539283,-1.7763317772,-1.1233347912,0.2879979885,-0.9162853862,-2.2049421819,-0.6810102561,0.5044697498,-0.7374271069,-2.3735971325,0.5734248575,0.5757851528,-0.4897656772,-0.1552078977,-0.7446825287,0.7200460237,-0.5236716599,-2.203292836,2.1530888876,0.910170785,1.4119928099,-0.8253718836,0.7167640325,-0.6628560275,1.3316455648,-0.1002590531,-0.1998151099,1.6724753006,-0.0727198506,-1.5163693084,-1.1524053641,0.5093949782,1.7738915748,1.0692876612,-0.5370250269,1.5249136404,0.2070913176,-1.0565622664,0.5658173163,1.5846400869,0.7371184812,-0.8699369342,-0.8251513995,0.3801893057,-0.1531942298,-1.7536556937,0.5389208192,-0.4092799069,-0.8575678663,-0.6738584155,0.7520050519,0.5014586859,-0.0499627237,-0.0814816327,0.4514970504,-0.1990520348,0.0285280693,0.8116825468,-1.1046543348,-0.6810473685,1.3687598644,1.5035341173,0.3532899607,1.0135698649,0.1597559351,-1.9650639996,-1.5164003015,-0.4721800689,0.4926837951,-1.0048864032,-1.1069936906,1.1647727015,0.6025449277,1.5665919323,1.3150925946,1.1326557569,1.4467153427,-2.0253196834,0.8982851436,-0.2159634546,-1.9437174449,-0.0228461025,0.628234976,-0.1126071523,0.4131379597,0.6399338792,0.7690524964,0.1696416856,0.3497635869,0.5750505047,-0.1026672711,-1.6652859921,-1.1331937757,1.0754103215,0.5032142969,0.9044594221,0.1219145069,1.1248840745,1.2299572553,1.2197033754,0.1321883122,1.2079668906,-0.5969294486,-1.6564718742,0.877154683,0.3357870717,-0.1969703715,0.3569715554,-1.1366142578,0.2785891346,0.8561247645,0.810663149,1.2612347929,-0.6586798968,-0.8332091418,0.9345059989,0.6856979809,0.0388726834,0.6407415322,0.6680433212,-0.5283682537,0.1238272995,-2.3288014754,0.4825907547,-0.4744678916,-1.0735426333,-0.828171452,-2.219442222,0.6079941264,0.115676461,-1.2893112425,2.0293593295,1.3139447468,0.2670829313,1.0975152063,-0.0051979124,-0.8313442736,-0.5978069675,1.6258036569,-1.018603542,1.3503885178,-0.7179125107,-1.1919897058,1.2958038482,0.0615413472,0.182426646,1.0040876167,-0.3525583726,-0.3977910784,-0.1110272818,-0.4124430434,-0.2473577903,0.6288762892,-0.3255401069,-0.1455845391,-0.9318697269,-0.4039021742,-2.7006314231,-1.4115016483,0.1782555078,0.3896643769,-1.0839566044,-1.4271948388,0.4768838411,1.3680827429,-0.0471537276,0.5395473709,1.0543775474,0.4685118651,0.1057431321,1.1796813771,-0.6521394657,0.144266975,-0.2995977796,-0.1630966088,-0.2992219416,-1.2089007923,0.0819404795,-0.7637837255,1.355878149,1.6052391655,-1.5785458976,0.4641541432,-1.5773084832,-0.2437807003,-0.6679351684,1.1768269946,-0.8641085069,0.0292851303,-0.525762926,-0.6482568015,0.4909590921,1.3994836631,-0.4584476414,-1.105921034,1.3149992073,0.9210418545,-0.8783961571,-0.8465800588,0.5248609111,1.8072830182,1.3522278157,-0.8951224008,0.9219131743,-1.8538682193,-0.858747539,-0.5086797884,-0.317387345,-1.5657643198,1.589991599,-1.7800775565,-0.2714945866,1.3957303801,-2.6375062962,-0.5831781504,0.1993254138,0.0579358021,-0.1641677639,0.9458821882,-0.5362177185,-0.0686637931,-0.49238282,-1.6668465856,0.2884518658,0.0267710617,1.5265849466,-0.2335751015,0.1203262224,1.7020763962,0.7775294054,-1.9776049741,0.9638914281,-1.0125422161,-1.1387779268,-0.172698549,-0.9345810672,-0.5657101661,1.4745615144,-0.0004751211,2.569931207,0.0091002041,0.1225093697,0.0502885043,-1.5565885153,-0.5764063506,0.5266096681,-2.1219126015,0.2816519474,-0.8768927017,-0.5223403685,0.2337058562,-0.7103122872,0.7155313868,1.1793299691,0.1674462364,0.7147384906,0.0096478223,0.326958609,0.4375420061,0.0863168566,-0.5837097645,0.3397446201,0.2373508078,0.1820035653,-0.1252440921,-0.1811007448,0.7844827057,-0.1100845451,0.6548548179,0.6533992446,0.9324491572,0.6491235594,0.854938554,-0.2559338296,-0.3667138893,0.6064917526,0.3498896418,0.0029859261,0.4830369723,0.3663430029,0.8207721313,-1.3749086178,-1.0022819216,-1.1122053083,-0.1978392065,-0.251084291,-1.2913254753,0.3146338517,-0.2667934413,0.2238937943,-0.7071733727,-0.2652600483,-0.2986143121,1.468167439,1.3428174489,0.8225620298,-1.2076347091,-2.0461220353,-1.5819414184,-0.6817899071,-0.7523921098,0.3704647392,-1.4153426319,-0.7557434691,1.6451947183,0.855046191,-1.132836657,-0.3656893863,0.8032632879,1.6126462583,1.0075207373,0.0235039746,0.9276587248,0.3377348194,0.7662014342,-0.020231144,0.9362825054,0.2316827432,-2.8110788705,-0.086984771,1.2402352076,0.2370372636,1.0569029614,2.1842196929,0.1881267462,-0.2085452142,-0.9939032577,-1.2834932816,-1.1495089243,0.5201879124,-1.1960682194,-0.3415585613,-0.9553251647,0.3870685258,1.1180609809,-0.017928681,2.6841818209,0.6798840621,0.6107602268,-0.0332597364,1.8954190304,-0.6778898581,-0.4023715548,1.7132392858,1.8514695726,-0.2691762084,0.6928406175,0.3735244131,-1.529655649,1.0668224338,0.7975250021,0.554785477,0.8669173012,0.6060718259,1.9408549442,1.5262461254,-1.8406746787,0.9912029302,-0.5353968449,0.0682909559,-0.5567106023,0.1986370603,-1.1895558303,-2.5484522559,-0.9689754802,-0.1965842122,1.2192436095,-0.873254697,-0.622794279,-0.0684774512,0.6755422444,-0.1874281483,1.3076225133,-1.5435195565,1.3639255219,0.8002567809,-0.3339904499,0.1560494537,-0.351613908,0.1814261257,-1.6994728339,0.9221250435,0.4584115232,0.4108410485,0.2821447013,-1.1795764805,1.0667596806,-0.3123601539,0.3801428523,-1.5588563805,0.6156464395,1.3431402921,0.182375042,2.0340118434,-0.9907668085,-2.867376546,-0.436642404,-2.2468176082,-1.2784140219,-0.766330354,0.399719528,-0.3092045222,-1.1441162971,-1.2221254855,1.0827854795,-1.1036330176,-1.9164007414,-0.1753223543,0.3182057126,-0.8238042326,0.0650185834,1.7678518924,-1.5533384975,0.6362055083,0.0524610709,0.3232583069,0.4231450215,0.2422858097,-0.314929661,-0.0699673945,-0.0287271098,-0.3577804417,-0.6235675871,-1.2747277526,-0.7776449343,0.7577993768,0.5311956534,0.4402698615,-0.05578346,1.0496226307,-0.0617616199,0.5294717935,-1.3344706157,-0.6427635427,1.617595789,-1.0403516094,0.152754948,0.5181395807,-0.3952605934,1.0218835491,-1.5662874765,1.6001834743,-1.6388614669,-1.2905200343,0.2692046449,-0.5021141594,-2.4402741248,0.8814033771,0.3809764425,-1.6643945865,-0.5625219182,-0.1038840632,-1.0605144632,-0.0861304996,0.4453290971,0.3022391463,1.3387827248,-2.049435039,0.9222176343,-0.8136457886,-0.5535996782,-1.789175142,-0.2244782802,0.0850040064,0.4036677512,-0.1704155886,-0.0167766106,0.1505681847,-0.2559393222,-1.0880099562,-0.9494254328,0.4187599837,-1.5772495131,-1.1177722715,-0.0973309398,-0.6310332932,-0.6108795096,0.7737881483,-0.1461179602,0.822131603,1.5218389351,-0.3747710562,-1.5473124699,-0.9287510308,0.7663018804,2.1853312954,0.4122097015,0.0702614885,0.0039706483,-0.7422803162,-0.1053184546,-0.8452814078,0.0876314236,-0.5972864853,-1.5085034405,-1.6570890076,0.7979424645,-0.2085725618,0.9704823172,-1.638728748,0.4686601827,-0.1600923753,0.1864186075,-1.9352637071,0.1290471421,0.4346913496,0.8656646442,0.5095283043,0.8125735542,0.5876677931,0.4013676772,0.3099281148,0.6498491504,0.51859993,0.6402526456,-0.7152413868,0.5461748529,0.2611953983,0.7741621479,-2.0809514588,-0.7769523165,0.1903191601,-1.016799535,1.3424388153,-1.6069943223,-0.256117541,0.9490267565,-0.6726916515,0.808926957,-0.1984274483,0.0932573002,1.2573002189,-0.1477289759,-0.748605817,-0.1164640572,0.525517331,-0.4195364721,-0.8407599284,-1.4727785943,2.5348606992,-0.0174993477,0.8286276099,0.0216026026,0.5631158292,0.2714606235,0.9583033305,0.7631790222,-0.6452542739,-0.9002347986,0.2760295285,1.3705203728,-0.5875350867,-1.2682346445,0.5035533646,-0.2188478419,-0.5047631015,1.4825686963,1.335680876,0.5171252874,0.9421187373,-0.5087362182,0.6845024079,-0.2098238565,0.1009397496,0.1937263701,-0.1398005336,-1.4713297423,-0.5326736249,0.6929369139,-0.0673841844,-0.7520248383,0.052394656,0.4810974191,0.2527822791,-0.4363612071,-0.7031088052,-0.9645483582,1.8593423372,0.1139809445,1.4917945016,1.2825056274,1.1123163175,-0.3109418484,-0.8213994721,-1.303984114,0.4066333804,0.7794303436,0.9381196485,1.4032126018,0.6343645165,0.0040294194,1.0275656982,-0.7985586222,-0.8489188378,0.9099399872,-0.3385888127,0.3526084941,0.9072948277,0.1593591639,-0.7708435047,-1.3482697459,-0.2359384615,-2.2091883798,0.8381003004,-0.5608610398,-1.320119172,-0.3930424674,-0.0952827665,-0.9808571923,0.8864677445,0.4575034038,0.8210536015,0.7762264562,-0.0260691763,1.3725184878,0.0008899042,0.1063219605,0.3256805532,-1.3872980293,0.9900183531,0.8044606046,0.0278908872,1.3110279133,-0.2832587923,-0.0306721781,-0.5101073916,0.4977034877,-0.963035468,-0.3529670265,-0.9356997501,0.6695139776,1.0644557042,1.1051216114,-0.5864130821,-1.3074004354,1.1712527892,-0.4097090861,-2.1768242378,1.3572089303,2.0282773089,-1.0490112933,0.6810755619,0.5394387616,-0.8290659862,-0.3163615716,1.5762456865,-0.2295624062,-1.4609551979,-0.1741717297,0.3249212176,0.056621516,0.1376286107,-0.6157630192,-0.4593575453,1.9965030885,-0.5615694312,0.6258204184,-0.0385382749,1.2971680762,0.6214163857,0.5373928719,-1.4731184464,1.5524349529,-1.0272696467,0.0950551947,0.5495732608,-0.8074280027,-0.9075659229,-0.0746870122,-1.0150454291,-0.4313490345,-0.0260681628,-1.780289535,-0.5781912786,1.3720901206,-0.5203851428,-0.451232993,0.2738422065,-1.2096712049,0.2698787385,-1.6033414665,-0.1979918783,-1.1058850449,-0.7064841427,-0.430396308,1.6154414022,-0.136598626,0.0174024834,-0.2590900402,-0.8884231306,-0.8780228425,1.1106763221,-1.9982274704,1.4845966073,-0.1962334484,-0.1743383805,1.3646412985,-0.5532281886,-0.3048580674,1.3024462863,-0.5852060103,-1.198133963,0.0023637236,-0.4006957516,-1.72322214,1.147521655,0.5419711277,-1.9018013991,0.838612473,0.7088573225,-0.8198325728,-0.6375638817,0.2546487833,1.1371015448,0.0518089668,-1.1317572871,2.1917646192,-0.6702745843,-1.2169973733,0.4755130717,0.4055874285,0.2440778443,0.1712392462,2.918624798,-0.5351463774,-0.4731259693,0.8539317033,-0.5418976635,1.4099717901,-1.1278240611,-1.4875547134,0.201917601,1.567027725,0.0626255556,-0.8551971946,-0.5746938724,1.2877747116,0.7688069784,1.799170617,0.622119199,0.178552622,-0.4887271562,-0.750934096,-0.5146243215,0.9677885133,1.0105401847,0.2082822688,-0.0454722608,0.7579951645,0.0962556487,1.0449272839,-0.2675859288,1.0931195564,1.307012327,0.0112263783,-0.5562025693,0.4952887585,-0.6415218871,-2.1380304263,0.8233803005,1.899975032,-0.6567032655,-1.1259382554,-0.9646656836,1.027986428,0.9185086631,0.1159769284,-0.3603409356,-1.8452551709,-0.038571005,-0.8958957337,0.0649448212,0.6631509833,1.9330674706,-0.9034197957,-2.3645484193,0.6857583549,0.6319712382,-0.3661801578,1.6204056846,0.6930378521,0.3760714834,-0.2422194154,0.0167292845,-1.0340237183,-0.3020556227,0.1366389153,-1.9014260531,-0.7656377906,1.0076368328,0.8531759212,-0.5708379659,1.462690665,0.8229721646,0.7568609515,1.3746631566,-1.2770459028,2.1359159524,-0.1800970226,0.991117871,-0.9060797812,-0.4505547156,1.1239066855,0.8246499975,-0.9118831804,1.0589449803,-0.1569267481,-1.7169844866,-0.8575510911,-0.2355923615,0.0813046786,-2.0448886256,-0.8465532295,-0.4652376546,1.5420317879,-0.2716095969,-1.2267394986,-0.8156105114,-0.6953400228,0.5868238936,-1.1472941882,1.5082981624,-0.2578927619,0.5536576568,-0.181745155,0.2173172969,-0.1091823574,-0.0475741908,0.593144376,-0.1974376837,-0.4357908534,-2.2359584865,-0.1481740291,0.8054113258,1.0785604542,2.0845570163,0.9630719015,-0.4457365842,0.6977087518,-1.2639765392,0.488320475,1.3046704559,-0.9879297047,0.0724202427,0.2414020426,0.4782715482,0.2108044938,-2.627705096,-0.8000702801,0.5054521253,0.3019525828,-0.4308248451,0.4697330414,0.3762943312,-0.4464588468,-0.2101320532,-0.0009892087,0.5986179313,0.2413872702,-2.2907220518,0.6959570918,-0.6537794933,-0.3712775936,-0.69990106,0.9324415793,-0.1935425495,-0.2070888387,0.8800122465,1.4424170454,-0.5078719864,0.0668126946,-0.3979863051,1.0664171599,-0.3573711528,-0.0380720654,-1.1040648963,-0.7491483457,1.3590687392,-1.7537536537,-1.5165137772,2.2281298675,-0.8132108833,1.8676076329,-0.0760802899,-0.8421162623,-0.7033001342,-0.646676368,0.2945503414,0.8722410692,0.2366776382,-0.2874109787,-1.4293209112,-0.2328781282,0.4680425124,0.677675137,-0.2270252748,0.1970700836,1.1780405968,-1.2093012356,1.0205187346,0.2816038865,-1.171429409,0.1793428066,0.1961171829,-0.514449192,1.3095813751,-0.4420942763,1.6026489137,0.1193223217,-0.1986654307,1.4109766089,-1.2164092521,0.4893541513,0.3477004772,-1.2591986285,-0.9135937435,-0.4775924202,1.3365288324,0.3878477186,0.202087922,0.8533468817,1.419696989,-0.1510677762,1.6000678767,1.0521485604,-0.3763042776,0.3847481065,-1.0095004557,1.576639156,0.4754443847,-0.9467292466,-0.4094285648,0.6663362567,2.0385867941,1.0172960188,0.1562443801,-0.6418982097,-0.7771175796,-1.7979501932,0.8399024204,0.0405663609,-0.8433912832,0.7466235831,-0.7710031041,0.3177263667,-0.6767326808,2.1731300017,1.2236136657,1.2339392511,1.8726278653,1.137789813,0.6886944046,-0.8208978809,0.1665170933,0.2679138202,1.1799133444,-0.1505107936,0.6601298866,-0.7443944712,0.0918982507,1.2916376914,2.4897341017,-0.7582004478,0.1069286908,0.1311139055,0.1212877357,0.553529995,2.7873899128,0.5590768866,0.873712633,0.5867822634,-1.6093689353,0.1568721001,-0.1674246808,1.6691459423,-1.2158649398,-0.117731543,-0.2478793858,-0.4013146161,-0.8307279628,0.3685440935,-0.7944084205,-1.3296903823,-0.5451580281,-1.1731517086,-0.3570269374,-0.2740728786,-0.1882349589,-0.9015729671,0.5844702927,-1.6230652489,0.1165085471,-0.1309279431,-1.8405242285,0.0393732356,-0.3382417519,1.3509076958,-1.7430786187,0.1752248157,-1.4344090646,0.0032459329,-1.1557177257,0.1485681181,-0.0244807539,-1.0170713175,1.6369504587,1.5698443328,-1.0721883622,1.3242824797,1.5875547021,0.3031698079,0.4760864697,-1.3525664126,0.2495692602,1.3810184163,-0.180568013,0.3145041316,0.202036006,1.4323728138,-0.8690594387,-0.8901794428,-0.0646061865,-1.6725424297,-0.8032786639,0.8604331956,0.3752963715,1.1729104797,0.5008446468,0.684777749,-0.6430760963,-0.3161338418,-0.3301297178,0.7513432028,0.813831815,-0.0954713725,-0.3992377471,2.5517280277,0.3504707387,-0.946169297,-0.5362701813,1.6013388802,-0.5172969937,-0.7852460497,-1.0589165734,-0.9445534324,0.443861331,-0.49424628,0.899886756,2.0691086302,1.0740681772,1.3640945933,-1.7808526528,-0.4311051261,0.1418027711,-0.4318025089,1.6358156892,0.7385563227,0.6081210271,0.878211367,0.294799969,-0.9909716839,1.414027173,2.2867893555,-0.3680673534,-0.0704394656,-1.2360681143,-1.6188947001,0.1700542162,0.3801448847,-0.0391192545,-0.6651275323,-0.9577719471,0.6945414158,0.5617653238,0.5524672501,-0.4833385563,-0.2200026381,-1.5237627772,0.6574073452,-0.1096015725,-0.3294392154,0.2319800836,1.0182842206,0.3138638015,-0.3821106074,0.5839370288,-0.0320186549,2.168090503,0.2086552184,1.0815625743,1.6874521542,0.7667968182,0.0524357121,-0.4369773596,1.6413342941,0.2137270278,-1.4827438312,-0.3471661893,0.1284405739,0.3570517592,1.5767495472,0.4452635467,0.7542558548,0.2489313353,0.2021029161,0.6444785376,-0.5634392524,-0.566455688,0.7663275436,-0.3962073024,-0.8755748874,-0.4809568622,1.553458995,-0.6415931678,-0.4690639696,0.212660488,2.0839214042,-0.3604936419,0.3864015851,2.1814363624,-1.9814601949,-1.3673406873,-1.643829882,-0.80932048,0.3475596963,-0.0146914697,-0.2905924479,1.094257023,-0.8915387459,0.1422633287,-0.3953240805,0.4841632522,1.25271049,0.8935108086,-0.7265843977,0.2934518013,-0.0340244041,0.7985753934,-0.5535941999,0.9465812403,-0.0643620126,-1.3251570307,-0.2273036481,0.7081324978,-0.3903558074,-1.113605285,-0.1007905121,-0.1816288969,0.9134773867,-2.5151441809,-1.2057648839,0.2107402242,-1.7878696761,-0.7944231854,-0.2341143502,-0.0118614849,-0.7496268577,0.3751888191,0.1397005838,-0.7075670063,0.2823577557,2.5118689299,1.1882340518,0.188050421,1.1548111724,1.1123635938,1.3831589963,0.416292813,1.0350408167,-0.3843666981,1.9286251561,-1.0638195562,-1.9006904502,1.5104711324,0.0270246366,0.4002329573,-0.1845911821,-0.9520654149,-1.2306113684,0.7242152946,1.3491044291,-0.2653149404,0.5086705285,-0.0700348801,0.0857629939,0.3007766493,2.1623132234,0.6793877013,-0.7930607482,-0.5410783635,0.0118480267,-0.4182044811,-0.5060005778,-0.7457174484,1.5173274981,-0.0598422831,0.1226278077,-0.6202356899,0.414405103,-1.3692736638,0.7770465985,0.0032890259,-0.4223409103,-0.6687842654,0.5403282502,-0.2659248584,0.7213422192,-0.4020848,1.671797009,-1.7999642319,1.3040247889,-1.1890456863,-0.1622588839,-0.8212640479,0.2328501641,0.4446971307,0.5250956169,0.8321637545,-2.7538584004,0.5708263279,-1.1306329852,-1.256234424,1.0104853114,-0.7564299472,1.4344149333,-0.3095039653,-0.5498001376,-0.1289257615,-0.8566513309,0.3509495665,0.7491158546,0.170101119,-0.9295293472,1.0390584128,-1.9581637435,-0.7357365224,0.6603766428,0.0731569127,0.988149787,-0.3362881163,-0.8740802916,0.1346876489,0.2973137106,-0.9765888884,-0.1711662814,1.1419245861,0.0800554692,1.1036415138,0.2400884797,0.6613655983,0.1625877113,-1.2906657821,-0.7470202291,1.3444552831,0.2005555633,0.0356724161,0.0368674885,0.32451431,1.4845204989,-0.6826177434,-2.4546890455,1.4619623595,-0.1004732773,-0.90090123,0.1134663285,0.6366079128,-0.2795787622,1.706227604,0.86262677,-0.0338629085,-0.5382859793,0.6835305285,0.8455778008,0.2879877927,-0.9507058385,1.0004281934,-0.7943975283,-0.6529504407,-2.4682126024,-1.3216339228,0.1258464091,-0.5383198243,-0.5049294497,0.2910028499,1.0826697681,0.0348184977,1.448729517,-1.4529426527,2.0850185187,-0.3850158657,-1.7341311822,0.766482945,0.7320858571,0.7805506277,0.2195763058,-0.5643469756,-1.3246740987,-0.7075781521,-0.2751356952,1.5460245485,1.5666523749,-0.0405030732,-1.1758395082,-1.2798655127,-1.2688163588,0.8313953943,1.3600568921,0.428593427,0.0560704503,0.0177487386,-0.2116100088,-0.0251528048,-0.6949677791,0.1218897833,2.18524188,-0.517186449,1.3043193995,2.0863362637,-0.9569495432,0.6402524321,0.0390188214,-1.2026218029,-1.8240364985,-0.9395404055,1.6054792431,0.4037742783,-0.169584169,2.3639820769,0.941797216,-2.2575677888,1.1111007839,-0.2365983145,-1.1765484754,-0.0811902252,1.7755043634,-0.2373932133,0.585906562,-0.9056700986,1.1467893532,0.7733183278,-1.0206921726,-1.431352825,-0.2809133012,-0.4668524682,-1.4982877095,-1.8151920728,1.2108879916,-1.3965362399,0.6335226323,0.5627213009,-1.2493173123,1.8463459779,0.5481621844,1.3835551939,-0.3524838143,0.2083720896,1.4590802969,1.1567572335,1.3623170111,1.2519428993,1.7990990668,-0.418032017,1.3155366882,0.0292725417,0.692307713,0.0289250666,0.3622182129,-1.1252193481,0.6740407917,-0.4374124803,-0.0690174726,-1.6944147906,-1.6883323732,0.1558770328,-0.8626989875,-1.2667349405,0.3170159137,0.5250817565,0.0700239803,-1.0741195184,-0.8023918464,0.2079914474,0.3610962873,-0.6907172257,-0.3341491949,0.266654896,-1.0278555574,-0.2102968569,-0.9301346128,-0.181058729,0.388095015,-0.0723098223,-0.7175874795,0.7208264789,0.7858599838,-0.3477814666,-0.1123998499,0.9502910043,1.3984922034,0.7838599066,-0.3093431657,-0.4376326676,1.4816501555,-0.4787976054,0.0142722261,0.7029910638,-1.7625842566,-0.9160426124,0.6805399319,-2.2272967993,0.7010238019,0.3418427165,-1.2879366488,-0.7287302228,-0.684523299,-0.1570445757,-0.499687891,0.3368023451,-0.8665069875,0.1204678738,-0.9916065786,0.5766652412,-0.8500570921,0.0865436196,0.7926381375,-1.4821686203,1.5053507028,-0.9758341952,0.5415220733,-0.2642882148,-1.1600755986,0.871652706,-2.2844437274,0.5978535999,-1.0792541638,-0.4782204689,2.2600942643,0.768321508,-1.1881618256,0.8064871937,0.5180428127,1.6245109318,0.1817603587,1.0487343087,-0.835983004,1.3798958252,-0.0972891665,-2.2053251839,-0.7679300126,0.1596516768,-0.6037798582,0.5055174933,-0.9945962552,-1.271160384,-1.0038887925,0.3191046479,-0.9463250861,1.3561241657,-0.197419454,-0.0643437442,-0.7191216191,-0.0560458879,1.8076862324,1.1807173115,-0.5761467347,-1.642798736,-0.5782263532,-0.4301513346,0.5859155569,0.2598154648,-0.5850522777,0.3296668367,-0.7036561661,-1.1305330161,0.8049333139,0.3351804572,0.37444927,0.6594941187,0.6208675838,0.870476329,-0.4693529849,0.4233022068,-0.1346204081,0.59526667,-1.1315700615,0.2284293311,-0.8482853288,0.8345509011,0.3741091993,-0.3962449319,-0.4429874952,-1.178286965,0.888344115,0.379604388,-0.9198386362,0.8048790058,-0.2646997009,0.5539637302,-0.3525104342,-1.6419035335,2.566564034,-1.2984100314,-0.1490740594,-0.5898022618,0.1494685158,0.9582708259,-1.5108533004,-0.3286655754,-0.0354553631,-0.7916760305,0.5412008026,0.966754642,0.4362397169,-1.2949628596,-1.4619819243,-0.3235937335,0.2830301268,-0.7074086663,0.0350722896,0.6093140015,1.2038190082,1.3237682656,1.3022810559,1.7725579965,-1.2743933833,-0.828309818,-0.3046199147,0.0427357479,1.7304882236,0.3778889905,-0.5583628622,2.1312363012,1.0736500206,-2.0328736641,-0.4118257025,-1.3156416264,-1.5622768113,-0.5024713455,1.0049728779,0.0740565559,-0.9883020722,0.3392454828,0.8624533063,-0.4105515243,-1.2626666913,0.5861384568,-1.6277650639,0.0348861791,1.172854143,0.559053912,-0.570553205,0.0133606821,-0.9091629663,0.9409190466,0.7984847533,0.5020226174,0.9891022904,-0.6880256335,-0.4691297347,0.3325930596,0.4314381381,-2.1009200741,2.4857054066,-0.7515762135,-1.5087632251,0.4399547866,-0.1296962022,-1.395902189,-0.3828219195,-1.2731897772,-0.934740903,1.2300964223,-0.6976748971,-0.1579763359,0.0028641707,1.3938332839
   -1.3662315649,-0.1779552917,-1.3894373031,-1.3879641103,0.3438465493,1.886741566,1.3615902561,1.4545643026,-0.3082454391,-0.4085541285,1.4285720817,0.7881607044,-0.1254526546,0.7347539713,1.3409952539,0.4560906803,1.2085283436,2.0912026647,-1.0492634025,-0.9517171815,-0.2399009791,-0.5985581641,1.6334961308,-0.0447508878,-0.0879710439,1.2740683738,-0.3802007864,0.1733844738,0.4057987283,-0.7760392606,-0.0945292762,1.1561657533,0.0226801181,-0.634854251,1.1298366005,1.4100898769,-1.4031251146,-1.3696982031,-1.1103187008,-0.3012334511,-2.2660046542,0.433730326,0.4707621709,-0.6541216969,-0.112763529,-0.9067995801,0.3563953185,1.2580310849,-0.6850541071,-0.3827209312,0.649884715,-0.5276203727,-0.0526914208,1.3508250918,-0.1905593698,1.0773289587,0.4822371881,-0.7011309438,0.5039483691,1.0476660978,1.0673426778,-0.1318357589,-0.2228523929,-0.5260893623,0.8274863362,-0.4902377957,-0.4549737336,0.5308014873,-1.1971330177,-1.4934352049,1.3581519712,-0.4713866139,0.7485701378,-1.8314785563,-0.7221223597,-0.7657776483,-1.7766454909,0.5720452802,-0.4201762834,-0.1114822002,0.7873147448,-0.2882696565,-0.5528171936,1.088281769,0.3844875447,-1.3231564802,-2.5892013629,0.6375037727,0.0885444531,-0.7774932062,-1.2282903712,0.8400672801,-1.0492855831,-0.5039098299,0.9467392873,-1.8198894904,-0.0273908816,0.3856114699,-0.4696160328,0.5349953235,0.8860840124,0.0933590127,2.0954236638,-0.1967805295,-2.0177786954,0.0619980338,-0.1199900934,1.2304565859,0.0423120264,-0.8634672419,0.0786564906,0.4449153068,-1.8495085464,-0.5870245869,-1.6056428251,-0.1521175566,-0.4250659943,-1.4160313696,0.2202349897,0.520976919,-0.3261141326,0.6446182824,-1.8091289546,-0.2401143102,-1.3948010973,-1.129624085,-0.1978268149,1.1916906372,1.4258640759,0.2535122661,-1.3449886778,0.3981620717,-1.3832720675,0.1936297699,-1.2936764878,0.7476258193,-1.3765434053,0.8309478841,1.4341371502,0.1005005998,-0.4142000117,-0.8546632765,1.7309359086,0.4820820786,0.4268202529,0.0549633962,-0.5639459625,0.773577781,-1.152991717,1.9378977568,0.2891327962,0.7348767118,1.6192780596,-1.3514949364,1.7577017992,-0.713692026,0.8030792464,-0.0606227589,-0.7687271163,0.4599065583,0.1254124328,1.0192817912,0.441533631,0.9193512774,1.0895399959,0.647303098,0.4695468545,0.3724066948,-0.0693925743,-0.3430520376,1.1418853361,0.7864716284,-0.8346490647,1.1521726466,-0.2412637395,-0.3026478725,-0.528951302,-0.1141115883,0.1391904587,-0.6743487194,0.2363716132,0.0623899324,-0.4087934285,-1.1154951649,-0.5640178888,0.6087575906,0.6202573251,-0.1066544456,-1.4469357549,-0.2774585705,0.4038211853,-0.1596063277,-1.4128082786,1.172365683,1.3415252234,1.5555498126,0.2131307105,-0.6098373208,-2.3155284197,0.4027378133,0.0276872527,-0.1589289768,-0.5771409317,0.1004851518,0.441447642,0.4435602798,1.0795584948,0.1525473242,1.4936972164,0.296080448,0.9367208338,0.9847460975,-0.223264473,1.03680673,0.5610114858,-0.7570463802,1.7153677718,0.743205674,-0.7676349466,-0.6538372656,-1.1442748914,-0.0361590828,-0.6759877881,0.602787775,0.1965112208,-1.6119590004,1.7318808483,-0.0099917564,-1.0006240934,1.2042720444,-0.2279960366,-0.5484002991,0.3105988199,0.8921016793,-1.2278147643,0.2957042694,0.046185413,-2.1633384591,-1.4744194721,-0.2440475675,-0.6339915698,-0.782115353,-1.6731686337,-0.2848349004,0.5120532133,1.3549947487,-0.4889963208,0.4183161057,-0.3353914842,1.1328469349,-0.3227564693,0.9879498613,-1.4087667622,-2.5585332766,0.6360550947,-0.3997403185,0.5142088641,-0.6857326069,1.3015949887,-1.6987711849,-1.4348641002,0.2991427543,1.5009788748,0.9145216213,0.2497718019,0.7537704372,0.1244975797,0.1419055088,-0.2513631141,-2.9391771312,0.6133425601,0.1540256098,-2.0561586118,0.7393276887,-0.675385735,-1.0962692089,-0.9700734322,0.4482239778,-0.7057120927,0.7709776336,-1.4115987783,-1.2460178231,-0.9015675018,-1.9091603947,-2.8124793931,0.4029968983,-0.6183271192,0.8449941607,-0.6688831605,-0.3527370443,1.3205898005,0.7703178687,-0.4332913829,0.1024256807,-0.3287625852,-1.4324925602,-0.1869199816,-0.4202298339,1.2940272609,0.3503054009,-0.0697354367,-0.5034533694,-0.1200462788,-0.8235909109,-1.7256754335,1.5180465742,-0.8187231328,-0.4739254949,-0.0492692523,0.6377401518,0.6258475895,-0.2711904653,-1.6228818654,1.328944847,-0.6228283166,2.2447189969,-0.1364109498,-0.5056698276,-0.0320716501,-0.100599043,-0.9499686943,0.2636673062,-1.0107180295,-1.4257332888,-0.9450583706,-0.1763561144,-1.4565408834,1.5183892723,-1.0304573025,-1.0450824256,-0.8253908159,-0.3066266884,-0.3549143511,-1.7606360837,0.1714820296,1.0811293234,2.1139170889,0.6154660758,1.6212620721,0.9724202678,0.2674862865,-0.7597683991,-1.1464764323,1.3794520311,-0.6395796157,1.4141736222,-1.2684240679,-0.7674947792,-0.1176251919,1.0006157726,-0.5069881057,-2.0148974027,0.5911172567,0.29159448,0.7335776892,1.1463225193,-0.8240667194,0.3443003905,0.8651906331,-1.2357247048,0.1831459727,-0.1375519633,1.1646964109,0.0590958665,1.441934636,0.5234284823,-1.2528508798,-0.8707783899,-0.6317855468,0.8669072804,0.8530009745,-0.3406167311,0.7685645387,0.395488334,0.1568823718,-1.7834165296,-1.0477702392,-1.2565430632,-0.7394954642,2.4680617495,0.3853578984,-0.1809380812,-0.4760750504,0.6113932394,1.2638583573,0.3879641874,1.8912081863,-0.0875077599,-0.6012613106,0.6045930551,-0.1395660053,-2.5891972794,1.7952770875,0.9625528642,-2.4627524898,-0.0900491504,-2.649947685,0.4919517857,0.4989240226,0.1359553142,1.4161919807,0.5805778571,1.269231149,0.7106771808,0.1268637977,-1.9017224187,-0.5643349956,-0.7179039096,0.3393726313,-1.5255800277,1.5129619118,-1.8508563824,1.6626941533,2.1842293167,0.4704209346,-0.638278355,-2.3000585126,-1.7896860452,1.3956654183,2.0490309568,-0.3196756276,-1.0983739883,-1.0715608646,-1.1489367307,-0.7890792708,-0.7953168725,-0.6800358104,-0.4107553195,-0.8947237876,-1.1618069544,1.2538535851,1.6162300951,0.2561516363,-0.5323729508,0.417147981,-0.3153608511,1.4915854699,0.0121723673,-2.3395564093,-0.4527356941,-0.3327500267,0.4940278079,-0.656039119,-0.7708900042,0.1443191847,0.1637309368,0.0656837256,1.427783203,-0.0950304419,-0.7954490663,-1.3845869844,1.7976431287,0.6876275942,2.1843137812,1.3139215794,0.347227929,-2.2967031525,0.0184548656,-0.4901905872,0.0349096194,2.3804578326,1.0490416015,-0.8987244636,1.0113303931,0.8540414577,0.8849582351,-1.0392213402,-1.3956648424,-0.8600077595,0.0973835428,-0.7776344922,0.4864138315,0.476083386,-0.8730482436,-0.3539786264,0.3896356593,-0.6297798459,0.2992203306,-1.0368395995,-0.4278197175,-1.0512196454,0.32813449,0.5981444221,0.5315159584,-1.1858590648,0.728650766,1.25967023,-0.4825359761,0.9643442893,1.8903084877,-1.4666000037,-0.5182292376,-0.7840017524,0.9205986382,1.268713896,-0.9915465071,-0.2926092567,-1.1574156751,0.0484496731,0.0861131138,-0.8793561923,-0.9575788104,-1.8759185387,0.2323626345,1.0363240857,-0.5239263897,0.339992969,-0.3568053104,-0.3142974674,-0.4129833197,0.2568219832,1.9588429349,-0.4419132365,-0.6903845159,-0.2385483856,-1.679827618,-1.1521029736,0.3661327621,-1.629267963,-0.410985023,-2.0447215323,0.9554142309,-0.3348253526,-1.0026887106,1.4346561341,-0.0673154794,0.5198735754,0.5913687187,0.4041447456,1.3488709669,1.0336808609,-0.5327631879,-0.591016316,0.7927658256,-0.8664968264,-1.1182132193,-0.8716509816,1.0748112154,-0.2512050679,0.3491193053,-0.9601718766,-0.1040066391,0.3320429272,0.2314690993,0.6105859092,1.4957798766,2.3286647064,-0.0622890738,0.0462385881,-0.8028810846,0.7430085244,0.6442847639,-0.8732438356,-2.1967891429,0.0811403507,-0.9217624368,1.9546797009,-0.0672166558,0.7529610052,-0.2779979578,-0.7361208166,-0.0157758477,-1.3279030031,0.9176525346,0.211407181,-0.1221333886,-0.5542123202,-0.1213468865,0.2916254615,0.886699754,1.6831303602,-0.5813946881,-0.8803261219,-0.6137470512,0.1980039908,0.2815593444,-0.8618915604,0.1349101856,0.563085246,0.2507906537,0.2316532968,1.4921336992,0.5678968429,2.0764889251,-0.7379809898,-0.5114205518,-0.4232993728,0.7290065774,-0.3497823699,-0.0592207006,0.0513331767,-0.8726167656,0.5059832687,1.7183946948,1.1154542993,-0.4196449247,2.7449758707,-0.6192666237,-1.6179993614,-1.4631064293,0.361860142,-0.6683140032,0.3486568589,-0.0997288946,0.1005817634,-0.2741691009,0.2740493808,-0.4885423308,0.3506848979,0.9567019578,-0.5574427722,-0.6114008566,1.2707671269,-0.3845577242,-0.4571016304,-1.0130382978,0.2757174526,-0.4399125351,-0.3882587372,1.1945296975,-0.8766828565,-0.6048243776,-0.1904131903,1.9861042391,0.6928918028,-0.9019534476,-0.6308834985,-0.3969199512,0.1486231485,0.1958329454,-1.9046738324,-0.4070328768,0.3816310467,-0.0890346542,-0.1495598265,1.2562795665,0.7826921034,1.5304273938,-2.1216657671,-0.2385996223,-0.3278867559,0.7002386154,-0.5400779712,-0.3083959795,-0.0096118953,-0.7234231621,0.774044141,-0.3421351657,-0.3585569796,0.124650687,0.8610872221,0.1341745946,-1.395387704,-1.610168285,0.5142838142,-0.2318652495,0.6727540606,1.2384742849,0.0565544162,-2.2500694881,1.0518843406,0.2058533416,0.8542610235,-0.7541748961,1.6365402903,0.5878973145,1.0320075571,-1.1178377551,-0.7548064412,0.0485644228,0.2084957259,0.1389392607,0.4046022484,-0.4273067371,-1.6530649343,-1.639695445,-1.1235987315,1.1722285678,0.4889213789,0.9870233135,0.1242380074,0.1921366119,1.4610061543,0.6174490061,-1.0433616317,-1.8430218405,-0.7527105749,-0.4171794937,-1.6050589031,1.6773851892,0.8398516168,-0.1542527841,-0.0821465949,0.3716671141,1.2540533529,2.4994877321,-0.0486280091,-0.5636278929,1.1065811299,0.461224384,0.5578201398,0.3847872256,-0.4044436232,-0.5835031502,-0.7592139342,0.2031997818,-0.326332887,-1.587063201,1.7843606276,0.6874819002,0.6224632938,0.3098185964,0.1754903254,0.9954940715,-0.1696412518,-1.6071504946,0.1602890207,-0.1346386574,-0.7645071669,-0.9862693826,-0.7210538995,0.3514409354,-0.4670974225,1.0838012001,0.1745730537,-1.2059524573,0.4158907282,-0.6801670491,1.2996072159,-0.152809491,-0.2394760569,-1.4485047731,0.7350862119,0.0374843331,1.0173487215,0.8948571584,0.6312639223,0.2143977604,0.7561371159,-0.2273155742,1.6332156743,-0.0117462223,0.8969401219,-0.2207702925,-0.2094251012,-0.834573653,-0.4400557557,-0.7859448361,-1.3091021396,-0.495025232,-0.5799330658,1.1425176732,1.2669915547,1.3220200295,-0.0134413174,0.9712818558,0.8010115824,0.3606749694,0.0941135381,1.2236856813,-0.2152171585,-0.1509641485,-0.4346618976,-0.4871400215,-0.9898088813,0.708698576,0.2352641756,1.0032527636,-0.3362100356,-0.2984387981,0.9994664983,-0.440623995,-0.0421228838,0.8032113065,-0.6687719366,1.0431874051,-1.785589771,-0.1730441356,-1.7989241934,0.5047275425,-0.5247319527,-1.1289165506,0.2531880075,1.2228362248,0.8066816903,0.1623932632,1.1522561264,-0.6823275951,1.3721154864,0.9867189163,-0.7841493668,-1.1162778243,0.2829853266,1.0389497613,-0.3320303826,-0.7783327385,0.0039525205,-0.178983911,-1.5735076672,-2.4836617387,0.8600162735,-1.4406687646,1.2623348932,-0.3204928625,-1.1510640542,2.132083851,0.3861746799,1.3599104261,0.4706578997,0.6132638755,0.7173712437,0.2973399663,0.4912271689,-0.0872958816,1.0034385085,0.26252195,0.2330043862,0.2416302604,1.1009105021,-1.2681593086,0.0200657922,-0.7555270096,0.1112111206,1.119557156,-0.4113273549,-0.4926058085,-0.5123984447,-0.5046543592,0.6028448383,-0.6685456915,0.9252608062,1.0671681272,-0.0533830488,1.7467719451,-0.8345661404,1.3077330901,-0.2908423904,-2.0734169979,-0.0545292564,0.7891381714,0.3699682883,0.2748050592,0.9021814095,-0.3342534383,-1.1981968114,-1.1685116904,0.4242702387,-0.9668452377,-1.0767371931,-0.1738345658,-0.0433234455,-0.5003044418,0.7402181401,2.6813931704,-0.0220955949,0.6813043526,-0.9901611892,-0.0434924011,-1.2191633663,-0.5227850918,-0.2856590845,1.1767729821,-0.5298349592,0.529274135,-1.0623875325,-3.7053323747,0.0919704758,1.6085008105,-0.4721167236,0.1044094251,-0.9022503353,0.5373016871,0.6791096946,-2.6178914317,-0.3524048601,-0.251865719,-0.5349948392,-0.0145109471,-0.3502488073,0.3827856332,-0.6066968527,-0.6384577129,0.4252097216,0.6292124934,1.1729434515,-0.5780306682,-1.2380685511,0.1115970169,0.4241891776,0.8242767252,-1.2631843918,0.8212625575,-0.4132379067,0.1065483751,0.2884161769,-1.1007782672,-0.7103173184,1.3486769011,0.7854666063,-0.5848173167,0.8799550031,0.6458534497,0.6475404133,-0.0126563829,1.899811492,0.8901676934,0.9187367416,1.7172670083,0.460606848,-1.2160064002,-0.3733876444,-1.5685007465,1.5156608785,0.1412319225,-1.0509052127,0.6284504238,-0.0664381749,0.8113992751,-0.8860434602,-0.1511177584,0.0606771898,-0.3723870081,-0.0646530126,0.3883488214,0.863519983,-2.0107498175,-0.1529898969,-0.3569290318,-0.2246991378,-1.391824703,1.4923837633,0.9349008933,-0.7597261029,-0.9204961278,-1.2621818819,0.2375836077,0.3700712683,-0.9618709101,-1.1609299941,0.6441085234,0.3175266536,1.2784874224,0.3945289604,-0.7602805316,0.3612822948,1.1218492902,0.8026654775,-0.9489550451,-0.2989667211,-0.3976616422,-0.4126929446,-0.9158146216,0.3853346831,0.6656938515,-0.2049373868,-0.0845809553,0.3117198538,-0.3464084057,0.6359473158,1.1499324007,-1.6055355073,-1.611127768,0.9973268424,-0.5024049416,-0.1602186314,0.8326316277,-0.3504516353,-0.5514258271,1.5558658085,1.7206811889,0.2164008164,-2.0119693183,-0.1180221623,0.8169684461,-0.5372661462,-0.1799863777,-1.940368538,0.6463129629,-0.7050056617,-0.2475693257,-0.0168301598,-0.0466322043,1.4369024849,-1.067179365,2.3173277113,1.5409927515,-0.8670451506,-1.0354607862,-0.667549048,0.8819242606,1.6497335075,0.6918450291,-0.4851491587,-1.3240949956,-1.1578608847,0.1266254804,0.8863027364,1.0848094752,-0.8996199196,-1.1164897981,-1.049986734,0.1210154888,-0.8787563628,0.7790822822,-0.3865707056,-1.013901101,-0.3412784422,-1.074048206,-0.5610543427,-0.1525704033,0.2597958328,-0.629876514,-0.912702675,0.4570894257,-0.7184210465,1.1700345534,0.6566733022,0.0648121905,0.6058451857,0.547598869,1.7636679468,1.0506574577,0.7432902542,1.4671430526,1.8009765976,0.7130433493,-0.0092344427,0.0832101757,0.8114055578,-0.1656806682,1.7908508675,-0.5779355482,0.7675209029,-0.2367076325,-1.7969011923,-0.8041181471,0.5670896319,0.8359635644,0.2747948157,-0.7802576236,-0.5228269805,0.6904219233,0.5466491205,-0.6941968069,0.8287627582,1.4459787573,1.4088087664,0.4683337422,-2.1960963772,-0.6994410708,1.7320739344,0.0060375764,-0.7457801626,0.2717395485,-0.2546013063,1.1370792301,0.5141625101,-0.9439009932,-0.7692521298,0.1713102404,0.9042311536,-0.5182958697,0.0251262767,-1.2534171591,-0.0592188812,-1.4807479657,1.2614776596,-0.6607520168,0.1269904825,-0.4573576253,-1.6209375301,0.0761420309,-1.1668087636,0.5723195275,1.3757994897,-0.8935850042,0.4631830636,-0.4909998989,0.6166597889,-1.5088275306,0.4684105192,1.8561064685,-0.2531247545,0.1313389718,-0.0332540906,-0.8792859028,-1.3458766082,0.7957926725,-0.574821402,-2.4861233268,0.6167475572,0.6783172213,0.4808976995,-0.0447538127,0.8048541003,-0.7131173679,0.766275072,-1.0928025092,0.185496478,0.2836333069,-0.4982849095,0.8976842481,-0.6233372086,-0.672710031,1.304352452,0.6366066113,1.0296599358,0.419011771,0.2965046365,-0.0141888277,-0.1484371392,1.0116660861,0.6456956467,-1.5288765416,0.9772144467,0.448355504,-0.9077273029,-0.8485785198,0.8002427159,0.3088001272,2.2396258273,-1.1699018282,-2.0206035571,1.6911927651,-0.1577587705,-0.3446309189,-0.0628912394,-0.7803712007,-1.9577529819,-0.9410623811,0.3858660025,0.3000050134,-0.3337496027,0.5472340627,-0.6187497879,-1.4745292814,-0.2588318305,0.0914171715,-1.5184025565,0.1371421287,-0.5227446477,1.2757538934,1.068882899,-1.3624112774,-0.8250734436,-1.0914589732,-0.9888395433,-0.8463703292,-2.595216784,0.3353907613,0.5672962659,-1.1877831949,-0.1314213743,-0.9971286394,-0.0936854754,0.4110327784,0.6145226169,-0.0018323419,-0.4059498983,1.4323085309,0.3010453687,-0.6391970527,-0.7325002524,-1.3099747849,-0.9648298018,0.6353599166,-1.1719509155,0.2705517154,0.4082546233,0.3460516357,-0.3588169992,-1.3121895366,-2.18827225,0.01233339,-1.8618263785,0.7385160609,-0.859836959,0.440230877,-0.7609571422,1.1711932995,-1.1607339994,0.1308175328,0.4292271859,-0.1789347859,-0.8487086038,0.963168413,-0.8558379661,-1.3494077108,0.8201123399,-0.3028202927,0.3656232955,0.2311038399,1.1103372752,0.2137162825,0.2978144003,-0.7302018859,-1.5626322394,0.855305238,-0.0761511746,1.2063182505,0.1433469539,-0.936371544,0.9970703067,0.9386291179,-0.2808689127,0.9205865733,1.070127202,-1.1772790089,-0.3636571812,0.349852583,-0.3442746357,-1.0061850949,-1.2483112862,-1.9967089716,-0.5396990005,2.3054457733,-2.4054044285,0.2456845049,-0.5475444326,-1.3003012831,1.313892416,0.5194913709,0.2899181029,-0.1101179839,0.991222262,-0.9554636239,-0.1736038149,1.1328122082,-1.0864580531,-2.6511738779,-0.543914399,1.1685211532,0.1309645256,2.5712787618,0.6174439063,-0.5617547823,1.8810750073,0.7820524695,-0.3369999256,0.4302408393,0.5168093454,-0.1373260146,-0.4991738562,0.555984661,-1.1467321161,-0.6625937468,0.8294010304,0.1442816759,2.4222718981,-0.2161189807,1.6016400312,1.0675499915,-1.1508812741,-0.1173107777,-2.2885882152,-0.723532195,-1.397098399,-2.1048387083,-1.2085811528,0.1634030703,0.0216077725,-1.5872388237,-0.7177172893,-1.302995991,0.6779949814,0.2434803782,1.4645535677,-0.2621466976,-1.7565226138,-0.2528683146,-1.0205113927,0.5588881338,-1.4292328038,-0.7871414013,-1.8116162438,0.0328084537,1.0191275966,0.97858338,0.1740222492,-0.4970930038,-0.2966628879,0.3081588185,-0.0254483495,-2.3409589516,-0.2764333534,-0.4645779813,0.7542001185,0.66807821,0.4966453336,-0.413340734,0.4412553294,-0.2005618301,-0.5666317114,-0.1471726511,1.0673497848,-0.9494284247,0.6058625077,0.0463201816,2.3789508968,0.2447475674,0.354497509,-0.5224872689,0.2597290175,-0.510571221,2.2753451992,0.3018113368,-0.0588903552,0.2801111508,-0.0437375973,-1.0036098721,0.9422531136,-1.0237037907,-0.5836804286,-0.3157173288,-1.2098524601,0.1938531525,-0.7512860051,-0.4252551991,-0.1652516268,-0.3416362792,1.2168333217,-1.1438173298,-1.6713149882,-0.8662724349,0.1855373891,-0.5486107026,-0.419349864,-1.4022032561,2.4275500323,-0.9441750756,-0.7984518894,-1.5321766513,-0.6251398938,0.9569343402,-0.645752694,0.0922726928,0.4113945521,0.0947354024,-0.6978670824,-1.2756645586,0.3028608563,0.8064477397,0.9988134053,-1.1264873422,1.5657845761,0.3912992313,1.3950109321,-1.4487473664,0.3316151444,0.6990094371,0.7125323539,-0.0520791115,-0.5733979624,-0.9761992987,-1.260163427,0.3472521298,-0.3923425389,0.1013628824,-0.0658468381,0.7025732004,-1.7042390511,-0.6432663695,1.5059420498,0.1692720091,0.5338718876,-0.0663401467,0.3881408162,-0.599194027,-0.8958865668,0.8318390759,-0.8652839101,0.7602142608,-0.0459832501,0.9461373654,-1.576305814,-0.2899393975,-1.3202885411,0.8785585969,-0.2248244264,-0.7965987432,-0.6938435445,0.0481279042,0.4878623482,1.2404049953,0.3805815532,0.1219276897,1.9420445722,0.2947909022,-0.1624363015,-1.8972467451,-0.521469863,0.6403880674,-0.3696341759,0.7161278446,0.0223557065,0.8726192998,0.986579502,-0.2849554057,-0.6096182809,-0.8627997638,-1.3865248222,-1.1078321059,2.1749066179,1.4068069903,-1.1594010532,0.0090817408,1.4932749728,0.2226987032,0.1707927566,-2.4399462566,-1.0683506604,-0.4515146108,0.4872900354,-0.8207044463,0.2922974452,-0.8991004326,-2.1421119528,1.2673990137,1.0459368917,-0.7393585237,0.1547008574,0.2285613122,0.1980402148,0.4256874435,0.8362394609,2.6512390611,-1.7260208791,-0.9271631109,0.0323202114,0.1048005177,0.0306670247,-0.2261321133,0.3524592254,-1.3477820229,0.6946550155,-0.4416330488,0.3285546868,1.5125406163,-1.7566086315,0.066898906,-1.2783102787,-1.7642172659,-0.7743379469,0.0540700954,0.2635894376,1.2360329932,0.888993833,-0.0222148718,0.0307869241,1.00613153,-0.0185793889,-1.283036918,0.1109008201,-0.6812304611,-0.7769156877,-0.444803172,0.5117693675,-0.7005406096,-1.6015965628,-0.1043055787,1.4877342008,-0.1309768618,0.1610967926,2.2932733887,0.3946723516,-0.2020578948,0.7084456605,-0.1377763791,-0.0247250632,0.9880128757,-0.3264017344,1.4465003866,0.1540422423,0.1608913468,1.24404004,-1.1441738259,1.0943481451,-0.1344588409,-0.8338937666,-0.1554689899,1.3792379788,-1.8092218001,0.7917863765,-0.6857151955,0.3953880192,-1.6437200902,-2.3466957162,-1.9009986393,-0.4598384682,0.4174091089,0.545932984,-0.5375505437,-0.0368657097,-0.9143253245,0.7917886832,-0.584313396,0.1438507631,-1.3069034393,0.5460424757,1.3844454321,-1.0510252211,-0.9181879852,-0.2397618222,0.87901067,0.4793552436,-0.2930955268,-2.0623729635,0.3808437121,-1.2105515266,0.9208198197,0.1176668698,-0.0625624094,1.9168608635,0.9158313757,-0.4543348322,-0.6514868786,0.3286523412,0.1207647133,-1.8750473672,2.1986718768,-0.5878668856,0.1337647495,-1.8102375766,-0.012679596,-1.519465144,0.4205027508,0.8909208812,1.8662899396,-0.1039429195,-0.6263676936,1.1415091524,0.7698327186,1.8368026597,-0.4272348924,0.3434569098,-1.0189667596,0.9101498407,0.041121541,-0.0844336934,-1.5026518453,-1.3754602338,-1.5316759794,1.2507940336,-0.1350949112,-1.6712711442,0.4803886007,1.6698099266,0.9447546119,1.4539210415,0.7117490864,0.6061678395,-0.7619116421,1.2345431063,-0.3407199561,-1.5305746425,0.7423969319,0.7628356831,1.0296437735,-1.6183513347,-0.7634389671,-0.1464189453,-0.7486367825,0.3145497454,-0.645166887,0.6774263545,1.4373712481,1.5343037358,-1.9763398288,-0.0945626996,0.5648016061,-1.0471209409,-1.1041486637,-0.4651263134,0.1862048147,-0.9334786882,-1.2639888063,0.2906170936,0.8049601475,-0.5789453273,0.4103655715,1.6483560031,-0.5986885388,0.4045539744,-0.3988054241,-1.8240339818,0.3128912731,-0.4922425637,-2.0856348069,0.6403929403,-0.1418483123,0.8805490668,0.6651886405,-0.2724001402,-0.7703279682,-1.0508514114,-0.2711013302,-1.3905161226,-0.071319051,-0.5355671952,2.4985834611,0.3860530811,0.3399362151,1.3947352298,0.2452303443,-0.3191856147,-0.5707666067,1.5213271325,-0.4559412698,0.1323966871,0.2927365087,0.7332778165,1.7861308868,0.816108763,-0.1263740563,0.7271774617,0.1938831268,0.525438583,-1.2091937717,-0.7753439757,0.2966935518,1.4923984364,-0.0762926409,-1.6344748437,1.4612242946,0.5811764719,0.3576254826,1.2598168845,0.6147189122,1.3513735819,-0.2705382181,-0.5180915075,0.4108505265,-0.3296059316,-1.9175135302,-0.0374617071,-0.2837256682,0.6037745346,-0.0924246214,2.2233477187,-2.0149725992,-0.6528600487,-0.4147503632,1.0486755142,0.461528965,-0.4507588935,-0.3322904101,1.1125898918,-0.2741635196,1.4204460855,-1.05054597,-0.3051935568,-0.2297514365,-0.4127667285,0.532214451,-0.701800996,-0.5925374409,-0.3934557434,1.5662138193,0.2186652671,-0.1314181344,0.4326641127,1.830876458,0.3541950931,-0.6617323098,-0.2453935974,0.7896951953,0.4815621273,1.7934379034,-0.8214064803,-1.6259534294,1.5634636408,2.0959903205,-0.766526135,0.938885375,0.5064033483,-0.2454888919,2.3249501407,-0.6510368429,-0.9019763307,-1.20737443,-2.2480357812,-2.0136528861,0.0243520293,-0.4439143379,0.3371402497,-0.9993684458,-0.5947047213,-0.6293200545,0.104014853,0.3720437177,0.2864426608,-0.5357132389,1.0467768285,0.2748534432,-0.0006676518,-0.2970171848,-0.7972359717,-0.6605483553,0.8879432114,0.7677943962,-1.4057989096,1.8340721115,-0.5373116648,1.4932495311,-1.020232807,0.434018024,0.7625466496,-0.8172028082,-1.6738354897,-1.3139150801,-0.3866993568,-0.7144561231,0.3049183421,1.0695366245,0.2763848674,0.7905309244,0.242555756,2.2846154829,1.5706090877,-2.1060147752,-1.9228290122,0.347537447,-0.5226106077,-0.9629952349,-0.9995120187,0.9667942296,-0.9511820188,-0.8038943118,-0.3429588777,-0.2370178134,-0.0711517463,-0.8743047835,-1.8475991933,1.1013537285,1.0107227662,-0.8360313673,0.2850607376,1.0478407043,-0.9770049866,-2.6478310122,-2.2411584734,-1.78278474,-0.2890462605,-0.1723220158,-2.4301540071,0.8407916328,-0.3406943229,0.1161935633,-1.3959937012,1.4872350928,-0.2871121214,0.5842089145,1.7215395738,1.8407303757,1.7293176633,0.3621722042,-0.5626530605,0.0431177282,-1.1486738395,0.1250975038,-2.037641016,0.7904157902,0.1515711476,-1.0096798807,-0.7270464215,-0.1096024763,1.3322542944,0.3382657639,1.8200220134,-0.4005457176,0.7553853453,0.8296105881,2.676686812,-0.140236001,2.6000947636,-0.2947727226,1.0118210882,-1.240131704,1.3442906765,2.0001306804,0.8773374458,0.2233108503,1.7163724227,0.9607198017,1.3913296325,-1.2919018709,0.1761094613,-0.4287941556,-0.6231148448,-0.3539192077,-0.3315212133,2.4397587428,1.4091474949,-0.1166419126,0.2930207646,0.5399150927,-0.2753704399,0.1932847923,-0.715290159,1.6422014293,2.4540244561,-0.0296079253,-0.473656734,0.0765154853,0.4700614064,0.7461958301,-0.0668519235,0.6113637591,-0.0345276458,0.8353214787,-0.233821461,2.1310000584,-0.6724642949,-0.5546815874,-0.3246886798,1.3123180332,-1.7720867028,0.5783570884,-0.9194738421,-0.4601568436,2.0914155306,0.0305089614,-1.3148361642,2.0964180954,-1.0609634537,0.6968413372,0.7888768996,-0.191077404,-2.2242610587,1.320805655,0.3347143487,-0.9057958575,0.6025760864,-0.9126297835,-0.8723416181,-1.4582818862,-0.2010742909,-0.7183978103,-1.0024850385,1.1246195959,-0.8135523557,0.036723863,-0.0290210641,0.3218151603,-0.406022562,0.6221081619,-0.5316476015,-0.0744278612,-0.0227340282,-0.5355230987,-0.5452555353,0.0483928065,0.7404969676,2.3790088335,-0.50590377,-0.4024960964,-0.7712322298,-1.0967363832,0.437134908,1.8518633482,-1.1206799659,-0.6623254889,-0.6849230846,-0.0453356853,-0.1023123669,-0.4183078196,2.6381654349,1.2032045972,0.4591205431,0.4555682173,0.1973775057,0.7778915126,-1.3875841754,-0.0072609873,0.5858568643,1.678256602,-0.5380687559,1.0099128031,0.7903022056,-0.2416336053,-0.4594877519,0.4196819852,0.9562439043,-0.4416483873,-0.2723049679,0.4178075546,1.203769401,0.0238845505,1.4364825972,-1.3076513242,-0.8392740583,-0.3539498817,0.2295472093,-1.4030465123,0.6586126155,0.3115319816,0.4696275464,0.0284985539,0.2843546502,1.2897337313,-0.7381292883,-0.2991455834,1.1143597643,-0.8039927729,-1.8389282209,0.9055729735,1.1177676469,-0.446975796,0.5342857032,-0.272433012,-0.2210852189,-1.6620693382,-0.4976057911,-0.7042817222,-0.1733436723,0.6300503825,-0.0546637779,0.2280220632,0.00823137,0.7987601622,-1.5975051894,0.3584860013,-0.5105259964,-1.8612449855,0.633959896,-1.7765358735,0.8044933788,1.8296543605,1.4997988581,-0.7515113655,-0.2045531871,0.354232173,-0.5451657665,-0.9763489869,-0.1902726561,0.2947051397,-0.0888456914,-0.984623755,0.9923061428,-0.5846222436,-1.8770644294,0.9489309502,-1.1315842789,-0.8549852729,0.3975036796,0.900304982,0.6044481232,-1.9060858774,0.2209964337,0.1814396766,-0.4128846916,-1.8312557886,-0.004292247,0.0252424337,0.036723834,-0.3804977674,-1.3827596146,-1.3471655618,-0.8454642596,-0.5623760857,-0.5976255497,0.935364343,-1.0208641078,1.032953988,0.1090047968,0.1985443173,-0.8499842349,-0.5094516909,-0.4878933518,1.7363327448,0.0808962418,-0.4728554281,-0.2868605864,-0.6223438488,-0.2986124988,-0.7026327264,0.3558273961,0.9042577466,1.1225477508,0.1521372717,2.030716428,0.4430995952,-1.2094192255,1.3372272032,0.6453550308,-1.2035935688,-0.5405535857,-0.2634193136,-0.9487870776,-1.0729862252,-1.2857729414,1.3129670457,0.5677117426,-1.5980733996,-0.1448287578,1.0005469952,-0.5354487735,0.1419966112,0.3725027897,0.2016816829,0.8566788628,-0.2708684233,-0.5609102223,-0.1428445398,0.7634965281,-0.4388572212,0.6598334206,0.9587365097,0.0261681672,-0.4836141694,0.2027334781,1.1603354682,-0.2099469997,0.0071990968,0.4631536651,-0.7585652474,-0.6554898791,-0.3579778123,-0.6634876758,-0.1205937546,-0.8367622936,-0.3817109385,-0.1601306286,1.9026627537,1.2815220517,0.0453946952,-0.785354749,-0.1739149834,-1.1298919264,-0.7427212589,0.8454307429,-0.0260533467,-0.9914556771,1.1317212105,0.913260077,0.0730262701,-2.609607403,0.5578540331,-0.281109638,-1.1761973911,0.1834790364,-0.3870621535,-0.4924958805,0.2785372762,0.9686884285,1.3256109644,-1.3852781141,-0.8687231423
   0.8126005976,1.4613347903,-0.4693419742,-0.7795236372,-0.325485127,-0.0740377408,1.550131689,1.3498762585,0.7795073926,0.7446277154,-1.3677933263,-0.8296920636,1.0827223802,-0.3580027297,0.928976461,-1.3786380784,-0.1058261687,0.9314803848,-0.0425168098,-1.0835240169,0.5410570885,-1.5938874249,-0.6809136672,0.264914898,1.1692464824,0.8657739545,-1.5266621823,-0.1983457294,0.4637161865,-0.8034386442,-0.0662399491,0.4758303136,-1.4439149909,-1.1598418307,0.0375855234,-0.3220112473,0.4652581918,1.0173669877,0.8825879125,-0.8156190215,0.8853769432,-0.4518631637,-1.1129591678,-0.5849083892,1.4945126558,-0.9462889748,0.0520787404,0.0588034412,0.3300968066,-0.9833582648,0.636967175,-0.4609778875,0.3964552834,1.5491879159,-0.8398766993,0.4247134628,1.5533289387,-1.8401754197,-0.8053961916,-0.013264044,-0.1124626524,-0.6734212186,0.7962564036,-0.6855579109,-0.6528627245,-0.5849463066,0.4102274285,-1.3168447341,1.3132055271,0.6482682451,-0.9187612539,0.0395372112,0.793899185,0.7455737419,0.4489250088,-1.3012882503,-1.1373418102,1.7303121333,-2.2612288756,0.7825642333,-2.5538871716,0.4858255469,-1.0448398691,1.8025624623,1.4268356454,-0.1188642158,1.6297701847,2.564631363,0.1998207724,-1.3358929352,-0.219724831,0.0013492599,-1.5491398128,-0.4598612359,-1.7061923719,-0.4944459652,0.4593052776,-1.5091876543,0.9749965083,2.4544644803,0.8907209049,0.1171257159,-0.6160410259,0.3760048017,-1.9489040007,-0.4113094193,-1.2373344554,-0.5679073507,-0.8528504086,0.6845739024,0.1344822395,-1.2276735082,0.429101782,-1.2751685372,0.7616826287,-0.2147719039,1.6654457006,-0.5781893958,-1.4705890639,0.4853782101,0.3482209994,-0.5576791361,0.1181737244,1.1567305741,1.1175084664,2.0505419902,-1.5590835373,0.6930650766,1.658344858,-1.4164806815,0.0752865667,1.474922399,-1.4997645327,-1.2647231229,0.8239017822,1.5812253193,0.452680237,0.7095737715,0.7628604522,-0.0100636084,0.0113472739,-0.6616439435,0.9145043233,0.7692288181,-1.4196391161,0.3076069013,1.0623791411,-0.8087845294,0.3421774596,-1.8386399694,0.5845164223,-0.0940936599,0.1910343104,-0.6217886685,-0.5534482346,1.004674445,0.2030758907,-0.1735062951,-0.1423059896,1.1685743319,1.8244702811,-0.1263752226,-1.2379096438,-0.158429387,0.2329244442,-0.4150229566,1.6176512025,-0.7671561505,0.0898652427,-0.170904766,0.4357038264,1.2896723419,-0.9599881975,-0.4739057864,0.6588522984,0.3300844711,-0.0367204493,1.0391948765,1.4916983853,-0.4827818898,0.9885616754,2.8483137959,0.5339672572,0.2808450254,-0.3013879959,-0.6094690606,-0.0389407188,-0.602153131,1.3493207237,-0.170176863,-0.4395390486,-0.5020776347,0.2747517993,-1.1536209158,0.9364578234,0.8325403788,0.2363085434,-1.4724003669,-0.6557677283,-0.1371947477,-0.6014926443,-0.9724539204,1.2789225334,-0.2515934149,0.0257087866,2.3176048229,0.2403147177,0.4024533883,0.6084574029,-0.9364510913,-0.9629971288,0.7347333237,1.9508198829,0.7475142352,-2.1628862473,-0.370668936,0.0510463743,0.1367652946,0.9304024902,-0.619212513,-0.6220145404,0.0387610996,-1.2777659697,0.030310352,0.0499703064,-1.6972661109,-0.5966883427,1.1615782661,0.0959593746,0.2185622969,1.3337434657,-0.6361112465,-0.3706356317,0.7133373512,0.346165926,0.8258790658,-0.9561413445,-0.8226654107,-1.4694417389,0.5712945596,-1.4487329233,1.8808500863,0.5571079271,-0.8863341396,1.2539941796,-0.1301268483,-0.588219738,0.3920286245,0.2073690504,1.2456791547,-0.3871068896,-2.0774604947,-0.7097488427,1.0416168593,-0.07629183,-0.6301275895,1.6155481289,-0.831672412,0.8945587676,0.5070242556,-0.3427140526,1.767111823,-1.162224292,-0.039324696,-0.5939829328,0.8056752198,-2.1583555198,-0.0808057083,0.2701869765,-0.423474158,-0.7696778543,0.5989371535,1.348499654,-0.6439045652,0.3669294654,-0.9297285068,0.5108500234,-0.4707218571,-0.4265676433,1.4873562011,0.1042098246,0.4597079539,1.1012504701,-0.5295507076,1.021856831,-1.1412999181,0.0678586717,0.3714930393,0.2894123011,0.853764992,-0.2496984744,0.4730674445,0.620072871,1.5181476738,-1.9935783392,1.9993286221,1.0973766241,0.7080701295,-1.1086124014,0.6866292383,3.1177070284,0.2961833424,2.0760617302,-0.5605435778,-0.7702633498,0.2493805538,1.3248180706,-2.0992668347,-0.7920494602,0.1547387362,1.7417079315,0.6887985293,-0.0798168833,1.0803299481,0.5442612081,-0.1070576243,0.260279993,0.2660457589,-0.1964825069,1.1511909745,0.5469819223,-1.2074427504,0.2471362038,-0.4997857654,0.2485607105,0.8632885424,1.2935724276,-2.1666060702,-0.4565468124,0.2796066172,0.2033433396,-0.2243747925,1.6606054679,-0.0185444245,-0.2977622796,-0.9905176752,1.8981727149,-0.0343209422,-1.1466329658,1.2911441329,-1.3500197748,1.1779633665,0.3575483861,1.0627062586,0.0300023167,-0.1094876458,1.8348421212,0.5802257106,0.7596341501,-0.1987819578,0.5859580079,1.0245340582,0.0655452855,-2.1608582422,0.3659497416,-0.7622433494,-0.3361133167,-0.2407679173,1.0864563548,1.5891615181,-1.2246918261,1.3877313254,0.2439606466,0.1401814925,-1.2948469315,-0.2710141047,0.0941757753,-1.223228801,-0.6248294191,0.1891158558,-0.1243541416,1.2008433512,0.1806350537,2.5408695978,0.1553138819,-1.2160698497,-0.6375585576,0.8438507689,1.4012366184,-0.0321742161,-0.6683519017,0.123274727,-1.6265833264,-1.4660678568,0.4789495906,0.2354073078,0.1378667517,-1.5542511058,-0.5473426281,-1.0166189195,-2.0134553661,-1.0698375083,-0.1591314267,0.7839338567,0.0783944394,-0.7601764184,1.0174488458,0.8372115231,-0.4475246747,-1.1050382868,-0.7909579559,-0.2156771916,-0.8176844179,-0.2315724455,-0.9710052737,0.046631024,0.8038820375,0.6911291947,-0.7390252719,0.5230639373,0.0246454164,-0.5372759363,1.0144649977,-0.3190898621,2.0402186717,0.0205518148,0.0162240667,0.9983075358,0.6032931589,2.0138470883,-1.891890891,1.6123180208,-1.1659353649,0.2664884854,0.0478996715,0.7624397034,-2.2858643182,-1.3620374828,0.7488521146,0.5871511565,-0.6140015357,1.9429036422,-0.5068800871,0.9413087786,-1.0393611379,1.214072737,-0.7256286585,-1.2510822669,0.0569973581,-0.2558483396,1.9408943036,0.877850791,-2.0474712344,-1.3636592335,-0.4726010609,0.5299691293,-1.4620993097,-0.3714336962,0.4361189449,0.4346731888,-0.4809419012,-1.4813524077,-0.1642381995,-0.8785733171,0.4630257785,0.1191531665,0.7311178099,-0.111495671,-0.4577351194,0.0068201735,-1.8371638186,-0.6426907116,-1.650196293,0.1738871195,-0.3653531738,-0.06759758,0.3272948851,0.2717004476,1.25327819,-0.3019728749,-0.5120735504,1.8961808275,-0.7044320866,0.0310481485,0.1474953898,-1.1530369149,1.3202009993,-0.1787335237,0.2027056145,-1.4784675819,-1.6147353614,1.1771238408,0.9340502093,-0.1361522393,-0.0305984084,-0.8602764582,-1.3216617133,-0.7558533666,-1.1011989897,0.0662524725,-0.2554940094,0.8541093457,0.5882023364,-1.3599875049,-0.6433839285,-0.335830079,-0.1706415636,0.3225941722,-0.3563724678,1.1197023688,0.2934791442,-0.8221114056,0.2348089546,1.1384775612,-0.7163745601,-2.1144511945,0.9535022452,-1.530541647,2.3739485211,-1.8801907949,-0.2184275249,1.18528748,1.071065282,0.4032468502,-0.5063927802,-0.3419147765,0.4331015388,-0.023900154,-0.312643782,-0.811244426,-0.7429554136,-1.492409885,1.1579416407,-0.0395493239,0.4278637068,-0.7516940947,2.7462084201,-1.6512640721,0.9107418209,0.7399359941,0.6325952007,-0.920847561,-0.4893903238,-0.3685458713,0.1523645501,0.0103042523,-0.9792832206,-0.2458282212,-0.0444946435,1.4658452797,0.3839809237,-0.3127787975,-0.7850909174,1.0381947225,-0.937992592,-0.3182497563,-0.4583567098,0.2027159778,0.3115576952,0.5856943301,0.0800862968,-0.6513737881,0.4984104279,0.0725654118,-0.2420852444,-1.3010406568,-0.9324240849,0.5956602591,-0.9959022192,-1.7191451597,1.3051800713,-1.2653431164,0.056788089,0.0734182978,-3.1684076092,-0.0636316434,0.7955963204,-0.0355641996,0.5077777916,0.6290456272,0.1536603305,-0.6494387161,0.4598260908,-0.2406694192,0.3588720259,-2.393889102,-0.2258920234,0.1690677092,0.0182078835,0.8600634162,-0.2395651968,-1.3450596434,-0.0742658598,1.0822108742,-0.3258795941,-0.5483341123,-0.6425473934,-0.5765967746,1.3997759718,-1.0779972703,-0.578470921,0.3436853862,-0.0777932516,-2.0669508858,-1.5126963517,-0.6995095272,-0.4236878159,0.3015070028,-0.0230303871,0.5340560681,1.3519724813,-0.4755808935,-0.1287652065,0.6424577688,1.5033361558,-0.6992945743,0.1063764041,0.7152851096,-0.7047832541,0.0925131967,-1.5891772525,-1.4559197451,1.1014818063,0.9447000192,0.0959763867,1.132509697,0.9950169276,0.7286039578,-0.2675246091,-1.4567504968,-1.58315153,0.6971120232,-0.3213108963,0.1187478954,0.8831680159,-1.2801050597,0.841283719,0.3047084971,1.5426005744,-0.0920678358,1.0962098861,-0.8284626296,0.9683373742,-0.2386970224,1.7521326699,-0.291498212,0.4556420495,1.06612195,0.5023548413,-0.0733731556,-1.225413854,0.0950173851,-0.694501931,0.2877461697,0.2949651466,-0.6471025946,1.5270649294,-0.7670613023,-1.5180874003,0.2837874349,-0.9681211851,-1.6142196019,1.2250962437,1.2665721771,1.5121221852,-0.5772941068,0.7157394694,0.265151202,-0.4554695391,-0.9154079581,-0.7211919094,0.2986143299,-0.7880534442,-0.2349224666,0.2692135555,-0.4345504987,-1.8035020357,0.6326279888,-0.492745757,0.2519265041,0.4777225845,-0.5077883608,-1.7135300349,-0.0434708453,1.1053469676,-0.6589438534,-0.1688757764,-0.0965972157,0.2400791566,-1.3417457054,0.3169394171,2.6885617241,-0.1378583987,-1.2983265395,-0.9622755619,0.7267187012,-0.8393936328,-0.9087563761,-2.060269688,-1.2059865878,0.1688064468,-0.2890086135,0.1357521273,-0.3929520361,0.9166049229,-0.4848732616,-1.0248493458,-0.8368357414,-1.2534008067,-0.7629793853,-2.0896644528,0.5038581879,-0.424420066,0.9750110991,0.2301161544,-0.9752012508,0.4645897365,0.1671860432,-0.2775444199,-0.7806010684,-0.2293351262,-1.0461518776,0.4130267921,-0.7211939096,1.0328647584,0.2617244176,0.0701807454,0.2377759125,0.0893843224,-1.6641701667,1.4110448259,-0.1502894173,1.0566205815,0.5130020151,1.5130533743,0.2247507023,-0.3450957128,0.2479942565,-0.2139067643,-1.2215572989,-1.4713771473,-1.956635088,-0.4754351693,0.003558832,1.5085279074,-0.2550859032,0.6425108387,-0.0955297066,0.8002898944,-1.1335713795,0.1391872508,-1.9449716622,-0.5254646487,2.1751520796,0.0753157547,-1.8380303398,0.6221496693,-1.4842835302,1.8344985926,-0.6631521972,-0.2527811235,2.5363345893,-1.2680274393,0.7666109861,1.3801749674,-0.3916202541,-1.5107433869,0.1612233696,-0.0598288992,-0.8571659096,2.2724039135,-0.0070620399,0.6527279697,-1.1854202027,1.6655494553,-0.5051312617,-0.9242391518,1.9643189369,-0.4696197071,1.0031569332,0.4005229271,1.0068772338,-1.3321997849,-0.8276711118,-0.5109432672,-0.1534821492,-1.0291660951,0.1380578308,-0.728350125,-0.4360780642,0.6070802098,0.7756505728,0.5030076782,0.4050289863,-0.3253287907,-1.9810874106,2.0965889376,0.8279671007,-0.4881730497,0.0481633663,0.277119245,0.3313976716,1.3761725552,0.1639947812,0.7192615688,0.3359503709,-1.1786582619,-1.8952016546,0.6155177631,0.894899876,-0.6074800105,1.0126512998,0.0050685092,0.8985633202,1.6156875664,-1.5183528959,0.8126024402,0.2893183852,0.5169184662,-1.3900809886,-0.4427512623,1.693065928,-1.0699970338,0.3716466363,0.6231572153,-0.0760783132,-0.2616227422,1.5035713754,-0.4844779988,-1.0287119467,-0.3165020174,-0.4814948339,0.5678820453,0.1146474006,-0.777808963,0.8830613829,-0.5792333926,0.6860293184,1.0414999154,-0.7597068204,0.7878253259,0.2852644714,-1.7486543475,0.2698270177,1.0479043199,1.285763623,0.8951648174,0.5586246821,0.5602542595,0.3629781051,-1.4445426597,0.1996617232,-0.7086286761,-0.3833574914,-1.6106946284,-0.4387712006,-0.0831793235,-1.0463871268,0.3323718089,-0.4970307585,-0.4419115902,0.4035203636,-0.87095017,0.3659666892,-0.7131132611,-0.7123075626,0.7304277587,-0.192865827,0.1135488279,-1.3529109535,-1.1516198625,-1.6238464371,0.4732210771,-0.119873976,0.264679504,-0.6949702087,-1.0396492915,-1.4370364898,-1.4323999707,0.5546373439,-0.703967401,-0.0504151452,1.1415920888,0.6622499696,-0.4141680181,-0.0315107687,-2.2297228036,1.0436852393,0.922808221,-0.2981896631,0.368575454,2.5535648628,-0.4917987642,1.4592011567,-0.1796477903,1.6996442062,-0.132790752,0.32747955,-0.3756366317,0.9718412507,0.1138370237,1.2640415493,0.7795298418,-0.3693476279,1.1053857203,-0.7574534506,0.1380484749,-0.2248630178,-1.4932888904,0.8631222715,-0.0798510241,0.6512671547,-1.3851584522,-1.6335100718,0.5134557181,-0.1044115521,-0.8588869027,0.3074520465,1.4842115296,-0.7148547934,-0.5103680047,0.1286670204,0.7111658901,-0.1005908573,0.7102332556,0.7704167276,-0.2112882635,0.3451687161,-0.5592811175,-1.3946548117,-0.1226522045,1.3844994096,0.5148484449,1.4124022471,0.1930452272,1.0999609154,-0.5560535259,0.4056375029,0.6658798683,1.3498869597,-1.345959579,0.8840178087,-0.5137598822,-0.7203193871,-0.7270954253,-1.0251084349,1.0537824145,-1.773547676,-0.4046210599,-0.74821747,0.9830185627,0.4765655192,-0.1223985657,-0.6821426406,-0.9865997885,0.633695699,-0.59435582,0.0575647064,0.2664460627,1.2847502648,-0.8472414398,-1.4649458584,0.6087598626,0.2152854444,1.4259490236,2.1112631225,0.2786393984,-1.7652423134,0.1678115239,-0.4054626175,0.5618112893,-0.3725144474,-0.7926594502,-0.0073415149,-0.6546536804,-1.7869107669,-1.1930033567,-1.0153389313,0.1279762338,1.5211733934,1.2872866962,-0.3121711539,-2.7910898951,-0.4245317836,0.3202207281,-0.5850545531,0.249288421,-2.0295419566,-0.8581108983,0.5731663262,-0.8020345856,0.9245121195,-0.7913264842,2.0098921215,0.2336146549,1.0993065219,-1.5035905524,-0.7055391213,0.8590730936,1.1739806202,0.6781384723,1.0203255387,-1.1628685077,-0.5097871661,0.1121360882,0.6446286448,0.8389186599,0.0862223946,-0.3605525782,-2.2118292681,-0.4033539029,1.6245774938,1.7277300222,0.2699600834,1.8493102411,0.3344356984,-1.3270693369,0.2595223412,-0.9392859556,0.4047042159,0.0347064248,-1.6169152218,-0.4034249795,-0.2833023191,-0.0812864129,-0.8236574469,0.3957197852,-0.0404446972,-0.1915636747,-0.6101144638,1.0910675446,1.8242049229,0.9665989918,1.5587955056,-0.1054347372,0.1562696292,-0.0484268185,-0.0954867376,-0.1773373197,-0.0486404245,-1.2102213276,1.8229986473,-0.1509685399,-0.5643620807,1.2527308179,0.210864179,-1.2299490071,-0.6621060209,-1.5773111502,-1.5207751226,-2.8055572737,-1.1700397942,-1.6091179604,0.7807571217,1.3568391256,0.3849403832,-1.5107775513,1.0654332377,-1.1721412703,0.050079105,-1.0821238614,-1.0113374013,-0.5852854559,-1.2664748921,1.6043549268,0.4362319476,-0.0494223221,-0.7184410261,-2.2733133504,0.0791549002,0.1911534253,1.5374723565,0.298994989,-0.1187538062,-1.2403306517,0.9315412716,-1.0718885107,0.5826147547,-2.1942268564,-0.9816496231,-0.8047773911,-0.6999938319,-0.5243673006,0.1973204623,0.1188758282,-1.622491385,1.0116520993,0.1011544086,1.1548943535,1.1424778258,0.1159464408,0.1564659707,2.0576032566,1.2316854754,-1.9601324114,-0.1639518948,1.4177472544,0.0199689491,0.1415677287,1.0430167582,-0.6461755763,-1.2142335166,0.3505675682,0.3823559807,0.4533701004,-0.1519851339,-1.5372168816,0.9573224104,1.2696089289,-0.0176431606,3.1637157984,0.10189775,-1.9335808896,-0.115033499,-1.3362036808,-0.6536124997,1.512402724,-0.8835332015,-1.7515664695,-1.4066202255,0.1281560174,-0.1395278015,1.1148028015,1.0898026022,0.3431456847,-0.2836919737,0.6831410321,0.586842993,-0.6051385025,0.3514962441,-1.307016859,0.7565299142,1.5620726355,-0.0972284707,1.1902086971,-1.3758446446,0.3806236067,-0.427937017,0.4315243421,-0.5661048551,0.0120821995,-1.7919355961,0.7343895255,0.6299097915,-0.5382530934,-0.984332312,-0.8858100068,0.9366028212,0.7067824352,-0.0193644212,-0.7497003534,1.9376311262,1.4287805335,-0.1316786227,-0.6697160832,-0.9453556756,1.607650293,0.8361984425,-0.3610228399,0.0367274378,1.1631573812,1.5991454246,2.1423681622,1.9262976507,-0.239428725,-1.042497343,1.5947903353,-0.2468230827,-0.193576581,-2.2655436735,0.2029933089,-1.2589521488,-0.2141033024,-0.619835743,1.7786465709,0.1291329059,-0.403021815,0.6694325473,1.7867491875,1.3301004928,-0.5717467313,-0.7324910294,0.8370461402,-0.2727404945,-0.9578465802,-0.0297171509,-0.6240131223,-1.0960391798,-0.0586758271,-1.2355755927,-1.1515215955,-0.002580636,-1.3623171637,1.1328195039,0.0512088892,1.2531699754,-0.7973322377,-1.406431937,0.4596822709,2.3854225205,-0.9813074039,0.0885840815,-0.4514139971,0.7670655637,1.6492991802,0.0025675366,-0.4336108524,-1.2527951198,-0.3551600938,-0.2302108831,-1.0013573481,0.9759574971,-1.0972927324,0.8529857109,-0.0642855897,-2.3821490122,0.0352323771,1.7059738132,3.3314970766,-0.2330960598,-0.5414303753,0.2503271887,1.1723668286,0.3097155622,-2.1796600727,-0.5527780765,-0.2885034677,0.1710918676,-0.7000007585,-1.0782831341,-0.175192875,-1.0964417931,-0.6816028038,0.8581923229,1.383657285,0.8122941587,-1.2653847933,2.0815790179,-1.9745455049,-0.2045634745,-0.7306922178,-1.8302009831,-0.2148444688,-0.3052238136,-0.0181523087,0.1218003449,1.2052318354,-1.2694040308,0.5750477245,0.8864665637,-2.0613818999,-0.8088770193,1.4338416651,0.5026610613,1.3512498952,-0.3692919247,0.1385028865,-1.6396281797,1.0979731383,1.5616926542,-0.6606337537,-0.2711781303,0.1018609147,2.3082881965,1.1198500629,0.3645359371,0.0642215492,0.9117349217,-0.7130376477,0.3695664856,-1.3826548392,1.1130491889,0.2599379565,0.0256181593,-1.4368511363,0.0258612271,-2.0234728013,-0.3535525968,1.8657234977,0.9077301166,-0.2002317916,0.3792577858,0.4194364,0.3374246621,0.4753401025,-0.8743949132,3.1491750115,1.270668683,-0.0039649278,-0.0959433454,-0.9503547271,-1.3965452787,0.0876407699,-1.1624639231,-0.2007599702,0.9634277841,0.3119140544,-1.5148473278,-0.5659554634,0.4430409135,0.0511437833,1.923452899,2.2818136298,-0.5740757204,-0.9313911972,0.0089706435,0.2249974117,-0.4946499614,-0.5109132398,-0.5382523355,-0.9548546944,-0.6088058149,-0.6727055926,-1.6085012705,0.9504095912,-0.0513936524,-0.615375105,0.5873704011,0.3598678155,0.107070634,-0.9530137611,0.7639489481,-0.808551015,-1.5457159192,0.8209240492,-0.5054619626,-0.5116238777,0.8874131298,-1.7743007179,0.9872233266,-0.0878590775,-1.4700824623,-0.7578511186,0.1500077546,-0.6751773839,-1.2528945054,-0.9376123273,0.40489989,0.0890602048,0.5402971577,-0.3073750216,-1.0805123079,-0.7193296989,0.328790861,-1.5568745147,-0.1113298298,1.1558853605,-1.2944333955,0.9662665307,1.494514947,0.6595356766,-1.0729839781,-0.8460629933,0.2095536152,-2.5359996362,1.7484506485,-0.6293494065,0.8185446949,1.4067003142,0.5801757432,-1.7618528914,0.3946209494,0.5546895056,1.5725368523,-0.402657608,-0.7054828905,0.7748361614,0.6263327741,0.0777105594,-0.4326760096,3.2422937694,-0.0076758333,-0.9872258698,0.6666093468,0.7229208703,-0.7113758634,-0.2891244285,1.301050527,-0.3270844078,-1.1453783962,-1.393312238,0.4041587051,-0.1095402558,0.2084178907,-0.7604659087,0.684678965,1.2836208508,-1.1093454149,0.5187647036,0.2082137145,-0.1246436676,0.5921010506,-1.5934291299,-1.4631446296,1.3711806332,-0.502570279,0.3236895859,-1.4035113913,-1.4049035956,0.1677837979,0.163405198,-1.2004825211,-0.0273198667,-1.8218776779,-2.1583667956,-1.2104978429,2.5471866439,1.2828298197,-0.3124856068,-0.3940049255,2.0219812714,-0.9985608515,0.2333464772,0.9312726742,1.2727634984,-0.3298283313,-0.0515017201,-1.3795029066,-0.8916844428,1.9774339867,-0.7362038108,-0.2716096652,-0.2196557972,0.4210882184,2.8492436019,-1.8593076597,0.7319052177,0.5636028807,-0.563361731,-0.2193923792,-3.0577923606,-1.2884315629,1.6039833636,-0.0670501465,0.5909078292,0.1735251354,-0.8941410538,1.6003563624,0.5479977585,-0.5045627058,0.2428853442,0.7538306301,-1.8106281575,2.5223355237,-1.7140812575,1.5992175751,-0.4238388024,-1.2187880958,-1.6737705062,-0.6262491237,1.0755147356,1.784799774,0.3303012303,-1.0042678159,1.001781138,-0.7640887627,1.2348319145,-1.2604660172,1.0496444709,-1.4037363286,1.0409926739,-0.0228335533,1.5719270019,-0.7893165591,-2.0590410765,0.4238915323,-0.0905412897,0.1924073899,0.1769909707,-1.6431426852,0.1242637544,0.2144529923,-0.9583877515,-1.4917698417,-1.0728082732,-1.3511315923,1.5893345281,1.1146225816,0.1319445852,-1.4402520853,0.4437328702,-2.2836779466,-0.0631735762,-0.664107574,-1.0299950401,-0.6594412022,-0.176663131,-0.4486826716,-2.1132205276,-0.4034861966,1.445182721,0.9810709083,1.3274691509,0.3254751673,-0.2931326722,-0.7404799276,1.2521529101,0.3647978489,-0.9207153235,1.3100950033,1.2273901599,1.5514593781,1.5996350183,1.0335936082,1.0958610556,1.4399907094,-1.1463350329,1.3907880697,1.1216431478,2.6374170377,0.3036598148,0.5997705028,-1.6181646158,-1.2243441362,-0.4835243497,-1.155376729,-2.1155450259,0.786193536,-1.9477915309,-1.181757714,-0.1894423195,1.7098105471,-1.0179091814,-1.4437154863,-0.3814210031,-0.5580870008,-0.2615279433,-0.7537080425,1.0889256061,0.7319472175,-0.1073437302,1.1191337279,-0.1066881692,0.4630817205,0.5744849718,0.0292723154,-0.8065409275,-0.1063432936,-0.8525529063,0.0723930858,0.5895458017,0.3729533407,0.4025608484,0.5927501546,1.0857813822,0.5947005901,0.8766518539,2.4162503429,-0.2881427706,-1.2382554472,0.4270850927,0.6404323623,-0.4861796155,0.8587897595,-0.0171849594,0.5185872783,0.0588003929,-0.4536203713,-0.9936689982,-1.2028531868,-0.0692409348,-1.0219825913,0.8868484032,-1.9398602965,0.5350239165,1.5177060073,-1.5427715517,1.4250053809,-1.2419434024,0.7440389083,-0.3950440929,1.1877906708,2.3663579886,0.8566178768,0.108017346,1.1664215108,0.1138323145,-0.581974732,0.0789806977,0.1068601161,-0.5277772169,0.1951875261,-0.4194753068,-1.5051895116,-1.0601934807,-0.9644843705,0.175121636,1.308859548,0.0169264275,0.7959510452,0.2168624367,-1.0609542855,2.2906335748,-1.2791835762,-1.6481545636,-0.5925540186,0.482761054,0.9582517314,1.338634817,-0.1042835753,0.4109863683,-0.7569096092,-0.0292927959,1.1937024346,1.2495485032,1.7738341624,-0.4062301157,-1.5583099775,-2.1347838127,-1.1911711684,0.9331054955,1.0907286299,0.7869403216,-0.348460197,0.042747757,-0.2935845377,1.3592589601,0.4374297428,-0.0646347155,-1.6222268827,-0.5966348418,-0.6604070202,-0.853275885,-1.6311154205,0.1260543876,-0.8172358076,0.0423486395,0.1199422574,0.2683804333,0.8094747511,0.246763106,0.0651852337,-1.1879544593,0.282439995,0.3788775487,0.1613759406,-0.812648065,1.7341310839,-0.2578873041,2.4659736949,0.4422728777,-0.0421247913,1.4329039783,1.6279168381,-0.5563698387,1.1349928682,1.9154730739,1.7465057357,0.2532509845,0.2351292104,0.5491695433,0.0407817441,-0.1389561328,-1.1201952398,-0.7857409746,1.0572227972,0.9357303026,1.1951145216,-0.7792003921,0.6693833221,-1.9762453256,0.4273009244,0.1864021708,-1.2852172915,-0.9811858165,0.885694167,1.6465957682,-0.0184412057,1.6486059098,-0.5768086785,0.2515682053,-0.3900438857,-0.0410794021,1.1701208652,0.0245551868,-0.1350116768,-0.8908713325,1.9963977766,-1.1402401624,-0.6029217201,0.1452238234,-1.2885929934,0.9334913407,1.2990848235,1.8519793209,-1.0284259591,-0.971017319,0.271543532,0.1571546366,0.3813434052,0.2649806075,1.2121016201,0.0035017522,-0.6527817616,-0.969451258,0.0784558535,-0.0081876705,0.3489065265,-0.5808561519,-0.3232381366,-0.25120256,-1.3533615032,0.41227106,0.5491545483,-1.8071883232,1.8479699815,0.6954252205,0.7854727215,-1.2425579101,-0.2889458816,-1.0702627307,0.7615026909,2.7456955717,-0.1424065052,-0.9431194424,0.8966534921,0.1414177292,1.3016038907,0.9534797728,-0.4422616365,-1.3794125466,0.5329604602,-0.6542257763,0.3945941453,-0.2715422706,2.3993966091,-0.0787586604,0.4741882407,-0.312676607,-1.3587898785,-0.294989365,-0.1846493864,-1.1510967257,-0.4135431868,0.8224801595,0.6009840704,-0.1172312132,-0.3400717859,-0.8356420916,0.9753572832,0.083342337,0.4619122639,-0.6612221164,1.1659755036,0.3362665248,0.0604264494,1.6441623552,-0.5231454389,1.3446714499,-0.3363937605,0.9882808194,0.0944594152,-0.9301691572,0.1158292502,-0.642303053,0.6420597719,1.0332004898,-2.4347349943,0.5714978993,0.3586785674,0.5840651595,1.1487012646,0.8253979073,-0.8515641093,-0.8697068224,-0.3297097797,-1.5723056342,-0.2459615533,-0.0902626396,-0.6408738033,-1.5643299822,-0.4827085625,-0.6672943515,0.1682981941,0.3645692763,-0.4747323273,1.5378376659,-0.4745389821,0.5133008059,-0.6976338658,0.9952846388,0.1199540461,-1.4111727682,-0.5297662446,0.9671424295,-2.1390683576,-0.4872379679,-1.8329080355,-0.8348557771,-0.0390626752,0.8329413267,-0.6116317067,1.9348818108,-1.3845068776,-1.2463919403,-0.7094311722,0.4226134403,0.8755591676,1.7735769396,-0.0219281514,-0.3347930641,-1.827652681,0.5528692189,0.0998738945,-1.2604039782,-1.0778143844,-1.2107950605,0.2369215313,0.3038079863,0.0872375357,-0.2225171818,1.6944615089,-0.5170972946,0.0566586527,0.3794741096,0.1912800319,0.3742668139,0.5506974153,0.0319329244,-1.6779731656,0.6543559156,-0.3863642338,2.5825637262,0.3559680778,0.0450068769,0.2060803249,1.2563194479,-0.6803961201,0.9923458562,0.7592397613,0.1049311622,0.4190985707,0.556827548,1.0016889842,1.7116111728,2.4740057337,0.6497631976,0.8541557342,1.2882277503,1.4185942027,1.8796372149,-0.2658764666,0.3017934501,-2.0306417269,-0.1472705903,-1.6324343349,0.4801078038,0.769181973,0.6007598102,0.0661638059,-0.0088274756,0.5317180452,0.5184988251,-0.2271236751,-0.6661730179,0.3716161672,-0.2867925545,0.9671799256,0.9294407297,0.861711914,-1.8727662784,-0.3691485391,1.465240868,-0.0574631158,-0.1181692845,-0.4892521738,1.9633262954,-0.3867495142,1.0988612333,0.3581119131,0.0226574122,0.0324032225,-0.1892137855,-0.7850358071,-1.253312656,0.7640055511,0.1577922455,0.3569837498,0.883183373,-0.633771614,-0.1082777591,0.2340146709,0.468907039,-1.0050843708,-1.2558203218,-1.2272135721,2.2821306432,0.3886145369,-0.979701753,0.0614145772,1.1325485958,-0.1957831123,-0.8926717141,1.9598049424,-0.0705724082,0.0776644907,0.3077913881,-0.0738856061,-2.1133692287,-0.5160809257,-1.5137505157,1.5796736328,1.0968722,-0.2309540105,1.8881425947,-1.9077449525,0.0620444429,-0.5176709051,1.3842203578,-1.444398508,0.3939205974,-0.4839858802,-0.065664326,-0.8476664863,0.0180479054,-0.5595313713,0.0371157656,0.0482503347,0.1350784069,0.8070505958,-0.4432721042,-0.4143126028,-1.082583688,0.1023673102,0.4416932101,1.0393589796,-0.3673627173,-0.1480386823,1.0209740764,0.7288585707,1.9689530625,-0.1253425403,-0.9202337152,1.4893982824,0.2827331208,0.1248731757,0.9924697107,-0.468260205,-1.8460588028,-0.9967620762,-0.0605619917,0.1138498593,0.1582575423,-0.2856536691,-0.0180489809,0.6696661696,-0.2209259695,-1.4195031446,2.2709906318,0.8250684954,-0.0819101541,0.0211241731,1.6691133422,0.3335865502,-1.2138961876,1.1692480833,-1.5318654208,-0.903208817,0.6348613552,0.3710554383,0.1629026085,0.7137665394,0.1581997445,-0.2362960668,1.1698060669,2.1758089491,-0.7536797409,-0.5793194856,0.3678178827,-0.3276132205,-0.0693381053,-0.117823332,0.5305001202,0.5857016946,2.2244110352,0.1842925273,0.4714589585,-0.8848100462,-1.26714823,1.6259818294,0.3069253563,-0.2040803128,1.2957686898,0.0304937774,-0.8074029231,0.5585340443,-0.7201612487,0.9953076646,0.0452232602,1.4123120167,-1.2278266374,0.1380110757,0.5483946545,1.4389140089,0.7741860342,1.479624221,-0.5584096301,0.7784862007,-1.7090348782,0.0659433529,1.433896753,-0.3451246259,0.4395380143,-1.8776838307,0.9277453301,-2.5921976655,0.5899964453,-2.5114817196,-0.0881109224,1.236661852,-0.3269588775,0.130073634,0.7690363027,0.7018405691,-0.4126170099,0.5633063163,0.117378555,-0.176028484,0.4400452363,-0.439037431,-1.7771552776,-0.7500095114,-1.3532430908,-0.1251629499,-1.1074855441,1.0980753875,-0.3043925658,-0.6460341509,0.079178387,-1.1723078665,-2.194121467,0.4793294135,1.5612629584,2.076438356,0.0620857591,0.7711186373,0.7309129289,0.595675114,0.735366332,-0.0636024292,-0.9586601136,-0.0698696627,0.3143150794,0.709318625,-1.7578308496,0.4129604528,-0.4203217539,1.0340536012,-0.6478180097,0.4082749694,0.4724192097,-0.098812344,-1.7663444435,-1.4726229842,-0.4710999533,1.0976034106,-1.1231724966,-0.7018342002
