encog,BasicNetwork,java,3.3.0,1,1433694598542
[BASIC]
[BASIC:PARAMS]
[BASIC:NETWORK]
beginTraining=0
connectionLimit=0
contextTargetOffset=0,134,0
contextTargetSize=0,120,0
endTraining=2
hasContext=t
inputCount=9
layerCounts=3,121,130
layerFeedCounts=3,120,9
layerContextCount=0,0,120
layerIndex=0,3,124
output=0.2167995304,0.0334858289,0.0410114187,0.018511369,0.018511369,0,0,0.018511369,0.018511369,0.018511369,0,0,0,0.018511369,0,0,0,0,0,0.018511369,0,0.018511369,0.018511369,0.018511369,0.018511369,0,0.018511369,0.018511369,0,0.018511369,0.0000029249,0,0.018511369,0.018511369,0.018511369,0,0,0,0.0003495624,0.0000132147,0.0000203693,0.018511369,0.0000000001,0.018511369,0,0,0,0.018511369,0,0,0.018511369,0,0,0,0,0.018511369,0,0.018511369,0.018511369,0,0,0.018511369,0,0.018511369,0,0,0,0.018511369,0.018511369,0,0.018511369,0,0,0,0.018511369,0,0,0.018511369,0,0,0,0,0,0,0.018511369,0,0.018511369,0,0,0.018511369,0.018511369,0,0,0,0,0.018511369,0.018511369,0.018511369,0.018511369,0,0.018511369,0.018511369,0.018511369,0.018511369,0,0.018511369,0.018511369,0,0.018511369,0.018511369,0.018511369,0.018511369,0,0,0.018511369,0,0,0,0.018511369,0.018511369,0.018511369,0,0.018511369,1,0.1,0.87,1.7,0.2,0.81,6.7,3.1,0.67,221.5,1,0.2167995304,0.0334858289,0.0410114187,0.018511369,0.018511369,0,0,0.018511369,0.018511369,0.018511369,0,0,0,0.018511369,0,0,0,0,0,0.018511369,0,0.018511369,0.018511369,0.018511369,0.018511369,0,0.018511369,0.018511369,0,0.018511369,0.0000029249,0,0.018511369,0.018511369,0.018511369,0,0,0,0.0003495624,0.0000132147,0.0000203693,0.018511369,0.0000000001,0.018511369,0,0,0,0.018511369,0,0,0.018511369,0,0,0,0,0.018511369,0,0.018511369,0.018511369,0,0,0.018511369,0,0.018511369,0,0,0,0.018511369,0.018511369,0,0.018511369,0,0,0,0.018511369,0,0,0.018511369,0,0,0,0,0,0,0.018511369,0,0.018511369,0,0,0.018511369,0.018511369,0,0,0,0,0.018511369,0.018511369,0.018511369,0.018511369,0,0.018511369,0.018511369,0.018511369,0.018511369,0,0.018511369,0.018511369,0,0.018511369,0.018511369,0.018511369,0.018511369,0,0,0.018511369,0,0,0,0.018511369,0.018511369
outputCount=3
weightIndex=0,363,15963
weights=##0
##double#15963
   -0.0647230119,-0.5541968492,-0.5285071636,1.0127735044,-0.595384973,0.1742916128,-0.5273472239,-0.6019455999,1.0947684829,-0.6666347053,-0.4212780051,0.9564195502,0.2882689719,0.2169041146,0.8633209207,1.8002482427,-0.2804770019,0.2057470262,0.9928397558,-0.4862071994,1.3700813361,1.214282047,0.5437259349,0.0225013874,0.511563685,-0.0367157531,-0.2821213885,-0.3105219115,0.4212660753,-0.2190586316,0.3584106029,-0.3672317779,0.1939772626,0.5194546713,0.7906643056,0.5392913505,0.4522804795,1.3379117425,-1.2076270934,-0.6241982198,-0.446521799,0.4894433683,-0.7440638447,2.8966126327,0.104339754,0.3807316499,0.140698194,-0.2377445848,1.0808805725,-1.5234527568,-1.2423002149,-1.3034602599,-1.3498530856,0.0953946431,0.0816489737,-0.6003210486,-0.5871001568,0.2185057264,-1.628859239,1.0640984152,-1.2917495845,-1.1104296616,0.1493558662,1.2681521575,0.0259120568,0.142631904,0.6144944225,-0.6895692641,-0.209063127,0.1300282452,-0.1433520489,0.8408701133,-0.1521779942,-0.2533510778,-0.8147028108,-2.0887479212,0.8279962467,-0.5620504256,0.3374959172,0.0085681612,-0.8508388599,-1.553010364,-1.0880759106,0.2927393589,0.1089214635,0.2508193857,-0.4072841186,-0.4262276933,-0.6963445348,-0.3053368577,-0.2176138225,-0.2342797929,-0.8722725573,-1.0930274257,0.7214573298,-0.3635807032,0.1564131899,0.6062181845,0.8646652914,0.4254209829,1.5130848723,0.6454783217,-0.2791987659,0.946745538,0.5496663112,0.0184750866,-0.5145089197,-1.2200373911,-0.1759820752,0.9330309299,0.9993413979,0.664957642,-0.2244758188,1.1198613911,-1.142310222,0.4498463685,0.4984226196,-0.5717383484,1.0287166636,0.5751996923,0.3299652114,-0.5657393948,-0.3657065075,-1.1841287634,-0.6585627388,-0.2894698982,0.6189169373,-0.3484455279,0.0437153505,-1.8560703408,-0.6358885781,0.1514574487,0.7108680416,0.5742819705,-0.0039848356,-0.7819053523,0.6326646834,1.281936509,-0.2961183828,-0.1954692932,0.4063151937,0.4842692017,0.2622203061,0.2669882522,0.5375733783,-1.2515806339,0.5218777549,-1.6642606281,-0.6334181281,-1.4147610049,-0.6278516308,0.0942738792,0.1497231901,1.1355475899,-0.4794300977,0.9335985156,0.1054850768,1.6544581627,0.3156867099,-0.8631395391,-0.3365261961,-0.2014444449,0.7521759758,1.5610086171,-1.3373969328,0.5563795838,0.5581575771,1.5532849379,0.2925554765,1.3413338778,0.6105140316,-0.3105441507,-0.4481598861,0.2255223908,0.8489484535,-0.5006107617,0.0420597158,-0.2560325628,0.3482631309,1.740770154,-0.6545924911,1.0853171031,0.9628602079,0.2073776833,0.0288033448,-0.0366754251,-0.9150617405,-0.9330375149,0.9858525697,1.2314889131,-0.2531451173,-0.109596129,1.6593418919,-0.309650995,0.4620546967,-1.480812384,0.9501252326,-0.1043624297,1.3275060519,1.1920415157,1.3238124614,1.9675395707,1.2278572504,-0.9253560907,1.1264610836,0.6482543804,-0.0949160348,0.5180485713,0.6031505504,1.0640967282,-0.6791038414,1.0974620316,0.5689238787,-1.4772962313,1.2094304648,0.7823441281,0.7887711881,0.2213303625,0.4999404119,1.277287171,-0.3290397028,0.1132634537,-0.5545014343,0.6714407705,0.5980079028,-1.6925730684,0.4327992519,-0.1608647002,0.5056022044,-2.4575605519,-0.5028074559,0.7391225471,1.3228559071,-0.6526694909,0.1972975674,-0.674139337,0.6439629773,-0.6295051209,0.5467948756,-1.0039899382,-0.0646317462,-0.1335007428,-0.5286773579,-0.1862487376,-0.1645581313,-1.2417451405,-0.571480306,-0.3247763461,0.4260843257,1.0739369024,0.9353320656,0.1232527313,-0.880462799,-1.6215667863,0.4578297985,1.3246083592,-0.1861236199,-1.1268408391,0.6142962716,0.9162536009,0.5973819762,0.2036137933,-0.8614820215,0.9037528945,0.0922313466,-1.2371766945,0.2382740207,0.3455235099,-0.8374631017,0.1973924303,0.4215997473,-0.2731369483,-0.6073433024,-0.3785430619,-1.3852251131,-0.3918758524,1.5615646171,0.7152521039,0.2751772593,0.244744504,-0.4765627165,-1.0416019883,0.5300822575,0.5163998615,-0.001724895,0.2642276526,0.0490342544,1.108281652,-0.5332093627,0.1189676614,0.9470154771,0.489854477,-0.5585983934,0.0884801242,-0.2389152342,0.3335993019,-0.173578442,0.0932537727,1.1085907106,-0.6412881571,0.2054120685,-0.4248474765,-0.4439727831,0.608780937,0.3648588788,1.6828597885,-0.9529143923,-2.1048095693,-0.103581284,1.8978817544,0.5462899508,0.2987629383,-0.4084598255,-0.0185674118,1.5768680486,-1.8053931217,1.0426425362,-0.6278290168,-0.2695269675,-0.0962291489,0.5129830845,-0.5312525324,-0.4646951434,-0.377204067,-0.7196787294,0.1235234749,0.1631712847,0.4969799215,-0.7491956766,-1.4831760312,-0.5190780233,0.1689940315,0.9575188818,-0.2096927943,-1.1364739341,-0.0856032298,-0.4931500305,-0.883000958,-0.2764163904,0.621771233,-0.2606247929,-0.3691864195,-0.1832053629,-0.6414818528,1.9283502552,-0.0087563639,-0.5340904096,-0.3839665016,1.1693675001,0.2600173045,0.851365128,0.9791267186,0.4341977729,-0.0531239777,2.1914945587,-0.1397708644,0.5811882141,-0.2063177733,-0.7319820306,0.2654449816,1.4400283179,0.4422891412,0.1503075074,-1.5203577312,-0.773263502,-0.5666659319,-0.7442572653,0.9065949609,0.4820174781,-0.6747746792,0.7566806026,1.3284329097,0.2660265044,-0.9985732286,0.0541200776,-1.3670829118,-0.9051038048,0.1859047919,0.2614013913,0.9408521191,-0.192916191,2.1059573987,-0.1296271107,1.1120958492,1.0792981177,-0.0285558126,-0.2036140844,-0.2671573017,0.6605845908,0.1646615157,-0.7041945921,0.6552375104,-0.1603090265,-0.8883486675,-1.2066255848,1.3328576647,0.9752999871,-0.3072598874,-0.2105827517,0.9701593213,-2.2898919418,-1.117403114,-0.4175764904,0.0640475239,0.7122891733,0.7783951482,-0.1480907426,-0.6662000966,-0.522722799,-1.5483672145,0.4580538269,1.5811266278,-1.0023064251,0.8925150267,-1.3313537665,0.381777448,-0.2112816982,-0.0779356939,0.692659861,0.1492982586,1.3642419516,-0.9310378081,-1.0980437963,0.9485927504,-1.8370774053,0.0185172605,-1.0882701942,1.0290898241,-1.970146012,0.0679328754,0.900205745,-0.7713068939,-0.3926850112,0.1403578833,0.6448672785,0.3672013932,0.793355398,0.6145136209,-0.3891367262,1.1387017715,-1.3553556917,1.0123191726,0.1018850656,-0.2878197513,1.2182851077,1.0806395609,0.5500877282,1.7736638206,1.9853553461,0.3869742641,1.0931363097,0.1730520388,-0.2732512456,0.6497926057,-1.151779185,-1.6018318505,0.3114093161,-0.3747581142,0.175988157,-0.6511015439,-0.0808580829,-0.2445693893,-1.507856576,-0.5192086867,0.6837153122,-1.5348496578,-0.4758548487,-0.7961430665,-1.0171966637,-0.928327912,0.6286794563,-1.0383578417,-0.33595717,0.1449535003,-0.6996472072,-0.1705130662,0.1519494815,-0.7525075627,0.5778682044,-1.1296176437,0.2181020474,-1.6361970723,-0.6651167607,0.228151852,-1.314704692,-0.9937702225,-0.5605109688,-0.7842700876,-0.4692630488,0.5370410553,-0.6523552183,0.5290350197,-0.1196859067,-0.1820879639,0.1941966315,-1.3272075119,0.9764869765,-0.2422391568,-0.0099207481,-0.9721686373,0.0199842927,0.3798711717,-0.4734836614,0.4046982106,-0.3882463034,0.1466220202,0.8220070245,0.9618067755,-1.0397169024,0.1886123746,-0.2676946211,0.166243613,1.0183654145,0.0879615944,-0.5807137888,1.1905456401,1.2413611502,-0.7597240035,-1.0683812519,-0.6042032897,0.6351973733,1.4858211565,0.1356334004,0.2500804092,0.2025744069,-0.9768606447,-0.4167871318,-0.8980464103,-0.0944664,0.2238000518,-1.7817500225,1.4214133084,-1.2034695258,-1.9875741832,0.0964373589,-0.4131547654,1.5104002415,-0.8201098956,-0.4133818054,0.7208199747,0.1668623355,0.9438045902,-0.7718707255,0.0864528575,0.0271613632,0.8624763346,-1.8470064803,0.4131541961,-0.5157461185,-1.7175645228,-0.8379470647,2.3249480779,0.0306881967,-0.9746173745,1.0677462358,-0.5010998629,-0.1741122431,0.5214112313,-0.2537898037,-0.0620850415,-0.2592945768,1.1693285223,-0.0984084053,0.3007097482,1.0244071421,-1.2155441446,1.0734993056,0.4690805515,1.341546448,0.6008141617,0.5327975187,0.3490287658,0.9964340209,0.1135569964,0.8261042822,0.6774029112,-0.006013146,1.0552333834,0.8236571837,0.4174157818,-0.6147241178,0.2021671396,0.1333497114,-0.5554199822,-0.2395505533,3.1035500296,-0.6434525673,-0.9810344367,-0.6463824384,-1.1775798202,-0.6344618183,-0.9231833871,-0.74669927,-1.3977142967,-0.1797482825,1.5561636003,-0.0414779105,-0.1013924291,0.1902662075,-1.5399827143,-1.6058264949,0.8988857908,0.0588655561,-0.0148726176,-0.8343042948,-1.1292824116,-1.4344246874,-1.6290268851,1.919491538,0.1226915706,-0.3411661245,0.977442064,0.2364580751,0.0501397803,0.0804455913,0.9535726852,-0.5248102417,-0.2671334009,0.9419438103,0.5892368068,1.309945354,0.3020884689,1.3367013527,1.6181311343,-0.178725003,0.9152260772,0.1581670192,0.4435949698,-0.8291702372,-1.1018164648,-1.2225246392,-0.9274752888,-1.5137717282,0.7780735701,-0.9862261581,0.0024055968,1.0734582035,2.0403391743,0.0113665555,1.6096108004,1.6748969129,0.0095334961,1.2416927864,-0.4233845129,-0.307681736,-1.2088609123,-0.0966985393,1.337932522,-0.6061395684,0.0649716414,1.2006371548,-0.0991977693,0.596164488,-0.2705610054,0.2209825447,1.8139200067,-0.5622090193,0.9729588869,0.2042577318,-0.0049323967,-1.0691797688,-0.4430851189,-0.2372829017,-0.351496374,0.4539189487,0.2682709828,-0.7320819162,0.4804149957,1.5079386831,1.3352600039,0.7147870374,0.0248297938,0.519570901,0.3875555565,-0.9328655188,0.1048789777,0.6339421537,0.4663255141,-1.3251254199,-0.2336178504,-0.7812262662,0.0913365632,-0.9659186286,-1.4914983832,0.3132881338,-1.2986337799,-0.1218058412,0.4566132229,-0.8518203777,-0.485366199,-0.462804121,-0.0822425543,0.2343543026,-0.0182113375,0.6129519492,-0.489471251,2.0131676201,0.6916944356,0.7005498235,0.2475300095,-1.0857550966,-1.1525664722,0.1245943317,1.8561164382,0.3641703339,-0.4620875935,0.7732585354,0.0383509929,0.248728659,0.1443504879,-2.0765891121,0.8977375979,-1.0881121732,-0.6464705754,-1.0828929578,-0.0909141855,0.7498962325,0.3753763781,-0.5218062482,-0.0168149406,-0.3845409308,-0.4841494596,0.6894068349,0.0128075514,2.54197924,1.4902081125,0.3326558664,-0.2814868851,0.5429228658,-0.8684688963,0.682754498,-1.81359096,-0.8515950453,-0.0263229962,1.2250379462,-2.0821966256,1.9052869617,0.6103575462,-1.4431824441,1.5332521765,1.784786058,0.7910516169,-0.5562597218,0.5185641328,-0.8410127724,-1.1437587648,0.1044475911,1.8873868428,-1.2999873911,-0.5014208404,-0.646612043,-0.930325759,-0.8873479268,-0.6513020199,0.9813697708,-0.4421390682,-0.0504207648,-2.2837137575,-0.7864628253,1.0070405013,-1.8052789757,-0.0568517523,0.8670810688,-0.4748355711,0.2799719267,-0.7594933739,-0.0416072985,0.0636240833,-1.2456794635,0.412851321,-2.0941473007,0.6263710084,1.0066881783,-0.1779084933,-0.0200588869,-0.1667667242,0.198943806,0.7211605719,-0.0102702245,-0.0008500896,0.6492493167,0.0776667067,-1.3419684556,1.091204484,0.9621879495,0.6034776319,0.3460846333,-0.1937145,0.0884750981,-0.7983614386,-1.0253567893,1.9288244678,-2.7819502245,-0.3330479584,0.3093527523,-1.5658573937,1.4296138817,0.542434355,-1.2299440613,-0.4598530847,0.1523426635,-1.1353305175,-0.6432470344,0.0064519122,-1.5294011294,-0.7157022172,1.4445127986,-0.0599441632,-0.4333280084,0.7189098203,0.2255319453,1.4757620786,-0.0755674267,0.6057210707,-0.1070953355,-1.3867637432,-1.6292003716,2.0364016339,-0.6739782555,0.0521846816,-1.1386206251,-1.0301868669,-0.1128594964,-0.0977713009,-0.2905676775,0.8078448107,1.3307507949,0.2264536869,0.3229857036,1.1678113795,-0.3814144402,0.3997135238,0.2603576441,-1.1919008259,0.3612879547,1.079028013,-0.1104090117,-0.0476148064,0.8991073131,0.9950850216,0.5013975712,0.0786410976,-1.0466615364,-0.366422183,-0.3563521998,0.6544334047,-0.8011828614,-0.8503994579,-0.135235345,-1.3746813826,-0.4679904124,-0.885337181,0.1637748207,-1.2091162266,0.6139599351,0.7140192081,-0.4672409165,1.2029398287,-0.27001002,0.5258796288,-1.2611098825,-1.131178402,0.2912829273,-0.5012542864,-1.3404624209,-0.3605354854,0.0831829184,-1.0058493921,-0.2359587035,0.3221084145,0.6789554818,-0.985229435,-0.4838227988,-0.8890787322,-1.8310587643,0.0247595907,0.863577347,-0.9336694679,0.3182261503,0.7434690823,-1.4061438723,-1.295882695,0.3698276814,0.0537329007,0.9520166742,-0.3252436739,-0.5766987156,0.6861805994,-0.5168701465,-1.8328323696,-0.9620388565,0.6983840343,1.237600317,-0.0579462001,0.6401948158,-0.9521763347,-1.3873062932,0.5593941226,0.5049300347,-1.4098552514,-0.7015527481,-0.894284912,1.9341332671,1.0476835794,0.6168754162,1.0841507954,1.0139796895,0.5225055757,-1.3166364278,-1.8734398707,1.4837807561,-0.9513398332,0.1848082053,-0.6347323187,-0.4658022172,-0.9226565802,-0.5288226685,-0.6814774743,1.5758505874,0.4166038863,-1.0493891554,-0.5487106521,0.0111912591,-0.041172985,0.2905572491,0.725885795,0.8621915112,-0.2787409866,-0.0524021814,-0.7368633398,-0.4140976822,1.6825169947,-0.5192802307,-0.4634521346,1.3893255624,-0.6825218537,0.1678870876,0.8568592499,-0.8344730711,-0.1595260843,-1.2540531825,-1.1289851929,0.8548563251,0.091621494,-0.4022121438,0.5978472647,1.7349296627,0.0346144778,-0.1361291033,-0.1178511132,-1.3031068019,1.4424880779,-0.2441136992,0.2077347827,-0.0278577118,-0.5950152123,0.8958554703,0.4177378273,-0.9790294559,-0.3197523538,-0.8511693874,0.7840242402,2.1454043135,-0.3370253302,0.3034081315,0.0943064847,0.1483931477,0.2603974259,-0.534135991,0.6654601445,0.01021841,0.2154300279,-2.0541384343,-0.8895639744,1.555878273,0.1960228516,1.5020837004,0.2646126843,1.2635411415,1.144333652,0.6990199173,1.3489051813,-0.3814777886,1.648547118,-0.3433515356,0.3806373096,0.1173747438,0.25300425,-0.6945303246,-0.0720209356,1.0832412643,-0.4748582297,-0.8810516572,0.2662284465,0.1283900396,0.1363126294,1.3257615836,-0.5831523118,-0.7967666869,0.4275162168,0.8620066497,0.5709334995,-0.5103429856,-0.9158330833,2.2140048061,-1.3251342135,0.8913699889,-0.5568480749,1.2782714273,0.0295350261,-0.5667130783,0.5835609647,-0.0904834907,1.4237296194,-0.0613802453,0.250708847,-0.027234218,0.8441938557,1.3888609407,-0.7821016713,-1.1184140708,0.7430315254,-1.8932317068,0.8216509761,-0.195607196,0.0116106187,-0.166215561,-0.3871923702,-0.1818076789,0.0908873714,-1.3643064026,-0.4862746014,1.5069088918,1.1330264383,0.5429187878,-0.5498935274,1.3905842933,-1.6304548924,-0.0547192324,-0.5180667547,-0.9237220009,-1.1142624152,0.1327515086,0.3045107505,1.7935018523,0.5798562889,-0.1045972319,-0.1569042378,-1.5601752459,1.0174888312,0.6988743839,-0.5303540792,-0.0180389789,-2.0755277377,0.7684208263,0.6174013503,-0.8093961238,0.1405532828,-2.2211448311,-0.9791210266,0.2513752502,0.8258921338,0.2989266188,-0.0333011095,-0.4148745653,-0.295102031,1.4174671418,0.0095630612,-2.1446956792,-1.9308379968,0.0954444818,-0.1151877524,1.1420862682,-1.2639854211,1.2313437902,-1.4749733783,1.1807485027,-0.9603045764,-0.4932403749,0.4126757118,0.1278243766,0.0799154499,-1.4451325594,-1.3404199205,0.5659893696,-1.4066464178,0.1821774142,1.2330701824,0.1984139778,-2.4853422443,-0.1191877472,0.9608816902,0.4378343806,-0.5262545047,-0.8375356295,-0.3852726908,-1.5244624681,-0.3607201358,-0.7458231545,0.3186106979,1.6726538384,-0.5329481624,0.2803015779,-0.440273544,-0.9884836257,-0.8705265128,-0.1727238045,1.3666761209,-1.2436569127,0.6992021261,0.3932705241,-0.1354514093,-1.1100438226,-1.1205619745,-0.7587235036,-1.0379092463,-0.0880047891,-0.1672332916,0.0109835369,-1.3194972169,-1.043911162,0.0362847556,-0.4632166329,0.4516016522,0.0246350862,0.0509507428,1.290650573,-2.0078153627,-0.166975179,-0.1856302053,-0.6373805552,0.033351427,0.3578466705,-0.039397845,-0.1007913023,-0.5053921476,0.7201061488,0.5580078678,-0.176356439,0.5211873592,0.1565969078,0.8362181883,-1.8858468063,-0.1507418622,0.0262035768,0.2236561816,0.8281466292,-0.766692401,-1.2257835643,0.1085488154,0.6063432348,0.9896071295,0.5246414255,-0.2913078986,0.7991957366,0.1305849115,0.5666545452,0.0995920875,0.5635658592,-0.6803239121,-1.5287911686,-0.1726475904,1.119951022,-0.5280550596,-0.6798997159,0.3281145277,0.2655744209,-0.2580448084,-0.500812344,-0.7406732082,-1.3911617649,0.9217537044,0.745017315,0.7741888555,1.7173592634,1.0073559328,-0.7078642003,-0.4807248199,-1.9198857568,0.4442410455,0.4419225665,-1.1543540151,-1.3435428419,1.7241224874,-1.1840923885,-0.8130967462,0.0879877145,0.0168215076,0.0894030377,0.3054514106,0.8063374134,1.3841509342,-0.9446111127,0.1031684646,0.2607336015,1.1305670309,-0.9637945381,0.2051793565,2.1612740342,-1.1275626733,-0.1296244574,0.6623063893,0.899566726,-2.0055562565,-1.0632255343,-0.3830386018,1.5930140753,-1.3488768243,-0.5523208183,0.286006381,0.8298230222,0.2859714893,0.7483287765,0.8233787611,0.7505064557,0.3296886431,-1.1043998006,0.667398953,-2.2516716,-0.4154366826,1.2534494982,-0.3605899392,-0.4125608004,-0.3508875152,0.9550930087,-0.1937887819,-0.9719137752,-0.0720702037,-0.3787372166,-1.5343890676,0.3082603929,-1.5807692605,1.0595556868,-0.6375462833,-1.674478676,1.7150710922,1.4969027069,0.0697358046,-0.6426278952,-0.3705930121,0.3783251839,-0.0089979989,-0.2639116195,0.6256585413,-0.2824014942,1.1558385955,-1.8983764897,0.5737470584,0.7304126001,-0.6130669735,-1.6267575907,-1.0011283828,0.059606979,-0.9680777067,0.2085085138,-0.6104334351,-0.081643719,0.4932466533,-0.9855677252,0.0449835506,0.8554752349,0.1271995213,-0.3158138952,-2.1066604458,0.7273466769,-1.2007286163,-0.0861228737,-0.6781044298,-0.6805914436,-1.2128324716,2.3346529624,1.2109374117,0.9556931238,-0.3851992198,-0.0534345516,-1.0532385052,-0.7132851842,1.7459099698,1.25206157,0.6376760257,-1.5122751595,-0.5842293401,-0.7162023031,-1.3152352419,0.1963593822,-0.2142905847,0.1952378662,0.3113584904,-0.1941298206,-0.378815253,-1.9472780391,1.921317532,-0.0509154263,-0.6070481957,-2.3196183221,-0.6784366535,0.9320627777,0.2933731014,-0.3841972044,0.5697963094,-0.7262864885,-1.5195053283,-0.0201483165,0.3470245928,0.0365805317,-0.4771063165,0.9537664626,0.1026277776,-0.8088188012,0.1287927614,-0.837172454,-0.0164525345,-0.1105464602,-1.8693333914,-0.8661065559,-0.4594555884,-1.075846091,-0.9072895436,-0.0086276977,-0.8814981088,1.5907241392,-1.2341926713,0.1605436427,-0.623755987,0.2814730874,0.9877049534,0.6264338579,0.9604771863,0.5145976786,-0.0605005213,1.4118615045,-0.8747694872,-0.9659695958,-0.2726452146,0.0209370796,0.8437842079,1.1881230211,1.5667659072,-1.0082654902,-1.2917606081,-0.0875170934,0.5145373916,-0.5971561393,-0.4753371725,-0.1980902897,-1.4852699882,1.0801772602,0.6414865055,0.6546172965,-0.7590525697,-0.6098268417,1.3115849269,-1.624277213,-0.3869325799,0.1611905287,0.4612341669,0.7154566248,-1.0463018634,1.5546871372,1.1774559778,1.5358690855,0.9073654491,0.1060517291,-0.8600286544,0.3774503754,0.4075903761,0.5544130577,0.2039522247,-1.2765122755,0.2074671026,-1.2049172203,-1.2007707616,0.7501807008,1.5660360145,0.2606668054,-1.3789690685,0.2045155877,-0.2749770904,-0.5905508687,-0.0057630379,-1.1457715739,-0.3692338851,1.6186951976,1.4211944729,-0.2009707864,0.4870260776,-0.8129569309,-0.3828104463,-0.6356721304,-1.4248530195,0.9840217267,0.5647046314,-0.0153728393,0.7073632059,-0.3959429505,-0.6965610466,-0.7606019354,-0.3656177219,0.3510172615,1.1034462339,0.7806135923,0.7176872762,0.4758881407,0.6169093246,1.413840941,1.5752766851,-0.5827047707,-1.87318315,0.1869843573,-0.562033627,-1.1760220459,-0.2544867796,0.0643084431,0.663450779,-1.078713726,-0.8199462522,-0.2183198345,0.417966751,0.9316416348,-0.1439006859,0.0448144502,-0.1746351762,-0.4452360463,-0.1645027786,-0.6629845554,-0.0183217461,1.8383501972,0.0042278787,0.4701471458,0.2761731679,-0.2405916658,1.1626845983,0.3250409233,0.480636174,0.1435351567,0.0207818841,-0.0950003337,0.7774016588,-1.2380656453,-1.862333925,2.0508845592,1.0934560308,-0.1313831025,1.5457508681,-0.8929329035,-1.806324994,-0.8155969957,0.4687174889,-0.7643195834,-1.3178838657,0.1527074851,0.6459218376,0.4436960469,-1.1508216462,1.310155641,-1.1803816757,0.6105680552,0.7305649516,-1.2017941037,-0.7652827138,1.7550291326,-0.7540212357,0.4826215662,-0.0732824292,0.6045632169,1.2744917805,1.8504162776,-0.0756936209,-1.4582531073,-2.5640972142,-0.1654073755,-0.4439622817,0.1167832571,-0.476110065,0.0562881394,-0.2710804472,0.2215504537,0.7596057852,-0.6456078388,-1.0661700317,0.628647019,1.2602307794,1.0025572479,1.4861976774,-0.6939657323,-0.1833477341,-0.6925533092,-0.6970689149,0.360216248,0.9713319709,1.8416486223,-0.5575937479,-1.0504082936,1.1081876111,1.0728273479,-1.1934876482,-1.5069193807,-0.6292577236,-0.1611607169,-0.0667975484,1.0906691517,0.4587318975,-0.098939613,0.7876996792,2.1416403733,1.5328915583,-0.3601176253,0.0984005189,-0.6915930957,0.7842218581,-0.3021551132,-0.6170221644,-0.2865594913,-0.0842296772,-0.5264205376,-0.5091803297,0.1124738529,0.9617450194,0.788886388,1.0302501662,0.7783636307,0.4541784131,-0.2858373809,-1.3895694343,-0.1697156576,-1.4338601636,1.307556266,-0.1020805641,-1.1639658257,-0.4786122241,-1.7195129891,0.5533321936,0.9126424548,1.0475395439,-1.0729721519,-1.3471339859,0.7288972415,0.1017612996,-0.4221408516,-0.0268915113,0.5159196712,-0.1632484992,0.0117112828,-0.6584241639,-1.0239185071,-0.1993356492,0.1884472311,-2.5646207035,-0.4053558836,-1.1937386367,0.087472323,1.3641506344,0.653365655,-0.2214912948,-0.3870706252,0.1637973166,-0.8884286193,-1.286072614,-0.3537761125,-1.2077768326,1.9731249613,-0.3252990198,-0.165308138,1.4766864631,-1.5433182012,0.5923270955,-0.2311848521,-0.3824032346,-1.1441581594,-0.3687035232,0.9732870628,-0.5808054767,0.3423214775,-0.1904033373,-0.6416405065,0.4882445497,0.9761564307,-0.8002314853,0.1937062771,0.5178083477,-1.5244859811,-0.8780230508,-0.8033875874,1.091531484,-0.1169123575,-0.8996465405,-0.5733856295,-0.7126205938,-0.7375096395,0.8814235798,-0.3817512371,-1.6729574442,0.1162860253,-0.1638409789,-0.4579890395,-1.1724640973,-0.3109029655,-0.2463179813,0.8319830252,0.4829181,-0.5558573147,-0.6159107985,0.861294267,-0.4803299768,0.0834720524,0.2642653337,-0.5333703637,-0.0773510205,-0.4814393582,-0.6670962365,2.0144620658,0.2763810997,0.4060867914,-0.5696270468,1.0029273487,0.3014100577,-1.0228458098,1.1748763951,0.2312330368,1.132715355,-0.1448597195,0.5111668964,0.7754124508,1.5454879247,0.1621948557,-0.1231299984,0.2553505335,-1.0953453182,-0.340710222,0.7280983834,-0.4220683374,0.3252314747,0.4158554291,-0.9353447806,0.5343292914,-1.4568593739,-0.9303299752,-0.333290744,0.0763046763,-0.5563866654,-1.485712629,0.2977848351,0.5992360895,0.9925186104,-0.1864752202,0.1077611681,-0.5839473907,0.1315465289,-0.3362840402,-1.224073107,0.0613880304,1.4455082961,2.0518804733,-0.1876784332,0.9231095297,-0.3841073418,-0.7116193744,-0.1470842738,-0.6258231172,0.2048475435,-0.8979236911,0.8269321686,-0.7285421603,-0.2401567918,-0.943025933,0.6636814598,1.6589883023,0.7500615111,0.02655775,1.6887026465,0.3087820518,0.5614953715,-0.0254959102,0.5379779738,0.0868447262,1.7905968795,-1.2323132959,0.8296819027,0.0298755856,0.1875229242,-0.3841784048,0.5184312567,0.1258044531,-0.3271824524,1.3202438234,1.7442037367,-0.4862863549,0.5665457676,1.7415583147,-1.5775509252,1.3557095294,-1.2463161146,1.5762818863,0.2485249717,1.1728684744,1.1628303031,-0.1071046322,0.1984851537,0.8909078744,-0.2458193647,-1.6527325196,-0.2992260108,-1.3765445284,0.2223873957,-0.9957780606,0.1372423367,-0.9241694746,0.1599496097,0.1969082344,1.4123070814,-0.2734329682,-2.9110691997,-0.6724497013,-1.3787165277,0.6402511771,1.7387067273,0.7108131305,1.5360413434,-1.4355714581,-0.9510492484,0.0570387655,-0.4978321282,-0.2724230961,-0.2653929079,1.5834487315,-1.5851634274,-0.3949418415,0.2709862583,1.286260774,-0.3477996367,-0.0810611201,1.6580811662,0.6203476544,-1.4379740359,-1.0790282871,-1.4792837104,-0.5631565191,-0.0105374668,1.1742517957,1.4470549297,0.4966933568,-0.199524131,0.7457645494,-0.2280133172,0.6733383367,0.6973650453,1.2833345407,-0.1991535052,0.197471611,0.3170505925,-1.3706866631,-0.051020976,-0.0136944004,1.0072322859,1.7603508798,0.7732143545,-0.6584440649,-0.2476872213,-0.9391096892,-1.2576275803,1.097648737,-0.5218698548,-0.2122282495,-1.7907974957,-0.2312662284,-1.4242091936,-0.1944067541,1.0358989844,-0.5360575015,-0.4857785002,-1.236581086,0.4673250654,0.062792866,-0.0934678717,0.1911927593,1.9435205023,1.4080206537,0.4047433551,-0.1096075334,-0.1937167687,0.3091400692,-0.3984837044,0.795754028,-0.9641882749,0.1690183449,1.1907302977,-0.7239041706,0.8853919115,-0.6532532552,0.6612490297,0.281098421,0.7759459724,0.5997607102,-0.2015880273,-0.9066895276,-0.6478828926,-0.9294502913,-0.6204713861,0.8187402329,-2.4259266232,-0.9668686482,-0.6842288686,0.7298124465,-0.3168758269,1.00057441,0.8987655667,0.0842036583,0.1040768381,-1.3580408907,-0.2926152009,0.2842038749,-0.5270015644,-0.3533110332,-0.8224129304,0.8230735762,-0.3714191568,0.0546649827,-0.05597067,-0.2961218987,-1.286731896,-0.2940483234,-0.6465942564,1.3461564043,-0.5464709623,0.8512980717,-0.5875319407,0.8658821868,0.7934711953,-0.2994278739,-0.2377191684,0.253045246,-1.8332043517,-0.0972845975,0.4597755225,-0.6652569862,-0.5012979064,-1.0358738641,0.3310240674,-0.9420465932,1.1410010436,-0.7445386839,-0.444405207,0.9928845648,0.8785841874,0.376402892,0.8060486346,0.08550893,-0.6431298822,0.6898620504,0.8527380636,0.0937660282,-0.4657802161,0.667111766,0.4781637338,1.6717002553,0.9575814776,0.1125308032,-0.5919988405,0.9031718908,-0.8266518976,-0.4388234879,-0.2721695959,-0.6227019008,-0.8871533598,0.4423090236,-1.5394074618,-0.0445062398,-0.24864514,1.1288495304,-0.9933063698,0.366228146,-0.0560611619,1.0001258546,-0.4667714428,-0.787989738,1.2184392105,-0.3504877578,0.5241929759,1.8096150854,0.1067548673,-0.6427485835,0.6899744741,0.0247953119,0.2079559677,0.6310238351,1.3956784544,0.651195921,0.0964923832,-0.1458883033,-0.730562784,0.8860069067,0.1453737154,1.5931105881,-1.4085812413,-0.3888458745,-0.4796806557,-0.2701373303,-0.6198553358,0.6623354354,-0.2257202188,0.5375959576,-0.2529796584,-1.4118726584,1.3921662764,0.0778821886,1.3831296147,0.4464933314,-1.3570282181,0.0242121174,-1.0173786142,0.9924529532,1.2174862074,-0.4207165292,-0.2135657552,-0.2883420593,0.1849036037,-0.1348952664,1.4667710108,-0.2954076329,-0.6342577213,0.0669099815,0.6794477412,0.4580151336,0.2828564164,-1.5278684303,0.600363252,-0.6453796163,0.7879406093,1.1181709549,-0.794916552,0.3440240924,-0.4633364488,-1.7947408821,0.2091427389,-0.9185373649,-0.3658797191,-0.2628077042,-0.5778150043,-0.7137131537,-1.1969229499,0.4435867183,-0.2928711316,0.7592080214,0.8085340232,-0.2554299881,1.1511125109,-1.0781397617,-1.064172386,0.1145616188,1.0174199657,-1.3357876525,0.9822032339,-0.8394697268,0.0999188625,-1.0512478948,-0.8207029359,-1.0443140452,0.323075727,2.3774639257,-1.0129128778,0.2427948149,0.1721004204,-1.7140271434,-0.3080865076,0.2969471912,0.1626577642,0.6109245043,-0.887195933,0.5822622483,0.7575600954,-1.2377637452,0.7142451128,-0.2392472106,-0.3186697066,0.9082002499,0.376490779,0.9199110706,0.9172661665,-0.6115978935,1.6960936774,1.0397745838,0.7914535241,-0.132442062,-1.0983065743,-0.2043727064,-1.59072192,-0.6081457042,0.1584182725,1.2009419698,-0.4610852149,-1.3314953487,1.6308187482,1.2363668339,-0.2781044852,0.5976921713,-0.4898885913,-0.5860780469,0.3398871914,-0.5372493086,-0.6570007087,-0.2662861229,-0.9222003159,-0.0439233438,1.8980692713,1.8620606342,-0.1869136119,-0.9231722334,1.3296027364,0.472994476,0.5088192095,1.6900718639,0.7250827134,-0.0359500114,-0.6742382767,-0.5086263578,0.1244464015,0.9150763891,-1.7203731974,0.2687101665,-0.2768420395,1.3138620341,-0.4760625011,-1.1738866475,-0.2986122543,1.9164158923,-0.2047178451,1.9623651834,-0.3467695638,-1.6433234594,1.1731308273,1.2003905848,0.8791638263,-0.0037822624,-0.5928426061,-1.9174116005,-1.1878621095,-1.5025121228,-1.4173045811,-0.7833517358,-1.5364025412,-0.2572839254,-0.3822354741,1.0753740984,-1.4533840375,0.9794050428,0.2405929928,-0.6940467868,-0.5885036532
   1.6324363815,0.098034883,1.9302144673,0.8000661924,-0.534738934,0.2175555702,-0.1878314484,-1.3166539818,-1.3859567261,0.2464168896,0.2752682306,0.4743268944,0.8937224076,-0.0008911808,0.5543981318,0.5743084616,0.1866765513,-1.2988887074,-0.5061923431,-1.1519541277,-1.3479541643,-0.0202358828,1.423007871,-1.2719977923,0.134758873,0.9160859707,-0.5892979645,-0.6807514824,-0.9991060925,-0.4989995187,0.6220990712,-0.652056013,-0.0606440675,-0.8386014921,-1.5561669883,-0.0803595657,1.0877000037,1.6517412951,0.4190602754,0.0045697162,-0.4329261424,-0.129708178,-0.3774959875,0.0428311336,1.2599639444,-1.1314165451,1.1501756833,-0.1830334351,-0.2111622421,-0.7553565754,-0.145863817,0.7005282882,0.3756207952,-0.5846885422,-1.8006942425,-0.6233106241,-0.9136793748,0.3910758713,0.3428109064,-0.5118877255,-1.7543382012,-1.0021191169,0.4882723306,-0.4052863373,-0.5108250577,0.6758396895,0.315962239,-0.1842746078,1.1416189527,0.2197756412,-2.5029772065,-0.5804465378,-0.0907463441,1.3066339618,-2.6987161311,-0.7902034014,-0.1149220342,0.9223741626,0.0510298113,0.3781267008,0.448049342,1.3363863747,-1.7691984778,0.906645456,0.1254837366,-0.2139039761,-1.2667012576,0.0810097568,-0.9257293975,-0.8794295832,1.4670518867,-1.3906652471,-1.4263847635,-1.1791783192,0.950411142,-0.2625762648,0.8823654508,0.3033287086,0.3647222789,-0.9997884898,1.7301855421,-1.0233812317,-0.6517990076,0.5916703392,0.289627134,-1.0302653415,0.8770983892,0.3213037708,-0.6312881325,0.265414346,-0.8567188143,-0.256818095,-0.5208722152,0.7304123227,-0.4469576477,-0.1590428922,0.6746418843,-1.5423572787,1.1547468655,-0.4994745003,-0.6215047112,-1.6609821045,-0.5395842876,-0.2067962153,-0.3244864677,0.0930832421,-0.1585812006,-2.0914290722,-0.1082254813,0.6098256355,-1.4497687694,-0.8531467928,-0.7525436133,1.214450129,-0.8912497947,0.6648148795,0.9482231402,-1.4893851777,-1.6131877252,0.4873578311,0.8311890999,0.6881864817,-0.0393489434,-0.1118884302,0.3794008592,0.8991994962,0.0476518802,0.766291709,-0.6658970779,-1.3002397524,-1.4337765298,0.1871089631,1.0222662111,-1.2414819413,-1.4432746516,-0.5103312817,0.58227494,-1.9255182532,1.4887326074,-0.0265242522,-0.1873911015,-1.2416221432,0.7356459084,-1.6519285966,0.2646734952,1.1034648467,1.604880775,0.8663775075,0.8749334555,0.4632436803,0.2211181432,0.3502517159,-0.5007621097,-0.8964389712,-0.4126635428,0.3229005795,-0.2572786406,-0.4862426347,0.0044950368,0.1021313177,-0.4239298742,0.0231391087,0.7099533844,-0.279778772,0.6420884463,1.4596147537,-0.5673218771,0.3320226964,-0.304631072,0.5111229092,0.5690010147,1.4666695629,1.4772536297,0.4958352463,0.2274963078,-1.5922174738,-0.8813261561,-0.5986403917,-0.7868355554,-0.3198303799,0.460165677,-0.0250261192,0.7874234224,0.1257657206,1.0226574781,-0.9074297883,0.3578884126,-0.2696563075,0.5698488052,1.2971664184,0.1647181372,-0.4427026894,0.2311242943,0.8581847112,-0.2376192683,0.4095830246,0.7640404089,-0.9877820792,-0.6574371237,-1.2644524038,0.7672568009,0.1843667904,0.2059505834,1.4355408069,0.940802791,0.9346130317,0.2732988894,-0.2067754374,0.5605238888,0.0681571613,-1.1284867502,0.1496635965,-0.66308245,1.0491111641,0.3386795823,-0.4735906444,-0.203525638,-0.2167747857,1.6034089582,-0.2926964967,2.5669904117,-0.6489272493,0.1638301043,-0.6238212055,0.5544669081,0.0175190944,1.0674421182,-0.0944714095,1.2647770525,-0.4016237181,0.8182646459,0.8693351173,0.3073587727,-0.1598116795,1.3898571364,2.1345214562,0.4083690264,-1.2632273754,0.1593186938,-0.0274046799,-0.7443696411,-1.0448787399,0.2733283794,1.1991596621,0.1191046792,-1.1821533595,0.5394022019,0.2462933804,2.0025786268,-1.142564488,0.2658444769,0.8907284967,-1.0465171273,0.0383071588,0.2848746878,-0.1951010568,0.7927810204,-0.6862024186,-1.0721433201,0.2436257817,-0.3623346385,1.5511974367,-0.0356687119,-0.0949572341,1.5013159339,0.5312733799,0.3286328403,-0.9111040888,-0.1426480484,1.457143242,-0.8389500601,0.3505746832,0.6430518012,-0.071074127,1.6816975026,-1.0055482078,0.028992256,-0.3453537982,1.4386238796,1.2082520137,-1.1985047996,-1.3176096776,1.8924410593,1.0313906496,-0.8383996872,-0.8172046979,0.2408447056,0.3514657305,-0.5006432049,0.9270382336,-0.6569965975,-0.754989846,-1.1281219896,-0.1227435767,0.8857914004,1.2047055715,0.7808157876,-1.0270956624,0.6574385471,-2.2646673055,-1.5961048096,-0.0281619053,-0.6243309525,-0.7372686524,-0.3347031547,-0.8486212145,0.8517129502,1.0662710852,-0.14754635,-0.9574380757,1.3975446351,0.1156450659,-0.404821282,-1.2669217405,-0.3814863941,0.7877431656,0.5992349913,0.1385289268,-0.1443914845,1.0532975303,0.5160586466,0.3273743841,-1.3066896736,0.1935771411,0.6906929681,1.0525490495,-0.7235849438,1.4778372779,0.0828866022,-0.2195221426,-0.7596331114,0.5631490443,0.8694802504,-0.6367155422,0.8631535089,-0.7867598157,-1.061280743,0.5839173334,0.0266315249,-0.627906616,1.4850846292,-0.2753463315,-1.4931933554,0.6109922623,0.2527677853,-0.4036631949,-0.0137357592,-0.131753902,-1.1254816035,-0.9941357958,-0.8322234355,-0.693958133,-0.9441278526,1.8777492942,-0.9880182471,0.1006998832,1.7108711712,-1.479015096,0.5500373631,-0.060115347,0.690793347,-1.3562732634,-1.0350373552,1.5158000076,-0.5403529403,0.3598119119,-0.8938140734,-0.3259338232,2.4090834405,0.7526537243,1.8233023895,-0.0224056274,-1.1474681382,0.8835786505,-1.5498126379,0.3604752942,0.2919683924,0.1481316239,0.8870655139,0.5585215475,0.0012694208,-0.6916453815,0.3057348188,0.4787273883,1.1568195072,1.5109270246,-0.4994646109,0.9248530614,0.712152254,1.1634515458,1.1295920822,0.6277789839,0.8835554938,0.1356778623,0.559337718,-0.3808500629,1.3092225162,1.6078217367,1.6457569158,0.1001136305,-0.6306781812,-0.6170249467,-1.269815643,-1.2667449565,-0.9566589554,0.0106112574,-0.0113376648,-0.4656492337,-1.2838589955,-0.3170016659,-0.8109744847,1.4491246828,-0.4974078154,-0.3108201639,0.8845983221,0.5526766579,0.1734269561,0.5724578965,0.4129602875,-0.3827044535,1.3237003478,-1.2754419073,0.577424154,0.1684050895,-0.6480420635,-0.1223891743,0.8408431007,0.6017220175,1.8889455345,0.1752810546,1.5987102106,-0.8329278427,-0.6738395291,-0.3773334552,0.508183524,-1.5781151449,-0.4822884819,0.0504140131,-1.5637606062,-0.4530106247,0.3468014848,-1.1138187038,-1.4350854821,0.7991207224,0.9861753394,-1.7661877002,-0.8816820492,-0.4391506785,-0.9573774196,0.4940945142,0.3853501692,0.4248200085,0.2125309026,-0.1831683445,-1.8675547476,1.0298988371,0.6321837938,-0.0544179188,-1.3321051923,-0.0224758382,0.088573403,-0.7701824153,1.4824363703,0.5680019002,0.5123467007,-1.269759651,-0.3515279033,0.8084892626,-0.219405428,0.5299126397,0.6802231945,-0.8511597064,1.5896823988,-0.746469626,0.7630944779,-0.9086471723,0.1324006176,1.6656613609,0.2141207757,1.5117574047,0.563045036,-0.0179106802,-1.3750562691,0.0165415238,-0.2895343735,2.0945862916,-1.0338929609,1.8310323896,0.2308551164,-0.3428001262,1.5860006991,0.2681215359,1.0568474663,0.8253076229,1.0805547375,0.4809525506,-0.1040679944,0.1987628556,0.128577952,-0.3103280273,-0.3948429542,-0.0552969181,0.3694378918,-1.1978680957,-0.5602919574,1.1761338385,1.1400953201,-0.3958242557,-0.7744889003,0.3373551598,-1.0082525205,0.4092156435,-0.5545415344,-0.6971768979,0.5688472144,-0.4894846861,0.2486058971,1.062542505,0.5967399529,0.3438358988,2.0638153737,1.5469216701,0.6901293941,-0.7561331151,0.5320503873,0.3600949798,0.4446438755,-1.1578323518,1.419010566,0.9798788031,-0.6423357361,-0.7471483012,-0.2036880842,-0.0273194477,0.7929754683,0.0959714468,0.6963762801,-0.8389982707,-0.5348690727,-0.0813895505,-0.0925145966,-0.5706810656,-0.2487566615,0.5495177778,0.4262477828,0.6008266498,0.0413467068,-0.2602317571,-0.8335856355,-1.906812537,0.5534348726,1.2295869973,1.461314108,0.4600545719,1.227820812,-1.3487437109,0.7601107955,-0.2660194771,-0.7346663332,-0.2161157046,0.960002702,1.295962985,-2.6517794768,1.1995778798,-0.1161161882,-1.4352602994,0.9085767466,0.4769341546,0.9217524223,0.3130399139,0.3184532251,-0.4014859697,-1.2413794536,1.2121482247,-1.3064013068,-0.6919600421,-0.0926817656,-0.7141905439,0.0294378919,1.3383919763,-0.8716492585,1.0435034808,-0.9989515938,-0.5085728792,-0.4493158971,-1.8674105864,-0.2338629225,0.5416823692,1.3041796592,-0.4281201273,-0.6725945925,0.3153915205,-0.7406018344,-0.752543597,0.4609097878,-0.9435160655,-0.6648411398,1.9373252515,0.5032210198,-0.5889596188,1.1083330843,-0.5685072895,-0.9128583184,-1.4984741939,-0.7233066412,0.7983111788,-0.6950143259,0.3881219493,-1.1869642773,-0.9398982848,1.0607986462,-0.0202256299,0.5393653033,-1.1119533471,-0.1589837468,1.3037425656,-0.9230938119,-1.1899221561,-1.0620478721,-1.1650221222,0.5203772484,-0.3744377753,1.4184804806,0.3247420659,-0.5540880314,0.644465092,-0.1752098843,0.0471644699,0.6775866513,0.2519546451,-1.0095814748,-0.8152393437,1.4324048086,-0.3857140132,0.2817528877,-1.0641209058,-0.1714324641,-0.2763813057,-1.3052740691,-0.550660387,-0.5080144644,1.4021427426,-0.0794454037,0.7976743069,2.3796715424,-1.4949994431,0.3966626198,0.4288727008,-0.1329187215,0.6132011004,0.297992549,0.8997676782,-0.3570088088,-0.6539142099,0.7779523464,0.0709690967,0.001369205,-0.5994526509,-1.839743357,-1.0523303648,0.6720358573,0.7863102662,0.1618794601,-0.6981669298,-1.8470578585,-0.1860743783,0.7563315533,-0.5720469294,0.0050416263,0.2125991363,-1.3492231034,-0.0571540362,0.382791564,-0.2553494601,0.142991759,1.231916285,-0.1481320029,-1.7309244104,-0.8565321445,-2.3831555998,-0.7494330938,-0.0915771724,-0.9484077959,1.1026618089,-2.2778208591,0.3816938312,0.1954533796,-0.2008560608,-0.0019848385,-0.0999007674,0.8938851291,0.4454986169,0.0044627056,-0.2784878432,0.7214103105,1.1022747233,0.4275746554,-0.3648740427,-0.324018067,0.617088142,0.3274747779,0.8938872289,0.9755578143,-0.3786374767,0.6573411751,0.538418979,0.2397972297,0.0447048537,1.3868682625,-0.5266697071,0.2469814771,0.0890407909,-0.9899765882,0.4073826323,-0.8953038242,1.2995558671,-0.4852985845,-1.0465290296,-0.0682184026,0.6093724166,-0.5284852457,-1.3620621409,-1.1820768173,0.2414514884,-1.1040896296,1.2136793917,-0.8772120141,0.7366822083,-0.3963237508,-0.5985876853,0.2105747762,0.3391218964,-2.0982620232,0.0009584638,-0.7310064618,-0.8495235305,0.0006074508,-1.4335635691,0.446828737,-0.582585551,0.0621167298,0.957929479,0.0826338552,-0.678182352,0.2360835076,-0.0363747656,0.4187379992,-0.1310286959,-1.1425035818,1.2828129478,-0.2403071889,0.2724319399,1.8329756014,0.055905738,-0.238417589,-0.3019507914,0.1071028583,-0.6105372055,0.1072590622,1.0113333387,-1.1174973005,0.5208798548,-0.2753289603,0.3527304384,-0.3897950173,-0.8620243499,1.6333398613,-0.8320907732,-0.5084948395,1.2507522385,0.9026233939,0.5944149305,0.2229186173,1.2388428201,-1.7917389263,1.3971813397,-0.1989311787,-1.0668829823,-0.5217191644,-0.9262618264,1.323407253,0.8819711357,-0.2723099792,-1.6339788679,-0.0119695916,0.7109956072,0.9127992185,1.2043666031,-0.4207266944,0.6824925567,1.8204585005,-0.662892914,0.3046964977,1.3464782951,1.2657575303,0.3383703864,0.5455403842,-0.3261356815,0.072922179,0.4008757774,-1.296161693,-0.7690322453,0.8130781,0.0242055892,0.4517655782,0.3532201936,-0.0023414835,-0.9937344178,1.8285967863,-0.8494472214,1.0755944675,1.0495852223,1.2236133478,-0.5909774049,0.740537301,0.1756848425,0.1600023404,0.2480579287,-0.6426772757,-0.2910611439,0.8328729214,-0.199797884,1.409799488,-0.6728036129,0.9134375777,-1.7912606493,1.323847698,-1.0607106409,-1.1961483934,0.8896762519,0.9968760257,-0.2469667934,1.0926533369,-1.7064159076,-1.6696632576,1.0440341719,0.544380117,0.5927670591,0.5803252388,-0.2942725791,0.3334346708,0.3638319513,-0.8556559816,-0.3329467322,1.1137397126,0.2170012972,0.9331506987,-0.5628595652,0.8435357157,-0.7001429579,-0.5736172564,0.0365289883,-0.4542584441,-0.6173333147,-0.9952242593,1.0921135222,0.5546176824,-0.7610785241,0.0767909439,0.680684469,0.0380953019,-0.3154384233,-0.1747690299,-0.5024340382,0.7958583022,-1.068552531,0.8962533004,1.1148779238,-0.8278170857,2.6753470442,1.1845197544,1.0248493291,-0.9320462263,-0.807785841,-0.2174319804,0.0084180866,1.3176010285,1.4120562736,0.2980297532,0.8800690252,0.5568969832,1.3784230204,-0.1444559865,1.5860437678,0.2407880683,0.2866478757,-0.5491350079,-0.4018483049,0.1389687488,-0.7023230574,-1.7062147012,-0.8918702882,0.5575799725,-0.5993529925,0.9887555933,-0.4835537308,0.944308107,-0.585130253,-0.517848377,-0.012718567,-0.8249849592,-0.9830602985,0.0364143492,0.345619045,-0.3139243829,-0.3663657659,-0.1612808134,-0.1388064867,-1.3602917383,-0.1844953719,0.5393093313,-0.7447957785,-0.1285370982,1.5556639464,-0.5411849055,0.0789655416,-1.2214764318,1.278776531,1.2000852348,-0.7020458301,-1.7265228965,1.3621479309,0.1164844406,-1.4643087909,-1.3868374964,-0.876671703,-1.2205468434,0.7758517889,-0.5168708989,-0.149425878,-0.6899549476,0.2184111355,-1.4982613387,-0.2202534794,1.2857481307,1.0197666918,-0.0871086959,-0.4315902245,-1.6058056968,-0.3034258351,0.8252658466,-0.8952720135,2.1105591239,0.093065803,0.9102918634,0.3529157125,0.0806111409,-0.2040135182,1.0023032833,0.8394968937,0.3244311333,1.3432630085,-0.835751763,0.9568823213,-0.4283168076,-0.0702623749,-1.5426104593,-0.9840337254,-1.8951555817,1.2737408499,0.7782809729,-0.5357901241,1.1409374348,0.1170096782,0.2096155394,1.0015630883,-0.8910584601,0.610430283,0.248657102,1.1167301535,-0.2022659924,0.2777114944,1.0333575734,0.6766001307,0.2472433458,0.3077477765,-0.8741763698,1.0311694561,-0.2125009544,0.3517251124,2.2392347601,0.9779801662,-0.5399716463,-0.6864310056,1.3213192493,0.1956625682,-1.3033279762,0.4279336773,0.1669663427,-0.9137903928,0.7057335181,0.3752650291,0.0292526437,0.1670125768,-0.1276912767,0.1270996558,-0.9702360962,-0.2346862201,-1.5138974519,0.242342761,-0.5519689841,1.4005641544,-0.7116219685,0.2366263889,0.2598719724,0.1563920718,1.1937579928,0.1173542031,-0.0586003878,-0.5809136178,0.6477032146,0.1613155443,0.5473747392,0.1062914896,1.3822909528,-0.2489621099,-0.2129720891,-0.890393394,-0.3539582394,0.0278518899,-0.4220903061,1.4978847146,-0.6349457676,0.5938774023,0.0107979818,0.634048002,-0.9368985502,-0.0739673525,-0.472397915,-0.267728646,0.6427897306,0.0939080321,-0.1859351458,0.6152568415,0.0113701799,-0.1948423334,0.0151875469,0.3751088157,0.6081999946,-0.0039307491,0.0275412841,-0.5458051166,-0.1215047541,0.5064078192,-0.1051055914,-2.8882864419,-1.076085531,-2.3796336291,0.4515034211,0.1997445178,-0.2737701252,-0.2550966661,1.6293996863,-1.1264122,-0.0921149395,-0.341327355,-1.0609029065,0.692774141,-0.2850815973,-0.488775966,1.6283196479,0.7408580333,0.4885260442,0.9573879769,-0.1337077442,-0.4801980022,-0.4590407708,-1.3289608389,0.3428538442,-0.7810456785,0.2822578983,1.1713297618,-0.6940303343,0.4707664111,-0.8935604608,-0.0081624771,0.1191454802,-0.8611755973,0.7740842622,0.8704498883,0.8552803328,-0.6676571284,1.5424256414,-0.0449765649,-1.279253292,-0.7645604089,0.4044293892,-1.1746554232,0.6165795535,-0.117132646,0.4660603088,-0.1972614006,0.450019883,2.0432609528,-0.3648064039,0.6886947729,1.7129980284,0.9688402522,-1.4708664674,-0.5796236737,-0.2547554338,0.4823681176,0.3848456894,0.224477521,0.7293540679,-0.1129650716,0.690097818,0.808953294,1.3381845687,0.6289101291,-0.9054239345,1.8591415929,0.0893580707,-0.6123537339,-1.0514639161,0.7584290821,-1.3187833555,-0.29868599,0.9848782819,-0.8402737158,1.0393763112,-0.0853694954,1.0176680137,-0.7345810417,1.3893088963,-1.6785794073,-0.9632451969,-0.6269477057,-0.0073058451,-0.320969213,0.2676973679,-0.1926918429,0.8702082654,0.7512895515,0.7870060604,1.0839035968,-0.2662025209,0.0478029909,0.3742899988,-0.6920340696,0.3273464252,-0.5482734257,-0.7887686477,-0.2754499706,-0.7210395151,-0.8956036584,-0.0583155705,0.9452644743,-0.6458450059,-0.1188824929,-0.4014958133,-0.7616362628,0.1672720274,2.0427354679,-2.4148354678,0.8116827541,-0.3529551314,0.5545481947,-1.28946743,0.0001985368,1.1281538188,-0.5769966229,-0.7830165434,0.009978539,-0.9548237916,-0.9426124588,1.512327884,0.5534047492,0.1441142224,1.1218648625,-0.5388551543,0.282504042,0.30088156,-0.7915323337,0.3202946043,0.1649433017,-0.370170038,1.8514877492,-0.926064427,0.7036013275,1.421905331,0.4896076029,0.7645024456,-0.5442091286,2.1127349012,-0.4059867318,0.3367159841,-0.1985823836,0.4266597022,0.8116469079,-0.3932539938,0.3687482314,0.4034936252,-0.9400619007,-1.1220303021,0.4342060425,0.6725897017,0.2555346711,0.40679316,0.3620997778,0.8475605682,-0.6510505538,-0.3554580582,-0.1743594774,0.9468503102,-0.0915135026,2.0100631508,-0.5075464025,-1.8123700789,-0.0750579378,0.4128589175,-0.9077355519,0.5126909847,-1.2919736922,0.9869148465,-0.9502667132,0.9144559618,0.2871805594,1.2808188153,-0.1622632057,-0.1497643911,1.9619176294,-0.3288295266,-0.1328289691,1.0188047694,-0.4831576026,-0.133483625,-0.5925243866,0.2137544327,0.8979837165,0.1427509558,1.3420971879,0.1349529746,-1.5608840756,0.3247108208,-0.2331228215,-0.4036498516,-1.9831550097,0.1069252147,-0.2968006636,1.3606870074,-0.9723208048,0.2481529679,-1.4046047833,0.1880686565,0.1816520008,0.6954628949,-1.2291624608,-0.9261130051,-0.2658339067,0.8956716487,-0.1911524742,-0.8147995969,0.1388716746,1.1451737953,1.8433728298,-0.9504602949,-0.1578131129,-0.0757325258,1.0009996849,-0.2971886142,-0.3686363732,-0.0332749349,0.3690965362,-0.5566966583,0.4560880097,-2.1647833004,0.7882984447,0.0816833454,-0.1578069872,-0.092514862,0.3552032538,0.0507550099,0.8544172587,-1.2390583609,0.156510822,-0.488690527,-0.1167053166,0.8788799064,-0.1355779994,0.1707256169,-0.5363865,-0.3414225525,-1.668188938,-0.4787032378,0.1625098681,-1.294187163,-0.5811371426,-0.9464016768,0.4516626512,-0.9587707794,0.6981090845,0.2068828994,0.9984542633,-0.691812615,1.089040974,0.4388445787,-0.4768550386,-0.6758703704,0.7313265413,-0.5075088652,0.8791145764,-0.4503731355,0.0424558943,-1.0388950715,-1.6500197517,0.3727345446,0.3769220575,0.0489330677,-1.4326652358,1.5114598285,0.5258305607,-0.4975347771,-1.4285626535,-1.7208043463,0.010041163,-1.0148810265,0.4544904084,-1.5144593258,-2.1928546387,-0.117550648,-0.9558805823,-0.0352363953,-0.2036249958,0.1194353918,-0.2297576976,0.3383712219,0.9414841638,-0.9847903368,-0.3235645222,-0.2459874794,-0.4919392804,1.0703074929,0.8106090695,-0.2233909764,-0.2177120623,-0.2737152718,1.4892696556,-0.8935948467,0.4031255441,-0.6527993496,-0.8906493605,0.127844135,-1.4334493729,-0.5994704002,1.4077289673,-2.2951273235,-0.3863306103,-0.3833254591,0.2188324505,-0.6022104524,-0.1670604937,0.1296943199,0.2965440942,0.412639679,0.0709653609,-0.4774092009,-1.7489373463,0.0867941757,-0.0624459076,0.9318116561,-1.388466943,2.0311042735,-1.3540262512,0.6385588026,0.7720086119,-0.9588849524,0.762793345,0.774398277,-0.371203672,-0.6818036184,0.5349939106,0.2035929828,-0.028691491,0.5045189726,-0.3040880778,-0.3761005352,-2.0347815891,0.2562281374,0.0794502161,1.7566754351,-0.1545962035,0.7090364314,0.4207862426,-0.9055802361,0.347383994,1.1336148673,-1.4337290487,-0.0584384572,-1.3129402021,0.2140996918,-1.931752746,-0.7849748338,-0.3746341909,-1.4823801638,-0.6959946522,1.2767140582,0.5074549666,-2.1336010336,-0.6686735249,1.4365045663,0.6467201807,-0.7573682891,0.1651201048,-0.7274984573,1.5605022894,-0.2018968041,0.5406927953,-0.745409054,-0.6240303659,0.0153860298,0.0723618664,0.5212983074,0.2511980947,1.923099151,1.0390888099,0.8744850627,0.9436687218,2.13475938,0.2309441262,-1.1140776673,0.6530809029,1.2632739373,0.3607533335,-0.049569748,0.3106720465,-0.021371992,0.0461829979,0.2285958482,-1.2545548645,0.1184371752,1.0822007921,-0.3443651035,-0.2034548299,-0.0179441771,-0.274192308,-2.0039585726,1.1020222998,0.7281749132,-0.2397057157,0.9128318836,0.2217445325,-0.6012643322,0.3428830772,2.0431254612,-0.4722118735,-1.0991276227,-1.6279557386,-0.297781644,-0.6933656156,0.3544336038,0.6332299259,1.3200172545,-0.1199971347,-0.0135864724,1.8687363099,-1.3038516778,-0.1289171527,-1.0265588858,1.8857739098,-1.2215525669,-1.1475650928,-2.1381368928,-1.0930779065,0.4117751028,-0.692306672,-0.7681384281,-0.9675681371,-0.3108633966,1.6924066352,-0.1324409784,0.6523891972,-0.3958442557,1.4975305757,-0.0797591892,0.1895557758,-0.8010229898,0.346194212,-0.2421621678,-0.6451634978,-1.2966927611,0.2414086769,0.7336879535,0.3997200067,2.3244387827,0.1272809604,-1.0098422919,1.0335136745,-2.0089202712,-0.5846766585,0.7171560402,1.3529935445,0.9484288669,-0.4082621014,1.24138716,-0.8979117385,-0.3249813673,0.1781432276,-0.6527887666,0.0238458555,-1.6632063376,1.1877554439,-0.6653507014,-0.3548280061,-0.7685779146,1.2839929381,0.0784177106,0.3850834174,-0.0998167159,0.9793813657,-0.316836156,0.1259521893,0.101043039,0.6795294751,-0.2311405821,-1.0685710245,-0.2688753676,0.9752852768,-2.0941139648,-2.142621336,1.7974806681,-0.5629048215,-1.1883091802,-0.6296483651,0.0483278977,0.7035667395,0.3422903088,-0.6092343335,0.3975191991,-0.0365418849,-0.3525952815,-0.7170776217,-0.0794588049,-0.1779615973,-0.1786879607,-0.746112055,0.938817244,0.3663733497,0.4633705299,-0.1619259391,-0.4431775521,0.4763343744,-1.0310757301,0.5517639694,-0.6293074317,-1.0501078325,-0.4856525981,0.1251175425,-0.1522816362,-0.7237551776,1.2435549988,0.5329034922,-1.1164558119,-0.2067217271,-0.7846593188,-2.0924717709,0.3855581857,-1.3819883083,-0.535632325,-1.0260415033,0.8808126004,-1.4355988851,-0.8958184024,0.2735377467,0.9071213583,-0.3837652479,0.8065441901,-0.1982306413,-0.8040813654,0.5642802061,-1.0800122628,-0.2950963937,-1.0171387691,-0.18953544,-0.3434552282,-0.9720425806,0.5645191529,-0.9397377104,-0.452456477,-0.0019075576,-0.2302586681,-0.525341462,0.5496930539,1.5560244381,-0.2194850083,-0.0435994843,-1.2413687958,0.7209771176,-0.0860889804,-0.2572999552,-0.1589763528,-1.1149629942,-0.3051123895,-0.463029144,0.21446465,2.1051221219,0.5674517332,-0.0105753108,-0.009545945,-0.9390541904,0.0940049693,0.8600543526,-0.2141294435,-1.4787811677,-0.0402346889,0.5833958829,-0.3537889161,-0.5981935618,0.0139499347,0.6137537096,0.3020550119,0.4373069789,-1.079946583,-0.9372001882,-1.5765638146,1.1489815969,0.1709033622,-0.9270687315,1.8528173267,-0.7379206334,-0.8628941263,-1.1217947026,-1.3523307062,0.0219793518,0.7921479299,1.7951545706,1.75421141,-0.5175138654,-0.8947365178,0.07879225,-0.9119884553,-0.5649023042,-0.0814297164,0.295300742,0.8008034784,1.3213410246,0.7520700297,0.82285752,0.6405313342,-0.1638956842,-0.0726019768,0.5419781831,-1.1045034296,-0.4404743607,-0.7801369206,0.2512241296,0.9504913662,-0.8588374134,-1.1529386984,0.6217947217,-0.1380738258,-1.1543511648,1.3373717841,0.7735180308,0.6474595263,0.4642162022,1.3129724839,0.7198109363,0.174601439,-1.3929516482,-0.1319437536,-0.4826028555,-0.3936576553,-0.7718209814,-0.9420527362,-1.7428089524,1.5052416373,-0.2822246894,1.0620664699,-0.2832865655,-0.3092527965,-0.476261808,1.4359343749,0.032156094,0.3957883523,0.0702823269,0.5986268666,0.9256569695,0.6910844593,-0.8027392812,-1.3399296155,-1.9329957948,-0.0623545543,1.1240515868,1.1393914822,-0.819418446,-0.8862126733,0.3666322941,0.4494738856,0.2289983449,0.3352755385,0.7070244675,0.2961587271,-0.1372161842,2.2920136723,0.820407532,0.3874219352,0.9422611928,-1.7486894326,-0.8794890223,-1.9012978256,-1.2533025768,1.1190035248,-2.1439200952,-0.363212551,0.0790823772,-1.0866326359,0.2952673851,0.4582096619,-1.3499307378,-0.1163183888,-1.2898620984,-0.0058317969,0.9291337164,-0.4509054173,0.2875715777,-0.4513934626,0.1456329082,-0.3064387192,-0.2675735395,1.2766946663,-0.0599082279,0.4294003025,-1.3819124906,0.6034570427,-1.626643758,-0.116832526,0.6088665416,-1.083569339,0.8367610057,0.6085769558,-0.1217041598,0.4656888775,-0.6216546493,-0.5911499607,0.7701751572,0.682716587,-1.1479125015,-0.8437677333,0.7405763848,0.5211228198,1.0368512763,0.5914040091,-0.072179195,0.0035457359,-0.9745946343,-0.2515585066,1.8573260938,-1.7954708579,0.9218356747,-0.2958907633,0.3199794637,-0.1656631487,-0.2915236609,0.0724922362,-0.1644043092,-0.8538040832,0.0914503026,-0.2298265732,-0.0624381729,0.1779099884,-0.7428579026,0.2430875229,1.1828601482,1.2162664187,-0.298464919,0.287314465,0.6928819997,-0.7483437783,-0.9804595704,-0.2084120653,-0.3576144972,1.96273251,-0.0110255885,-0.7691604968,-1.2831222164,-1.3413569057,1.3518498597,0.0460964747,0.7716646945,-1.2036789577,0.7283107951,-0.7709831768,-1.0087946468,0.103966032,0.5136920503,-1.1614547318,-0.9492863477,-0.1407934888,0.3185994172,0.6324006057,-0.4685606589,0.1146156061,0.351445638,-0.8677618395,-0.393323437,-0.7361832603,-0.0593166292,0.2198899547,-0.38555019,-0.1149216118,0.5303552129,-1.2694413321,-1.126276385,-1.1388056772,-0.3437282956,0.123329983,-1.0120383562,-0.7673031868,-0.3115596389,-0.2783464078,0.1735400909,-0.5198479633,0.180171787,0.7631009063,0.8277275805,1.1470155283,1.3783628648,0.3091953445,-0.4834021048,-0.6543016527,-0.8470876156,-0.585605794,0.3958608177,-0.7874210142,-0.1245494094,0.204832552,0.8555313178,1.0473661341,-1.7113226765,0.5185762233,1.1799993863,1.0364307302,0.0470228234,-1.5726613442,0.7656264552,1.4803154193,-1.5581251678,0.1313965892,-0.2658177194,1.8509450196,-0.8975644359,0.6840746768,-0.1557074151,0.003709457,-0.4495616959,-1.5251607826,0.5326209711,-0.7922612127,0.3906658142,0.9869042871,-1.8868671153,0.2154769954,-0.4467088757,0.5543762348,0.535896321,-0.2305297086,0.3751007411,0.0507232457,0.2486033042,0.075484237,1.4405101532,1.0108014103,0.3682619406,-0.7145260836,0.7357514961,0.4441768602,-0.9394845437,-0.7931035487,0.754739581,-0.2739857757,-0.3373898093,1.2602437125,2.3367966588,0.9951863502,-0.1306096334,-0.3640286085,0.3927905162,0.2958426467,-0.4076747814,0.9825949763,-1.1743769046,-0.0169329018,-0.9188352503,0.976216839,0.3952643522,0.0011107001,-1.8118718859,-0.1251982226,-1.1563967062,-1.1329102582,0.4886025987,1.3951571127,-1.0919828155,-2.2082330058,-0.4545555868,-0.1140844679,1.7623297458,2.3367525354,0.0459933065,-0.1315895159,-0.7988467701,0.5908809453,-0.8761664348,0.5314019358,-0.4051448532,1.0495603534,1.2562806856,0.1801270612,0.7862199395,-0.1086378427,-0.4099126861,-0.5766488473,0.923802551,0.2810987492,0.4618674373,-0.6782682131,-0.6710987012,-0.481390058,0.7124351124,-0.0874450575,1.6908762975,0.0652279086,-0.7879775371,0.8991949308,0.842499092,0.5370526708,-0.5094175679,0.6734440059,0.322726948,0.9335756722,0.1309570772,-0.0584993922,-0.2845465909,-0.8715538865,-0.403740103,-1.4823362912,0.6185981507,-1.1388670806,0.2370887906,-0.0448291177,-0.4588920689,-0.7399384711,-0.9860451819,0.7362282981,-1.0140348709,-0.1721520953,0.7338503811,0.189718725,1.5177182726,-0.2036059592,1.1774800524,-0.2036640401,1.0255658562,-0.7765655029,0.0222930771,-1.1711352729,-0.3433797013,-0.4688819357,-0.4662921164,-0.9187835502,0.1471058889,-1.1897663804,-0.5839987559,1.1718653549,-0.2788614884,0.3870899681,1.0668823568,0.7132997699,-0.1818320911,-0.0704406996,0.7609779643,1.1670280823,0.4657450031,0.7404844227,0.5754755942,-0.8699495711,-0.1960032565,0.3289329179,-0.3200710026,-1.1655861482,1.4515520836,-0.0638424081,-0.8777666976,-0.7984682629,-0.4736958796,0.388253686,-0.1937204327,2.0951085331,-0.9351308673,-2.1085848258,0.4381103498,-1.192338287,0.295919744,0.621562197,0.0039812159,-0.3409159994,0.7621695361,-0.4451132947,-0.2377592348,1.0089490208,1.3711180532,-1.7238895173,0.1365611007,1.0189990338,-0.523764585,-0.9368527144,-0.8454062998,1.6084734471,0.4508500563,0.4130504385,0.2884083608,-2.0029170479,-1.1661298219,0.4847662008,-0.5356714597,-0.0928389556,0.4223694365,0.0372730284,-0.5899128455,0.3104752763,-1.7386992649,-1.3144367077,0.1719874878,0.547503042,-1.9480969216,-0.9085262898,1.0427988125
   -1.0963701603,-0.1510003664,1.4711859491,-0.6443777101,-0.0877709517,-0.394521492,-0.089398944,-0.8249425131,0.4486048278,1.2699130777,-1.1663064483,0.8509243144,0.8385289811,1.1194598823,0.0033510113,0.7090316103,-0.2255077399,0.9586637469,1.4825441005,0.2233808026,0.6378386421,0.0358585054,0.4359235741,0.3925594268,-0.4443022237,-1.2456722148,0.9325067634,-0.3104079977,0.1643174584,0.5405317031,-0.7429955119,-0.9775356043,0.6094729981,-0.7819726737,-0.2889516579,-0.0534058596,-0.9635288373,1.3280755506,1.3096739101,-0.2813790353,-1.6943135546,-1.36364876,-1.5719903162,0.9127512882,0.1989708362,0.3045613347,-0.0722296702,-1.2691742509,-1.1400712498,-0.4330301081,-0.9671238727,1.1437809147,-0.7818041429,1.0020480382,0.382586398,-1.1163612738,0.5692251369,1.684222993,-0.9117389579,1.2828055037,-1.9714407088,1.3185466896,1.1693205826,1.2342398452,1.1894839061,-1.7460806595,-1.2580941329,0.3953972573,-0.4681280446,1.4442899066,-0.3202172636,0.6068439964,0.8148646421,-0.237568713,-0.5786723569,-0.9643548506,1.210185348,0.8947303262,1.735684661,0.6795697871,0.6264547059,0.0134858991,-1.0606310591,0.283961902,1.2415414068,-0.1573206885,-1.4812083749,-1.5187419777,1.0202002991,0.0106237776,0.7326288645,-0.8379436251,0.7571955535,-0.0611513126,-0.9102084707,-0.6670408573,-0.6138362667,0.2922475081,-0.3413529884,-0.0927294659,0.0294176715,0.1767710158,-0.4245720062,0.8677648996,-0.8538325936,-1.0432887775,-0.3702228415,0.3439078099,0.2085162059,1.2959477093,0.2870369893,-0.4583393901,-0.2393170224,0.1790445144,-1.6945962896,-1.8519376298,0.319748628,0.2606354268,-1.4313174936,1.8947402975,0.0834269036,-0.5097338519,0.3128823128,0.5800678167,-0.6025200399,0.0198830192,-0.2408753004,0.0699641601,-1.1263942014,0.7426701877,-0.2824167448,1.4772865572,-0.7935945231,-0.2779456806,-1.2304288735,0.8110152244,-0.4306723492,0.6928214409,-0.0557630807,0.083454877,-1.0208613477,-0.4070316963,-0.400787648,0.9405147178,0.3938834827,1.0444938294,-0.991568425,0.7933453652,-0.4260812614,-0.5837536593,-0.199314239,-0.0129224967,-0.0369788189,-0.7718972921,0.5548843609,-0.3900330699,0.2409678471,-0.3992655011,-0.4493237161,0.7784372973,0.0844676927,-1.1417782543,0.9383572527,-0.9922289351,-0.3978569366,-1.1951637504,0.9487449255,0.2222695292,-2.6202542192,-0.4005000821,0.7952727973,-0.0686654784,0.2295208908,0.2421995479,0.7200486803,0.9100113627,-0.4368889992,0.2207398987,-1.6495359242,0.1284130921,-0.4550810581,0.5859909647,-0.8047943795,0.2623821753,0.3374033968,1.7973325678,0.6431195052,1.3160536561,-0.1748560459,-0.2617865817,-0.16153096,-0.0277617192,0.0500416708,1.6187930686,0.5164205179,1.421037581,-1.5067787935,-0.4149222188,-0.4346634493,-1.2698908159,0.2048921665,0.6624948859,-0.7947522677,1.0815158469,-1.1655759366,0.440636444,-0.4330325913,0.8237905457,-0.4388559062,-0.7135462923,-0.8904704662,0.8326570249,-0.9995800938,-1.0626152237,-0.372414193,0.5351047439,-0.914640055,-1.6883686199,0.7150949435,1.1413399165,0.0428941564,0.6534579477,-0.2238635724,0.9799956893,-0.736630396,1.9886540779,1.9660960853,-0.5023890575,-1.0887566048,0.0792148975,0.4429902757,-0.8795655049,0.0985441717,1.2370522319,-0.3961763486,-1.4012224449,-0.3694843624,0.9467698986,0.8335770901,0.3509309616,1.6487330557,1.2803845779,0.0313236248,-0.8142130024,-0.2677019031,0.5581495035,-0.0808172804,0.6817837984,1.8119258016,-0.4553837621,1.0980386959,-1.2016765948,-1.4410029564,-0.2106026935,-0.5360571543,-0.4982128031,-0.164530642,-1.2501113792,-0.9216553899,-0.7965924238,-0.6269750795,0.0501941078,-0.2714617022,-0.380537971,-2.248277121,-0.257066413,1.6785952109,-0.5788097477,1.113734254,0.2883797317,0.1732737056,-0.5942225669,0.0466911254,0.3170954855,-0.0357208006,0.8893940159,0.213865467,0.3493972434,1.370743732,0.1893973994,-1.0662224938,0.4235424648,0.6598556279,0.4880537938,-0.9807937063,0.9387925284,1.334725591,-0.50889143,0.7521565749,-0.7488464087,0.6544883685,-0.7431451711,-0.3474700105,0.6480291856,0.0685938374,0.0287259352,-1.8021120311,0.3264540078,1.2995405267,1.3618123011,-0.8437486184,-0.416477159,-0.1582639771,-0.8460101762,0.6417089238,1.3062906016,-0.69824402,-0.1965273018,0.1985387899,1.6037413385,-0.1118187928,-0.6242827316,-1.0347904087,-0.1429498009,-0.9734890121,-0.6935923431,0.6205838339,-0.7818989644,-0.2114557689,0.6836762047,0.0666884928,0.3611594268,1.3300594537,1.4086025656,-0.5053088174,-0.1009194356,-0.7646313588,0.4631501552,-0.1890689815,0.2568226785,-2.2532174486,0.159534265,1.3522047005,-1.9887657473,-1.6727482419,-0.6800628345,0.535479167,-0.7056795713,0.746188192,1.4847161984,0.0926076903,0.5337545513,-0.4517348568,1.2075064816,-0.4285719248,-0.5121137355,-0.9139590246,0.6119170547,-0.7045010793,0.913712652,-0.6356501734,1.500425697,0.7424358988,-1.3495632699,0.0899395495,-0.4093839085,1.4816238502,-0.8620817398,-1.2151822786,0.6446519288,-1.6201063626,-0.0512262293,0.5756698509,-1.4700770215,-0.9186143093,-1.0424791292,0.6821388825,0.0589620014,-0.8067452963,-0.0253218139,-0.0357022256,1.2254656005,0.180550577,0.2310236603,0.8042653099,0.5579308351,1.7385262783,-0.2241647503,0.0584689433,-0.1719633713,-1.4199551625,-0.3900135864,0.9028778629,0.1278343153,0.4280418303,1.053087027,0.1286945199,1.0589761578,-0.2049590221,-0.1533399307,-1.636738957,0.944291871,0.8718302535,0.4823648568,-1.2191570668,0.1463959236,-0.199542296,-1.5991272966,0.5411991746,-1.0246950906,1.0891344964,-0.1013387004,1.5266942718,-0.2727506511,0.8660088342,-0.5153281349,0.4937116405,-1.8431772328,1.6198879373,1.1552300484,0.6536024997,-1.5889894617,0.49116322,0.4501664253,0.6594992217,-0.8357290857,0.2996657293,0.1491833953,-0.2160276654,-0.3020429485,-1.3791069198,-0.1096527728,0.0967384543,-0.4585120095,-0.557156801,0.2673963194,0.2213366428,-1.0315540159,-0.8976487531,1.7381734371,-1.6495427473,-0.4000534986,-0.61050959,-0.7529490896,1.0360367909,-0.2072904242,-0.2856809267,-0.3804382275,-1.556974578,1.4405780363,-0.1711599878,1.2348075513,-0.8315138268,-0.2962055418,0.4868404416,0.3511383831,-1.1067952033,1.0580201902,-1.8692823064,-2.1588187166,0.4568322435,0.8988702911,-0.1951815701,-0.1194038504,0.0084287235,-0.1403512253,0.3656560302,-1.4680271335,1.183598091,-0.2682323408,-1.8739297568,-1.751131772,0.1869904325,0.0748807051,0.5215798446,-0.6694632883,-0.8298772105,-0.2497732712,0.6516216531,0.8262048846,0.5757528265,-0.2161881486,-0.1668842211,0.4315573076,0.3292128784,-0.6192056527,-0.5679715824,2.1345483252,-0.8494285804,-0.5273747808,-0.8580677484,-1.7626669259,-1.1431076898,2.0505579868,-1.1855033936,-0.6540158003,-0.676354716,1.5778900228,-0.1717149461,-0.8307945435,-0.6825260014,1.9627797662,1.9976964351,-1.0550821702,1.9067324107,1.6163684306,0.1440948264,0.907367887,-0.1572596607,-0.1633056371,-0.1245817027,0.6662405893,-0.572747991,0.440499357,0.9639601464,-1.1172917664,1.1976621414,-1.015176156,-0.1209057019,1.411309978,-0.3114894632,1.2764532253,-0.2794127757,1.7449981044,-1.5602054849,1.150935705,2.3587312319,0.5003784936,-0.0669489864,-0.7917432382,1.2329641063,-0.788461329,0.6095176421,0.3631857519,-0.6887531195,0.5479281126,0.2639269891,-0.5946415538,-0.1614361146,0.620918861,1.4427587508,-0.3005109222,1.3823837885,-0.1425652416,0.6089826479,0.1953270535,0.4150699143,-0.7567442714,-0.2862724817,0.5837357392,1.052053569,-0.4111575511,2.394135178,0.3925857731,0.4459925048,0.3690152382,-0.2039916318,-0.7642909139,-0.7705810694,0.4000024398,0.1958836332,-2.8837605861,0.3348027368,0.31093258,0.1987288068,0.534901091,1.3651815231,0.4058664678,-0.9480671237,-0.1140330776,1.5990652075,0.3457689986,1.9821700262,-0.3770908619,0.2271162477,-1.3178283928,1.4843743461,-0.7210112185,-1.4218589438,-0.6136967547,1.3726006183,-0.5735961121,-1.1951297278,-1.0851671283,0.2784314442,0.7538270959,-0.4078585162,-0.0034286727,0.4434738015,-1.5928707403,-0.5375902666,-1.0012745817,-0.7612084406,-0.0126014771,1.2274064104,0.4252728547,-0.1237803982,0.4886624574,-0.873077697,0.421148098,-2.3297309796,1.9714888096,-0.7776120391,-0.2778520994,0.7615514671,-0.2082110973,-0.1906978275,0.9918306962,1.2934315201,0.4967401311,-0.5579506384,0.5530574461,0.878523256,0.2218576619,0.1672552444,1.5798667824,1.1099303655,-0.1703832671,-1.114674772,0.6317528363,0.2000970483,0.6728009924,-0.9294223081,-0.6059200405,1.2855941388,-1.5796850897,-0.9328232056,-1.814261573,0.9184093355,-0.2887636684,-0.0524706608,0.6375674653,-0.4887017235,-0.0550153464,-0.4194328863,2.1005904975,1.3535498453,1.4483410892,-1.3369853817,-1.9144473006,0.4189807162,-0.8725490419,-2.2158330569,0.7569604324,0.2071862796,1.6125245151,0.648033836,-0.6123565262,-0.4474363222,0.3442697013,0.1067482828,-1.0300375039,1.036069744,1.8355090156,-0.9849219573,-1.3763987331,-0.1953204812,0.0768020101,-0.3430094329,-0.098949036,0.7260681747,-1.2407138359,0.5110654565,0.4788794603,-1.183111389,-0.8489449489,-1.3041376816,1.6423543445,0.4166876337,1.0100749553,-0.7610795713,0.4062413656,-0.3324831827,0.908934546,-0.4654887084,-0.7136471257,-1.138042835,-0.2509473391,-0.1955721832,-0.1610535962,-0.1429437696,0.9559598333,0.2344519164,-0.2665434151,-1.5982146561,0.9188194764,-0.1801860277,-0.6776447507,-1.0201572903,1.8581625723,0.0274019702,-1.5226545495,1.3261802213,-0.5167332933,-0.702795551,-0.8647244413,-1.4975050653,1.1295073736,0.1271634599,1.1335076476,0.8314416556,-0.8602887571,-0.1314754575,0.583742178,-0.6202374232,-0.4476911127,0.2478361572,-0.2557465936,-0.3786626313,1.1750068487,0.0374229547,0.9479478817,-0.3579156896,-1.0238354735,-0.3599955511,0.270177588,0.7635572217,-0.2421222175,-0.4752162104,-0.1093099814,0.5041936665,-0.4906270975,1.2095854582,1.644703361,0.4625334827,1.8736851774,-0.128909833,1.1459488447,0.8606815426,0.7778864039,0.114922125,-1.2477109776,0.3674154013,-0.7758717909,-0.7178492891,0.2933447239,-0.7910674899,0.2589676132,1.3399474137,0.9823044879,0.4628688849,-1.5104091838,-1.3812195569,-0.7803925617,-0.7024957363,-0.4627793383,1.3704624459,0.7063622203,1.2652670223,0.4006308267,0.8069988713,0.0454410849,1.2246305906,-0.184958463,-1.2581709879,-1.8570414414,0.5819160573,-0.3990138251,0.9071822047,-0.8123979104,1.0932167564,-0.3586817384,0.9748745327,0.948307371,-0.2773950378,0.6821536318,-0.5142725006,0.7523639997,1.4791949089,0.936828414,0.1569406576,0.603541741,0.0327088219,0.2859889258,-1.2421499312,-0.8971944736,-0.480405942,-0.8314903112,0.0946048466,0.4550923077,-0.7652651817,1.923742781,0.9346711766,-0.6540399624,0.4704157597,-0.7891379137,-1.5694175002,0.1794583645,-0.1341427772,-1.30188616,0.3223973203,0.0914896939,0.3181703354,0.1437676136,-0.7552253577,-1.2483299552,-0.6749869377,-0.2147894443,0.8480407744,0.4220837348,-0.1234809008,1.0483137384,2.2293670588,1.0432366872,0.9569866839,-1.4478346061,-0.4563463243,-1.4112469055,-1.0176256606,1.2854743016,0.8272198962,0.3082115669,0.7098690437,1.0461820112,-0.3958695502,0.2940180096,1.3025915805,-0.8402718534,0.4922607071,0.6838357189,0.5922344236,1.0300753723,-1.4609043158,0.565926227,0.0341887897,-0.774246435,1.0079911646,0.2856679814,0.361068101,-1.1970881044,-1.375013819,-1.1372667601,-1.1092669878,-0.9123554166,-0.77473207,0.2564394089,-0.4344532488,-2.0759807485,-1.4017976393,0.5628132527,-1.2928436247,-1.0139134763,1.1537623735,-0.1703740856,0.1117761395,-1.6780918859,-0.3032061418,0.3634297598,-0.4630321822,0.1279252182,-0.3292930332,1.4817539787,-0.8747135829,-0.1060695241,-0.2121954717,0.57615912,1.3768416908,0.40963476,-0.0591747128,-0.8394973001,0.2718062551,1.1226016328,0.841898182,-1.4267125895,-0.0173227629,-1.8060784817,-0.1073163899,1.3367001697,-0.4081671641,-0.467540698,-0.545264046,-0.8786152603,1.3145871147,-0.7882573408,0.158210803,-0.4906543331,-0.8401677602,-0.7696394811,0.4098839623,0.6371287905,-0.168452062,1.2468750298,0.6531743564,-1.0127799947,-0.2286086424,-1.3112495334,-0.5060808501,0.2246437951,-1.1807369254,0.2594788477,0.9032152509,-1.7055356439,-1.1883717392,0.051787527,1.4505816871,1.2009363373,-0.873284793,-0.0291395742,-0.5856960385,0.0525625247,-1.3711424343,0.4627349033,-0.3652668366,0.4841251954,-0.4799830056,0.417665205,2.2662034106,1.0594973853,0.7878124936,-1.5935007632,1.7343312282,-1.1189489275,0.2594486982,-1.809688029,-0.4709571195,-0.124426572,-0.909469463,-0.2671786401,1.5188812945,1.0833872876,-0.1661278372,-0.8563079507,1.0857415391,-0.0251689249,-1.2318578155,-0.5492687565,1.1030621607,-1.0758037387,0.4538044943,0.4420018007,0.4601930746,-0.3028123825,-0.9601342007,-0.5995307066,-0.2533388966,0.2566358122,0.6768393311,-0.3314003442,1.9647641004,-0.6395854632,-0.114257967,1.1442678907,-1.4136416985,-0.3829506949,1.0678260685,1.0992895451,-0.6876284525,0.5206289497,-0.2483230172,-0.4636332661,-0.8848467955,0.8610849843,-0.6729159033,0.8178674795,-0.8305335342,-0.5041856819,-0.3919104883,-0.2281920631,-0.0008475851,-0.8704657331,1.6017669768,0.0457397206,0.9033244506,-1.4271676332,-0.0883514323,0.1665367339,1.3218684269,1.33109156,-0.6695072879,0.9354714118,-1.7367421481,1.2648818396,0.2375667245,-1.6487439727,-0.5980870289,0.030329755,0.721139551,-0.61725204,0.0274736407,0.1333563898,-0.6873401941,-0.6040586511,-0.1472733662,0.4660401568,0.107950029,1.1260889851,-1.1632669849,1.7971526351,0.8699098703,0.9117631042,1.2489328702,0.1721529666,0.1598294583,-1.202903357,0.5265178748,0.2121161034,0.4605225975,0.4550336185,-0.944598749,-0.653142704,-0.1688844396,1.1266514375,0.2439464812,0.1526195057,-0.1634610687,0.9140341957,0.4388343836,-0.40270912,-0.0160048668,1.0515511679,-1.8284988363,-1.5618181443,1.1551579303,0.5097144953,-1.6195069801,0.5360381713,0.4640911016,-0.2608111473,-1.4954637773,-0.6080266625,0.0729964447,0.6477294495,-0.1840153228,-0.5739784639,1.5658714314,2.1592787574,-0.7283827087,0.9592968668,-0.2939073059,-0.8621903327,-0.7235832311,0.5832753794,-1.0597684191,-0.0748487441,-0.7609959782,1.3289160099,-0.9649523857,-0.6649726405,0.5696958676,-0.3212860892,0.0873113959,-0.4426396384,1.7143585209,1.2856460644,-1.3268821789,0.1111928501,-0.2481263217,1.8295439845,1.4154500407,0.5269993974,1.3904939599,-0.099558768,0.3051475326,1.4103730255,-0.8126831518,-0.0901898393,-0.1515479222,0.1914292638,0.4092507982,-0.3249913523,-1.0450306898,0.3556062999,0.6993921451,-0.2209547973,-0.8059221481,-0.2433899897,-0.6047394693,-0.6915674465,0.817463515,1.7418752643,-1.8515738718,-0.1546701926,0.2355193433,-0.1354926965,-0.9497623384,0.6865913532,-0.8675773232,-0.4350131376,-0.374764378,-0.0283020766,0.647742125,-0.1678896285,-0.0245692517,-0.6392238598,0.1467431114,-1.2739752733,-0.2718427758,-0.3338211489,0.301899975,0.3921319811,0.4113356717,0.281613208,1.7260220717,0.0573973721,1.0244383898,0.113828977,0.5124000918,0.1648175158,0.2539728166,-1.6785232366,1.6714802849,-0.304954076,0.3107982732,-0.8110126951,-0.0696270877,-0.9380559428,0.7774030226,1.013219066,0.4030696511,-0.6405210392,1.0896653846,0.1655675357,0.9894789849,0.4483707995,-0.429828095,-0.6733612294,1.0141731573,1.26561941,0.0953121058,-0.7956896188,-0.5969911727,-0.1102370977,-0.3316938891,-0.3862007948,0.0466610009,1.2930451784,0.2198029947,0.1641374279,-0.5806774498,-1.3534354081,-0.7033164192,1.2536938043,-2.2956142866,0.5157385864,-1.2798227278,-1.3902638728,0.5575311726,0.8160703733,-0.7681952981,1.030838304,0.3214621414,-0.095709439,-0.6029697057,-0.0305372708,0.6872805085,-1.011974304,0.3061494676,-0.7895441704,-0.4981085607,-0.4276320528,-0.5120213783,0.3465345545,-0.5490152558,2.1694233885,-0.5401128433,-0.5915138268,0.0817328838,-0.504421598,0.1864011411,0.1306315314,-0.3156344195,-0.0394366049,0.0419742106,0.0293805093,0.6561316954,-1.4986540287,0.7058693481,-0.3750708332,-1.3129314128,-0.1549339547,0.4877304066,-0.3625703935,-1.1307309871,-1.5066302931,-1.133073216,-0.2644401163,1.1677010825,-0.3707260848,0.6779643913,0.4707786714,-0.6315478681,-0.5138043609,0.0867914448,0.1160464363,1.7318260279,0.371728509,1.1259782243,-1.2232898552,1.7540851204,0.2141107092,0.4629599641,0.8698458605,0.3318538019,1.9987347338,-0.1067664742,1.6031659563,1.4154685855,-0.7036120862,0.6669361963,-0.7042049343,-1.7105877737,0.6181625629,-1.0904332146,0.8664420471,0.1789564715,-1.2642929547,0.1179731606,0.305825157,0.6480683876,2.0512559834,1.5780172405,-1.1852086289,0.8024009181,0.2266849157,-0.014894183,-0.4934818806,-0.2353472124,0.4507140572,-0.0780793099,0.8258994066,0.0954976149,-0.5411600889,-0.3319838276,-0.002960834,-0.5905237493,1.1654390949,0.0683503635,0.3071118325,1.934575038,1.7277635678,-1.2740287926,-0.2741196989,1.6909758723,-0.9108219129,0.6334354007,0.4537073531,0.5691089869,0.9425020493,0.4410546823,-0.7863550628,-0.4603266307,-0.1557217224,1.0395939083,-1.2307758745,-0.4330168396,0.1945013106,-1.2552629986,-0.3029345392,0.8940385717,-1.0872197526,0.4214139784,-0.6761333372,0.6510923182,-0.975380142,0.0229658888,-0.0075610089,-0.8296890651,-1.3911272511,-1.3983323919,1.4070892876,-1.1177611171,-0.9920054269,1.5660700779,-0.0031575766,0.6316663091,2.4135331979,-0.8263543402,1.1951639829,0.0773801219,-1.1152658261,-0.9041094404,-0.7143895376,-0.4793933431,0.8520556064,0.9881745281,-0.547418905,-1.1240176381,-1.5918271562,-1.0277602758,0.6454409618,1.2505606328,-0.7555697758,2.1369495847,0.4666089505,1.6535026482,0.2646657133,-1.0411777043,0.3343482348,-0.5106412411,0.2823759022,1.4519202924,0.6003577188,0.1491358106,0.7447512697,1.1782013755,-0.509020638,0.0042389712,-1.5304488856,-0.5839767406,0.1174431435,-0.5136374645,-0.2851954484,-0.1228610204,0.1806385442,-0.444040922,0.3639496246,0.574806112,1.9815114618,0.5680515756,0.3556274539,0.4999536769,-0.4635386227,2.6824933608,-1.4910290605,-0.6734492485,-0.319576288,-1.7073683761,-0.3251504266,1.0313258296,1.4756378064,0.6803814399,-0.5562018154,-0.9487323186,-0.0949216161,-0.7193895808,0.2687916881,-0.8940762697,-0.5016921855,-0.9621296556,1.7931524529,-0.6248789684,0.5485043863,0.1997693308,1.2324360859,0.1033728293,0.9031517592,0.4431539695,-0.2126777795,-1.1732658889,-0.3047331398,1.2098945116,0.8611320205,-0.9179772819,0.5860777532,-0.4158501983,-0.886578842,1.0855548372,0.3481474876,-0.0873512173,0.0424998441,-0.4091496559,-0.1250933171,-1.4355355138,0.7081963268,0.5037901498,0.1534096426,-0.4475915728,-0.5530701915,1.1507080634,0.5036335411,0.3571020526,0.4719705914,0.1918759658,-2.5066372143,-1.2671279757,0.6505838318,0.1113182165,0.3597289088,-0.362628649,0.6205598165,1.7998051426,0.2324039901,-0.2556409198,-0.1314121123,-0.514476518,0.8570628557,0.9613135879,-1.8461925836,-0.8138174471,1.8641572753,0.9833926552,-0.7260389448,0.4651315576,0.6664333649,1.5533361219,1.0615658163,1.0543024214,-0.1238056846,0.5101041396,-0.6615660325,0.5562220242,-1.1617052844,0.4400121798,-0.6853926772,-0.4658551944,-0.2299822551,-0.5631554223,0.114835495,2.4617458208,-0.7436514549,-1.3210152278,1.0674761218,-0.3443434954,-0.4530224782,0.5653241684,0.7604281275,-0.3751814307,1.5488387019,-0.051949709,-0.6717483206,-0.5153852949,0.7186795509,0.3487255792,-0.3978233018,0.0156870095,0.4191303954,-0.0857489187,-0.6071244133,-0.0024051626,-2.0212725351,-0.3172255834,0.1309909632,0.5542909638,-0.3305954059,1.3852983074,0.9557500856,0.2649525299,1.7249953648,-0.6543356472,-0.884144131,-0.0213056055,0.6329229408,-0.0470460495,-0.9692755896,0.4300837773,-0.371039279,-0.0364915606,-1.50314786,0.3797987105,-0.116199102,-0.3980644499,-0.2522814218,0.0378757437,-0.4387553501,-0.8538846106,0.2627180505,-1.3940104459,1.0731926677,-1.1982596179,-1.201931937,-0.3308020439,0.0298407325,0.0565585847,1.3500132253,-1.6375748261,0.6478894006,-0.0661256773,0.0979327185,-0.848959652,1.2025563073,0.6965688662,0.3859345406,-0.1395420239,0.2109228052,0.1089077302,0.0869975719,-0.0179354845,-0.4374977515,0.2148041306,1.2638768055,-0.0083105557,-0.691299494,-0.0213906125,-1.0428261764,0.9604941951,1.3199549598,0.2536508223,-0.6352892062,0.4104895275,0.3315043862,1.3035329885,0.593120915,0.7089089787,0.6206072151,-0.2659677701,0.5826757323,0.7497143296,-1.5506682411,-0.102464457,0.9917400512,-0.1614422179,-0.4223129334,0.56123725,-0.8238696184,-0.1154783401,0.842425951,0.0645951587,-0.9204324667,0.5541944614,0.4752898259,1.9319805536,0.371772321,-1.2199753532,0.3474079496,-0.7790704737,1.3792911331,2.4628109232,-0.5181785241,-0.936056014,-0.4717750073,0.7673171593,-1.256012349,-1.311092207,-2.4928590566,-0.4031394703,-0.8198084839,-0.0199956666,-0.6512389947,0.2593514083,-1.1664398598,0.1588626171,-0.9830602833,-0.0365714249,1.6645755663,0.747801521,0.7653139125,1.2855373399,-0.1969219791,-0.6302399894,0.2596365299,-1.3633107826,1.0085955464,-0.6157688176,1.5199962621,1.227189498,0.4643268942,-1.2322709245,-0.8442014818,1.6422337479,0.275917839,-1.2863223625,-0.0385222152,-0.2879228431,-0.5039809508,1.2513717075,0.1629751146,-1.0147531109,0.5843162928,-0.2954399822,-1.1867804017,0.1087373901,-0.1284800548,-1.2661897576,0.2532910137,-0.3012897304,-0.8372375893,0.1496492861,-0.9076852082,1.1200335017,-1.6334970035,-0.5743364503,0.3585342995,1.1321240568,-0.9015436727,-1.0807496848,0.0591001885,-1.7269822537,-1.2576091666,-2.1802745884,-0.0872969119,1.3166828227,0.0932102233,0.2686640108,-1.1564098415,0.5204789102,-1.0375133328,-0.696286626,-0.1935359539,-1.0162704047,0.2253134026,0.604530659,0.352683814,0.8000257224,-0.7486000132,-0.5640296387,-0.6020845635,0.1540383148,1.150477843,0.3173715409,1.0032628843,-1.642275104,0.4797178858,0.2533334781,0.2376970272,0.8710253016,-0.4344947643,0.498701998,-0.0191573509,0.1372489188,1.3137528071,3.1016639441,-0.646507173,1.4173066928,0.6022498479,0.4485610992,-0.5961500463,-2.0840176379,-0.313184793,-1.2240456496,-0.9343071626,0.4292550479,-0.0517408109,1.0608064337,1.8457920181,-0.9213007772,-0.8125130018,0.216620166,-0.6877520862,-0.5777299595,0.5319072898,-0.031098614,-0.5467713878,0.1209145401,0.5082567062,-0.602811006,1.5119533246,-0.1973626146,-0.2886439526,0.044489915,-0.9089073011,0.1304905373,0.1521226977,-0.4187391128,0.2676860497,0.2477334657,1.6600646706,0.5303444304,1.4063505621,0.4057389138,-0.0242192205,0.375704945,0.2616364535,-1.3117916488,0.167850967,-1.5078700926,-0.2429597464,-1.4423517462,-0.4795608495,-0.0771115233,-0.14021745,0.2757788512,0.3367625712,0.5126472231,-1.3942307225,-1.3054668224,-0.3420809201,-2.1469797629,0.4439574631,0.3310379817,-0.0246862874,-0.1115192725,-0.0155903345,-2.1774259177,1.0053161504,-0.2699622392,1.0909217098,-1.8757489307,-0.9073643291,0.3790379193,0.1729168649,-0.9649113822,-0.1423691363,1.4431214798,-0.048055997,1.2324000473,-0.595365741,1.4904481591,-0.6751420745,-0.8509574601,-1.1581537703,-0.7756165524,-0.2650794329,1.9010472719,2.271313382,0.2046134034,0.8610430609,-1.1279057731,-1.1122898611,0.618172476,1.1229846993,-0.1735561304,-0.1224173851,-1.4343115023,0.0232182491,-1.1056046803,-0.0179095673,1.7622071533,-0.1164622233,-1.0768081173,0.4283336431,2.3971132153,-0.867860308,0.5515994618,0.8269315655,-0.3611286816,0.4824134853,0.014345772,-0.2737972714,0.9070903057,-0.8768566893,-1.3118434498,-0.105364085,-1.3868603027,-0.0685304262,-1.0429429409,1.2897817567,-1.9385437333,-0.2402775619,-0.5687379579,0.1716212566,0.781629499,-1.2198978278,-0.0976742141,0.5145277977,1.1912737385,-0.0912357349,0.103746939,1.1306403722,-1.1454521453,-0.8629761652,0.0033815561,-1.076938253,0.5326738154,-0.1641382574,0.5044668345,-0.9074431975,0.6283753715,-0.028979958,0.0332222642,0.2674638229,-0.7583993153,-1.0036204509,1.0118213994,-0.9148387591,0.2687971668,-0.3800915944,-0.2312903236,1.2551304647,-1.2211022653,0.4797956466,0.2742988813,0.584448404,0.8387879461,0.0755161384,1.5183487983,0.4188869817,-0.463719905,0.9426368767,-0.7247936865,1.3415268056,-1.5591441824,0.3843050547,-1.147513954,-1.6488556881,-1.57784261,-0.5821363779,-0.7704116443,-0.0798929616,-1.3646724556,-0.3672681501,0.0378452156,-1.4433305427,1.0239089858,1.0268412532,-0.3738461085,0.0347601481,-0.7698156439,-0.2164006286,0.1209696448,0.2669870414,1.5639789717,-0.4016559738,0.5890192383,-0.5558765666,1.5403823373,-0.090186632,1.0258292468,0.2347564833,1.1938780732,-0.9644428414,-0.6412430782,1.1301943346,1.7260855363,-0.7570332676,-0.5284545927,-0.0999941944,0.0626275974,-0.7626536637,0.2310558867,-1.3184736318,-0.9132688838,-0.8421650715,0.9928449816,1.2439218425,0.0846025555,1.0789824469,-0.008896255,0.0650147573,1.7154526791,0.5835602499,0.3774948381,-0.4569988406,-1.6456778169,1.1614969336,-0.4627513862,-0.8077602014,0.8801459411,0.659186514,0.8273756855,1.7526202728,-0.5874817726,0.5748612589,-0.3721482073,2.1815810758,-0.4280461191,-1.5818245167,0.7769943314,-1.3574228298,0.1338012975,-0.8069437963,0.1899694685,0.3961424787,-1.2776888436,0.0981271866,0.8301437537,-1.6547128234,0.4825117195,-0.5202582174,-2.0609267043,-0.7013748255,-0.1015699909,-0.5037389798,0.1030342212,1.3518679321,0.1570396778,-0.5542737077,0.634369278,1.2711824502,-0.5004764762,-0.7689789334,-0.8503642459,0.0492148276,-0.8268525465,-1.4021277368,-0.8277055979,-0.9379919912,1.1566023953,1.1152963557,-1.1132182455,0.3690657447,-0.7116225463,-0.5774067144,-1.4647554335,-0.1989878368,-0.9471883882,1.278044195,1.0720529572,-1.2110862007,0.7271828001,-1.7493217859,-1.0023641219,-1.3116706091,-0.0531994173,-1.4992404155,-0.1271074548,-0.1884571321,1.2484397425,0.331680062,-0.3016819486,0.7023520232,1.4802166493,-0.5211001871,1.1591604823,-1.4637346144,-0.50706456,0.2764452669,-0.9832346116,1.6778606919,-2.5468804724,0.5557421679,-0.6367170684,-0.4516157505,-0.6259927023,1.1492993265,-1.7660295375,-1.9363396973,-0.3532912843,1.1563490063,-0.5118706445,-0.7552944864,2.1297873331,0.2571405777,-0.4403903577,2.1887846611,1.0669971853,0.0461503918,-0.0513174317,1.9929502021,0.197744307,-0.8146072565,1.2299770973,0.2843501534,0.0348417106,0.8696489904,-1.2099062379,-2.0748451427,-1.6977842819,-0.1860651749,-1.560444218,1.211016933,0.1195921393,0.4685009065,0.6397164145,-1.1223865869,0.5467184408,-0.4361337827,-0.43365261,-1.4768441676,1.0697365599,-0.5003941006,-1.1867196404,-0.168273597,-0.0040099674,-1.0480826039,-1.4624287791,2.0922368013,0.4818674402,0.4524379575,-0.2010107611,0.406216497,-0.4894527287,-1.1756073304,0.8796947344,-0.6776586603,-0.6035823322,0.102734406,1.763990198,0.2803041224,0.5085836957,0.2410471695,1.0398132702,-0.5032667701,-0.0059218132,-0.3304144031,-0.3200305282,0.1394871345,-0.504518405,-1.0423462549,-0.5157496221,-0.9137426919,-0.9652310191,-0.4355397509,0.33894478,-1.3105611263,0.1925091708,0.2050372604,-1.1312224817,0.3163698799,1.0865058414,-0.9341826071,-0.6355349277,0.2586769363,0.387660396,-0.0992988606,0.0158953174,0.9375633337,-0.0281460944,-1.3317113429,-0.1593468441,0.365544636,-0.134638372,-1.477754883,-0.7676616561,-0.6489924445,1.4297635571,-0.1454080347,0.1884686756,0.7086755819,0.4941090882,-0.3185113935,-1.8274630596,-0.249941374,1.5646726194,-0.1859017434,-0.2759008561,0.9632517375,-1.8569510671,-0.5519837878,0.6849459038,-0.70301925,0.3586123888,-1.1118728028,0.0413828417,0.3826597949,0.887506672,0.6382890219,-1.054913375,-1.7534561129,0.6919293822,-0.0521775396,0.816667484,0.29244879,-1.6140903668,-0.4604515757,-1.3010935084,0.1717592653,-0.3056715611,1.18411336,0.2166489846,-0.9378282762,-0.5779221594,-0.833237918,0.2910996139,-1.0311032631,1.1694075425,0.372862665,-0.9128156675,-1.2240828273,-0.2539658817,0.0009290192,-1.2111446897,-0.3551202374,0.7233164777,0.2205144072,-0.3950247082,0.6257888312,-0.1508818078,-0.0225233469,-0.4765636023,0.0440657188,-0.0906603519,0.8551931331,0.4091606276,-0.6567708964,-0.418745392,-1.7393809077,0.2939589884,-0.4849767325,-0.5118062005,-0.7042223181,-0.0778696566,2.0637198394,1.037885291,1.44414864,-1.1284837967,-0.5739815864,0.6136906662,-0.6230640052
